{"learner":{"attributes":{"best_iteration":"216","best_score":"0.9003290532668103"},"feature_names":["feature_00","feature_01","feature_02","feature_03","feature_04","feature_05","feature_06","feature_07","feature_08","feature_09","feature_10","feature_11","feature_12","feature_13","feature_14","feature_15","feature_16","feature_17","feature_18","feature_19","feature_20","feature_21","feature_22","feature_23","feature_24","feature_25","feature_26","feature_27","feature_28","feature_29","feature_30","feature_31","feature_32","feature_33","feature_34","feature_35","feature_36","feature_37","feature_38","feature_39","feature_40","feature_41","feature_42","feature_43","feature_44","feature_45","feature_46","feature_47","feature_48","feature_49","feature_50","feature_51","feature_52","feature_53","feature_54","feature_55","feature_56","feature_57","feature_58","feature_59","feature_60","feature_61","feature_62","feature_63","feature_64","feature_65","feature_66","feature_67","feature_68","feature_69","feature_70","feature_71","feature_72","feature_73","feature_74","feature_75","feature_76","feature_77","feature_78"],"feature_types":["float","float","float","float","float","float","float","float","float","int","int","int","float","float","float","float","float","float","float","float","float","float","float","float","float","float","float","float","float","float","float","float","float","float","float","float","float","float","float","float","float","float","float","float","float","float","float","float","float","float","float","float","float","float","float","float","float","float","float","float","float","float","float","float","float","float","float","float","float","float","float","float","float","float","float","float","float","float","float"],"gradient_booster":{"model":{"gbtree_model_param":{"num_parallel_tree":"1","num_trees":"317"},"iteration_indptr":[0,1,2,3,4,5,6,7,8,9,10,11,12,13,14,15,16,17,18,19,20,21,22,23,24,25,26,27,28,29,30,31,32,33,34,35,36,37,38,39,40,41,42,43,44,45,46,47,48,49,50,51,52,53,54,55,56,57,58,59,60,61,62,63,64,65,66,67,68,69,70,71,72,73,74,75,76,77,78,79,80,81,82,83,84,85,86,87,88,89,90,91,92,93,94,95,96,97,98,99,100,101,102,103,104,105,106,107,108,109,110,111,112,113,114,115,116,117,118,119,120,121,122,123,124,125,126,127,128,129,130,131,132,133,134,135,136,137,138,139,140,141,142,143,144,145,146,147,148,149,150,151,152,153,154,155,156,157,158,159,160,161,162,163,164,165,166,167,168,169,170,171,172,173,174,175,176,177,178,179,180,181,182,183,184,185,186,187,188,189,190,191,192,193,194,195,196,197,198,199,200,201,202,203,204,205,206,207,208,209,210,211,212,213,214,215,216,217,218,219,220,221,222,223,224,225,226,227,228,229,230,231,232,233,234,235,236,237,238,239,240,241,242,243,244,245,246,247,248,249,250,251,252,253,254,255,256,257,258,259,260,261,262,263,264,265,266,267,268,269,270,271,272,273,274,275,276,277,278,279,280,281,282,283,284,285,286,287,288,289,290,291,292,293,294,295,296,297,298,299,300,301,302,303,304,305,306,307,308,309,310,311,312,313,314,315,316,317],"tree_info":[0,0,0,0,0,0,0,0,0,0,0,0,0,0,0,0,0,0,0,0,0,0,0,0,0,0,0,0,0,0,0,0,0,0,0,0,0,0,0,0,0,0,0,0,0,0,0,0,0,0,0,0,0,0,0,0,0,0,0,0,0,0,0,0,0,0,0,0,0,0,0,0,0,0,0,0,0,0,0,0,0,0,0,0,0,0,0,0,0,0,0,0,0,0,0,0,0,0,0,0,0,0,0,0,0,0,0,0,0,0,0,0,0,0,0,0,0,0,0,0,0,0,0,0,0,0,0,0,0,0,0,0,0,0,0,0,0,0,0,0,0,0,0,0,0,0,0,0,0,0,0,0,0,0,0,0,0,0,0,0,0,0,0,0,0,0,0,0,0,0,0,0,0,0,0,0,0,0,0,0,0,0,0,0,0,0,0,0,0,0,0,0,0,0,0,0,0,0,0,0,0,0,0,0,0,0,0,0,0,0,0,0,0,0,0,0,0,0,0,0,0,0,0,0,0,0,0,0,0,0,0,0,0,0,0,0,0,0,0,0,0,0,0,0,0,0,0,0,0,0,0,0,0,0,0,0,0,0,0,0,0,0,0,0,0,0,0,0,0,0,0,0,0,0,0,0,0,0,0,0,0,0,0,0,0,0,0,0,0,0,0,0,0,0,0,0,0,0,0,0,0,0,0,0,0,0,0,0,0,0,0,0,0,0,0,0,0],"trees":[{"base_weights":[5.9059366E-9,2.4277736E-2,-2.1421647E-2,6.271805E-1,2.2924809E-2,-2.3685005E-3,-4.2546313E-2,1.7313842E0,1.0557911E-1,4.888816E-2,9.69131E-3,6.746751E-1,-3.6930225E-3,1.2678637E-1,-4.7424197E-2,1.3859262E0,3.549394E0,4.382585E-2,2.7496192E0,1.8682706E-1,4.449496E-2,-2.3215532E-1,1.0725677E-2,3.8985825E-1,2.9979706E0,1.8619578E-2,-1.73046E-2,1.3869438E-1,-1.6103772E0,-6.2150484E-1,-4.627671E-2,2.4205968E0,9.9509996E-1,3.9664838E0,2.4567776E0,5.017563E-1,-1.9975518E-1,3.3618703E0,-1.2305151E0,5.10081E-1,1.3921185E-1,4.2228427E-2,2.118684E-1,-2.0717947E0,-2.1879119E-1,2.5395116E-2,-1.6982821E-3,1.6119213E0,2.0494018E-1,3.6525013E0,1.651448E0,1.6852692E-2,3.0699638E-1,-1.1326849E-2,-7.727868E-2,8.351979E-2,2.2763854E-1,-7.929625E-2,-2.7581577E0,-6.7196006E-1,1.1095914E0,-3.985228E-2,-1.0065223E-1,9.9112935E-2,1.6572063E-1,8.216276E-2,3.5474174E-2,2.0996855E-1,1.1531907E-1,1.448288E-1,-8.3188685E-3,1.8531628E-2,7.041657E-2,1.8855104E-2,-1.5210487E-2,1.3523485E-1,2.20708E-1,-1.3633229E-1,-1.3721813E-2,9.974677E-3,3.3346254E-2,9.305347E-3,1.3580881E-3,2.7419853E-3,1.2691555E-3,9.080126E-3,3.410722E-2,7.91454E-2,-1.417716E-1,-7.443981E-3,-2.2098674E-2,-3.849182E-3,1.3541154E-3,-3.2760444E-4,2.3064434E-3,1.5713254E-1,6.320927E-2,1.02143444E-1,6.6825384E-3,2.1393304E-1,1.287182E-1,-2.0727051E-2,1.2721592E-1,2.3054292E-3,3.1834582E-4,1.2321238E-2,3.271356E-2,8.879254E-4,-8.9026924E-4,-4.0885755E-3,8.468105E-3,4.6804473E-3,-2.736566E-2,9.844482E-3,3.4664553E-2,-1.8157719E-2,5.5366736E-2,-2.1512799E-1,-9.720836E-2,-2.3581494E-2,-5.442452E-2,2.9711742E-2,1.9764811E-1,-2.5731553E-3,-1.0065126E-3,-7.313646E-3,-4.1886056E-3],"categories":[],"categories_nodes":[],"categories_segments":[],"categories_sizes":[],"default_left":[0,1,0,0,0,1,1,0,1,1,0,0,0,1,1,0,0,0,0,0,0,1,0,0,0,0,0,0,0,0,0,0,0,1,0,0,0,0,0,0,0,0,0,0,0,0,0,1,0,1,0,0,0,1,0,0,0,0,0,0,0,0,0,0,0,0,0,0,0,0,0,0,0,0,0,0,0,0,0,0,0,0,0,0,0,0,0,0,0,0,0,0,0,0,0,0,0,0,0,0,0,0,0,0,0,0,0,0,0,0,0,0,0,0,0,0,0,0,0,0,0,0,0,0,0,0,0],"id":0,"left_children":[1,3,5,7,9,11,13,15,17,19,21,23,25,27,29,31,33,35,37,39,41,43,45,47,49,51,53,55,57,59,61,63,65,67,69,71,73,75,77,79,81,83,85,87,89,91,93,95,97,99,101,103,105,107,109,111,113,115,117,119,121,123,125,-1,-1,-1,-1,-1,-1,-1,-1,-1,-1,-1,-1,-1,-1,-1,-1,-1,-1,-1,-1,-1,-1,-1,-1,-1,-1,-1,-1,-1,-1,-1,-1,-1,-1,-1,-1,-1,-1,-1,-1,-1,-1,-1,-1,-1,-1,-1,-1,-1,-1,-1,-1,-1,-1,-1,-1,-1,-1,-1,-1,-1,-1,-1,-1],"loss_changes":[1.8464771E4,1.3575206E4,7.591669E3,2.1461629E4,5.705419E3,8.893244E3,7.3881113E3,7.5033125E3,4.1323076E3,3.3973672E3,2.7515457E3,1.2811755E4,3.0060361E3,5.181036E3,5.727242E3,4.0606113E3,8.5990234E2,2.7588457E3,1.411667E3,2.6633687E3,2.0611338E3,1.1511868E3,1.9960977E3,3.8978162E3,1.8574727E3,1.9108442E3,2.2039417E3,1.2206831E3,2.9963687E3,1.515562E3,3.03108E3,1.0724453E3,1.3492339E3,5.2363477E2,6.117322E2,1.0203635E3,9.729704E2,3.344287E2,1.1044897E2,1.082105E3,7.925322E2,1.1388223E3,1.0331089E3,9.470182E2,7.2557007E2,8.675215E2,1.3766244E3,1.2027192E3,1.9629858E3,9.4893555E2,1.2801986E3,1.143453E3,4.80229E2,1.0533848E3,6.1745386E2,9.7711694E2,1.3633804E3,2.4683978E2,1.2167715E3,1.4057441E3,7.17954E2,1.7769482E3,7.0602637E2,0E0,0E0,0E0,0E0,0E0,0E0,0E0,0E0,0E0,0E0,0E0,0E0,0E0,0E0,0E0,0E0,0E0,0E0,0E0,0E0,0E0,0E0,0E0,0E0,0E0,0E0,0E0,0E0,0E0,0E0,0E0,0E0,0E0,0E0,0E0,0E0,0E0,0E0,0E0,0E0,0E0,0E0,0E0,0E0,0E0,0E0,0E0,0E0,0E0,0E0,0E0,0E0,0E0,0E0,0E0,0E0,0E0,0E0,0E0,0E0,0E0,0E0,0E0,0E0],"parents":[2147483647,0,0,1,1,2,2,3,3,4,4,5,5,6,6,7,7,8,8,9,9,10,10,11,11,12,12,13,13,14,14,15,15,16,16,17,17,18,18,19,19,20,20,21,21,22,22,23,23,24,24,25,25,26,26,27,27,28,28,29,29,30,30,31,31,32,32,33,33,34,34,35,35,36,36,37,37,38,38,39,39,40,40,41,41,42,42,43,43,44,44,45,45,46,46,47,47,48,48,49,49,50,50,51,51,52,52,53,53,54,54,55,55,56,56,57,57,58,58,59,59,60,60,61,61,62,62],"right_children":[2,4,6,8,10,12,14,16,18,20,22,24,26,28,30,32,34,36,38,40,42,44,46,48,50,52,54,56,58,60,62,64,66,68,70,72,74,76,78,80,82,84,86,88,90,92,94,96,98,100,102,104,106,108,110,112,114,116,118,120,122,124,126,-1,-1,-1,-1,-1,-1,-1,-1,-1,-1,-1,-1,-1,-1,-1,-1,-1,-1,-1,-1,-1,-1,-1,-1,-1,-1,-1,-1,-1,-1,-1,-1,-1,-1,-1,-1,-1,-1,-1,-1,-1,-1,-1,-1,-1,-1,-1,-1,-1,-1,-1,-1,-1,-1,-1,-1,-1,-1,-1,-1,-1,-1,-1,-1],"split_conditions":[-5.6416564E-2,-1.2559617E1,1.0568306E-1,-2.1847324E0,-6.426724E-1,-1.2559617E1,-3.377498E0,8.906409E-1,1.5697724E0,-1.8092108E0,-3.388016E0,8.906409E-1,-2.734545E-1,2.1278212E0,-1.2559617E1,-1.5431648E0,-8.2858163E-1,-7.7689767E-1,-1.0155269E0,-2.3614354E0,2.3941586E0,-8.285163E0,-8.051894E-2,-4.7277403E-1,-8.0835557E-1,3.0442042E0,1.289735E0,2.2636609E-1,3.1830082E0,8.906409E-1,1.2222918E0,9.495875E-1,5.0749135E-1,-8.750367E-1,-3.9127088E-1,2.3621514E0,-2.390973E-1,2.7405949E0,1.2596227E-1,5.878224E-1,-1.20682344E-1,-6.500519E-2,2.6006134E0,1.3802173E0,2.3286328E0,-2.302126E0,2.4217415E0,-2.290838E0,-2.302126E0,-1.8772848E0,-6.397093E-1,-3.238972E-1,1.3564374E0,-8.695277E-1,2.545211E0,1.1315764E0,1.8087791E0,6.7330897E-1,-4.3439782E-1,3.2736204E0,2.5749197E0,-1.8043041E-1,-7.6097083E-1,9.9112935E-2,1.6572063E-1,8.216276E-2,3.5474174E-2,2.0996855E-1,1.1531907E-1,1.448288E-1,-8.3188685E-3,1.8531628E-2,7.041657E-2,1.8855104E-2,-1.5210487E-2,1.3523485E-1,2.20708E-1,-1.3633229E-1,-1.3721813E-2,9.974677E-3,3.3346254E-2,9.305347E-3,1.3580881E-3,2.7419853E-3,1.2691555E-3,9.080126E-3,3.410722E-2,7.91454E-2,-1.417716E-1,-7.443981E-3,-2.2098674E-2,-3.849182E-3,1.3541154E-3,-3.2760444E-4,2.3064434E-3,1.5713254E-1,6.320927E-2,1.02143444E-1,6.6825384E-3,2.1393304E-1,1.287182E-1,-2.0727051E-2,1.2721592E-1,2.3054292E-3,3.1834582E-4,1.2321238E-2,3.271356E-2,8.879254E-4,-8.9026924E-4,-4.0885755E-3,8.468105E-3,4.6804473E-3,-2.736566E-2,9.844482E-3,3.4664553E-2,-1.8157719E-2,5.5366736E-2,-2.1512799E-1,-9.720836E-2,-2.3581494E-2,-5.442452E-2,2.9711742E-2,1.9764811E-1,-2.5731553E-3,-1.0065126E-3,-7.313646E-3,-4.1886056E-3],"split_indices":[6,75,36,36,4,75,15,15,15,8,58,15,4,8,75,7,52,36,52,4,58,41,36,7,52,60,19,5,1,15,19,8,19,42,29,39,7,34,12,56,46,36,49,14,38,33,50,42,33,42,23,47,77,45,59,38,61,28,23,7,35,68,8,0,0,0,0,0,0,0,0,0,0,0,0,0,0,0,0,0,0,0,0,0,0,0,0,0,0,0,0,0,0,0,0,0,0,0,0,0,0,0,0,0,0,0,0,0,0,0,0,0,0,0,0,0,0,0,0,0,0,0,0,0,0,0,0],"split_type":[0,0,0,0,0,0,0,0,0,0,0,0,0,0,0,0,0,0,0,0,0,0,0,0,0,0,0,0,0,0,0,0,0,0,0,0,0,0,0,0,0,0,0,0,0,0,0,0,0,0,0,0,0,0,0,0,0,0,0,0,0,0,0,0,0,0,0,0,0,0,0,0,0,0,0,0,0,0,0,0,0,0,0,0,0,0,0,0,0,0,0,0,0,0,0,0,0,0,0,0,0,0,0,0,0,0,0,0,0,0,0,0,0,0,0,0,0,0,0,0,0,0,0,0,0,0,0],"sum_hessian":[3.5504456E7,1.6642767E7,1.886169E7,3.726205E4,1.6605505E7,9.917089E6,8.944601E6,1.1953911E4,2.530814E4,5.6062895E6,1.0999215E7,1.9362244E4,9.897727E6,2.5044744E5,8.694154E6,1.0046617E4,1.9072941E3,2.4731537E4,5.766044E2,1.7304166E5,5.433248E6,4.6841824E4,1.0952373E7,1.7248846E4,2.1133984E3,3.7502225E6,6.147504E6,2.4874327E5,1.7041785E3,1.7342344E4,8.676812E6,2.7530415E3,7.293575E3,1.3784581E3,5.2883594E2,8.586994E3,1.6144543E4,4.9986682E2,7.673754E1,2.2215254E4,1.508264E5,5.3606565E6,7.2591516E4,3.3671936E2,4.6505105E4,5.022324E6,5.930049E6,2.2659836E3,1.4982862E4,1.4209679E3,6.9243054E2,3.7273858E6,2.2836674E4,5.590307E6,5.571972E5,1.5351531E5,9.522794E4,7.306275E2,9.7355096E2,1.6851787E4,4.905571E2,7.7599775E6,9.1683406E5,1.8493265E3,9.037149E2,2.2294614E3,5.064114E3,1.2075303E3,1.7092787E2,4.5281305E2,7.60229E1,7.5031714E3,1.0838228E3,2.4747822E3,1.3669761E4,3.098994E2,1.8996739E2,2.9196762E1,4.754078E1,7.4549688E3,1.4760286E4,1.0632621E5,4.4500188E4,3.0655925E6,2.2950638E6,6.820348E4,4.388034E3,5.8010967E1,2.7870837E2,3.5413527E4,1.1091578E4,8.142481E4,4.940899E6,5.3836795E6,5.4636956E5,4.1798434E2,1.8479993E3,5.584213E2,1.4424441E4,8.970259E2,5.23942E2,2.0911067E2,4.8331985E2,9.834638E5,2.743922E6,1.9446525E4,3.390149E3,1.0183642E6,4.571943E6,5.4722944E5,9.967713E3,1.5109958E5,2.4157424E3,8.933051E4,5.8974307E3,5.901497E2,1.4047781E2,3.3453827E2,6.390127E2,1.13804795E4,5.471307E3,4.1631046E2,7.4246635E1,4.884409E6,2.8755682E6,2.4761519E5,6.692189E5],"tree_param":{"num_deleted":"0","num_feature":"79","num_nodes":"127","size_leaf_vector":"1"}},{"base_weights":[5.073019E-8,2.6871055E-2,-1.75082E-2,6.218283E-1,2.540926E-2,2.4446733E-3,-3.5581756E-2,1.659909E0,1.12843275E-1,4.606548E-2,9.739395E-3,6.5329033E-1,1.1179198E-3,1.19891025E-1,-3.940511E-2,1.3410202E0,3.353286E0,5.4398417E-2,2.5401511E0,1.707425E-1,4.2161837E-2,1.1840358E-2,-1.4441918E-1,3.8233086E-1,2.8697646E0,2.1165835E-2,-1.1973798E-2,1.3130783E-1,-1.3715031E0,-5.5970335E-1,-3.8512576E-2,2.2919152E0,9.669112E-1,3.5339408E0,9.390594E-1,3.9789462E-1,-2.564549E-1,3.155254E0,-1.1709198E0,5.3541195E-1,1.3232471E-1,4.0221978E-2,1.9753316E-1,1.6664444E-2,-2.4604341E-2,-9.677317E-2,-3.6668488E-1,1.9082681E0,2.5012872E-1,3.4777894E0,1.5850332E0,1.9561851E-2,3.0709916E-1,-5.5486853E-3,-5.99311E-2,7.82026E-2,2.2062595E-1,-9.711192E-2,-2.623986E0,-6.099461E-1,1.1889796E0,-3.179338E-2,-8.202878E-2,9.350806E-2,1.5695196E-1,6.1323207E-2,1.11571485E-2,1.5335552E-1,2.1186166E-1,-2.4428086E-2,1.10586815E-1,1.2618805E-2,6.291924E-2,-2.193483E-2,4.1985256E-3,1.2717031E-1,2.07624E-1,-1.2700513E-1,-1.0606494E-2,2.1126015E-2,7.8045994E-2,1.4951917E-2,4.7906106E-3,2.454819E-3,1.0274058E-3,-3.403973E-4,1.2919609E-2,1.5270164E-3,2.537913E-4,-2.0988364E-5,-2.0601042E-3,3.4523215E-3,-7.0114746E-3,-7.738334E-2,-1.6168138E-2,7.323872E-2,1.7329076E-1,3.1204304E-2,-7.7930064E-4,8.594875E-2,1.932924E-1,-1.9772036E-2,1.22990124E-1,1.2823282E-3,-1.2666768E-3,1.211638E-2,3.0495528E-2,1.022347E-3,-5.889256E-4,-3.1707846E-3,8.289691E-3,-8.6893066E-4,6.6487463E-3,9.547877E-3,3.283922E-2,-1.9817417E-2,3.971255E-2,-2.0578678E-1,-9.029292E-2,-2.1036474E-2,-5.1668413E-2,3.0427588E-2,1.9713663E-1,-5.592829E-4,-2.0569365E-3,-3.481371E-3,-6.14029E-3],"categories":[],"categories_nodes":[],"categories_segments":[],"categories_sizes":[],"default_left":[0,1,0,0,0,1,1,0,1,1,0,0,0,1,1,0,0,0,0,0,0,0,0,0,0,0,0,0,0,0,0,0,0,0,1,0,0,0,0,1,0,0,0,0,0,0,1,0,0,0,0,0,0,1,0,0,0,0,0,0,0,0,1,0,0,0,0,0,0,0,0,0,0,0,0,0,0,0,0,0,0,0,0,0,0,0,0,0,0,0,0,0,0,0,0,0,0,0,0,0,0,0,0,0,0,0,0,0,0,0,0,0,0,0,0,0,0,0,0,0,0,0,0,0,0,0,0],"id":1,"left_children":[1,3,5,7,9,11,13,15,17,19,21,23,25,27,29,31,33,35,37,39,41,43,45,47,49,51,53,55,57,59,61,63,65,67,69,71,73,75,77,79,81,83,85,87,89,91,93,95,97,99,101,103,105,107,109,111,113,115,117,119,121,123,125,-1,-1,-1,-1,-1,-1,-1,-1,-1,-1,-1,-1,-1,-1,-1,-1,-1,-1,-1,-1,-1,-1,-1,-1,-1,-1,-1,-1,-1,-1,-1,-1,-1,-1,-1,-1,-1,-1,-1,-1,-1,-1,-1,-1,-1,-1,-1,-1,-1,-1,-1,-1,-1,-1,-1,-1,-1,-1,-1,-1,-1,-1,-1,-1],"loss_changes":[1.670358E4,1.2181956E4,7.7523945E3,1.8138926E4,4.5226816E3,8.822936E3,6.7051074E3,6.0946094E3,3.2679482E3,2.9334717E3,2.573349E3,1.2482495E4,2.6762483E3,4.609991E3,5.1124746E3,3.379586E3,7.7703516E2,2.402177E3,1.240041E3,2.5635386E3,1.7614756E3,1.3781067E3,1.131279E3,3.7362031E3,1.7630879E3,1.8474498E3,1.9007174E3,1.2744033E3,3.2828096E3,1.6571313E3,3.2135107E3,9.528379E2,1.3170942E3,5.334238E2,2.2987756E2,1.3379249E3,7.327151E2,2.7308594E2,1.01511765E2,2.0183862E3,1.00768384E3,1.0078076E3,8.9624805E2,1.1131104E3,3.678022E2,6.339243E2,9.64292E2,1.01495215E3,1.6939323E3,1.0416738E3,1.2641989E3,1.0942644E3,4.4057983E2,8.809572E2,5.7324927E2,8.82131E2,1.2962417E3,2.725248E2,1.2585415E3,1.4679121E3,8.397619E2,1.8334883E3,7.433594E2,0E0,0E0,0E0,0E0,0E0,0E0,0E0,0E0,0E0,0E0,0E0,0E0,0E0,0E0,0E0,0E0,0E0,0E0,0E0,0E0,0E0,0E0,0E0,0E0,0E0,0E0,0E0,0E0,0E0,0E0,0E0,0E0,0E0,0E0,0E0,0E0,0E0,0E0,0E0,0E0,0E0,0E0,0E0,0E0,0E0,0E0,0E0,0E0,0E0,0E0,0E0,0E0,0E0,0E0,0E0,0E0,0E0,0E0,0E0,0E0,0E0,0E0,0E0,0E0],"parents":[2147483647,0,0,1,1,2,2,3,3,4,4,5,5,6,6,7,7,8,8,9,9,10,10,11,11,12,12,13,13,14,14,15,15,16,16,17,17,18,18,19,19,20,20,21,21,22,22,23,23,24,24,25,25,26,26,27,27,28,28,29,29,30,30,31,31,32,32,33,33,34,34,35,35,36,36,37,37,38,38,39,39,40,40,41,41,42,42,43,43,44,44,45,45,46,46,47,47,48,48,49,49,50,50,51,51,52,52,53,53,54,54,55,55,56,56,57,57,58,58,59,59,60,60,61,61,62,62],"right_children":[2,4,6,8,10,12,14,16,18,20,22,24,26,28,30,32,34,36,38,40,42,44,46,48,50,52,54,56,58,60,62,64,66,68,70,72,74,76,78,80,82,84,86,88,90,92,94,96,98,100,102,104,106,108,110,112,114,116,118,120,122,124,126,-1,-1,-1,-1,-1,-1,-1,-1,-1,-1,-1,-1,-1,-1,-1,-1,-1,-1,-1,-1,-1,-1,-1,-1,-1,-1,-1,-1,-1,-1,-1,-1,-1,-1,-1,-1,-1,-1,-1,-1,-1,-1,-1,-1,-1,-1,-1,-1,-1,-1,-1,-1,-1,-1,-1,-1,-1,-1,-1,-1,-1,-1,-1,-1],"split_conditions":[-1.760455E-1,-1.2559617E1,-2.9943227E-3,-2.1847324E0,-4.1073388E-1,-1.2559617E1,-3.377498E0,8.906409E-1,1.5697724E0,-1.8092108E0,2.3176258E0,8.906409E-1,-2.6213518E-1,2.0243273E0,-1.2559617E1,-1.5431648E0,1.5510399E0,1.0013193E0,-1.0155269E0,-1.56974E0,2.3941586E0,1.1405947E0,1.7157804E0,-8.5615337E-1,-8.0835557E-1,3.0442042E0,1.1215507E0,2.2636609E-1,3.1830082E0,8.906409E-1,1.0668604E0,9.495875E-1,-9.1038406E-1,2.7790167E0,1.13896035E-1,2.4217415E0,1.3359282E0,2.7405949E0,1.5E1,2.1888156E0,-2.4922576E0,1.9237475E-1,8.869881E-3,-7.2675236E-2,7.036004E-2,-5.9748393E-1,-3.377498E0,1.8440416E0,-2.1847324E0,2.4217415E0,-6.397093E-1,1.244235E0,1.5308504E0,-8.695277E-1,2.545211E0,1.0142743E-2,1.8087791E0,5.7608956E-1,-4.3439782E-1,3.2736204E0,2.5749197E0,-2.5096053E-1,3.0193368E-1,9.350806E-2,1.5695196E-1,6.1323207E-2,1.11571485E-2,1.5335552E-1,2.1186166E-1,-2.4428086E-2,1.10586815E-1,1.2618805E-2,6.291924E-2,-2.193483E-2,4.1985256E-3,1.2717031E-1,2.07624E-1,-1.2700513E-1,-1.0606494E-2,2.1126015E-2,7.8045994E-2,1.4951917E-2,4.7906106E-3,2.454819E-3,1.0274058E-3,-3.403973E-4,1.2919609E-2,1.5270164E-3,2.537913E-4,-2.0988364E-5,-2.0601042E-3,3.4523215E-3,-7.0114746E-3,-7.738334E-2,-1.6168138E-2,7.323872E-2,1.7329076E-1,3.1204304E-2,-7.7930064E-4,8.594875E-2,1.932924E-1,-1.9772036E-2,1.22990124E-1,1.2823282E-3,-1.2666768E-3,1.211638E-2,3.0495528E-2,1.022347E-3,-5.889256E-4,-3.1707846E-3,8.289691E-3,-8.6893066E-4,6.6487463E-3,9.547877E-3,3.283922E-2,-1.9817417E-2,3.971255E-2,-2.0578678E-1,-9.029292E-2,-2.1036474E-2,-5.1668413E-2,3.0427588E-2,1.9713663E-1,-5.592829E-4,-2.0569365E-3,-3.481371E-3,-6.14029E-3],"split_indices":[6,75,36,36,4,75,15,15,15,8,14,15,4,8,75,7,7,36,52,36,58,19,38,7,52,60,19,5,1,15,19,8,52,35,74,50,60,34,9,50,7,36,5,36,5,25,15,1,36,50,23,19,76,45,59,22,61,28,23,7,35,4,21,0,0,0,0,0,0,0,0,0,0,0,0,0,0,0,0,0,0,0,0,0,0,0,0,0,0,0,0,0,0,0,0,0,0,0,0,0,0,0,0,0,0,0,0,0,0,0,0,0,0,0,0,0,0,0,0,0,0,0,0,0,0,0,0],"split_type":[0,0,0,0,0,0,0,0,0,0,0,0,0,0,0,0,0,0,0,0,0,0,0,0,0,0,0,0,0,0,0,0,0,0,0,0,0,0,0,0,0,0,0,0,0,0,0,0,0,0,0,0,0,0,0,0,0,0,0,0,0,0,0,0,0,0,0,0,0,0,0,0,0,0,0,0,0,0,0,0,0,0,0,0,0,0,0,0,0,0,0,0,0,0,0,0,0,0,0,0,0,0,0,0,0,0,0,0,0,0,0,0,0,0,0,0,0,0,0,0,0,0,0,0,0,0,0],"sum_hessian":[3.5504456E7,1.4007016E7,2.1497442E7,3.4329477E4,1.3972686E7,1.0217505E7,1.1279936E7,1.1293662E4,2.3035814E4,6.027352E6,7.945334E6,2.0785084E4,1.019672E7,2.7073516E5,1.1009201E7,9.505436E3,1.7882272E3,2.2495195E4,5.406182E2,1.8298597E5,5.844366E6,7.838507E6,1.0682687E5,1.8521982E4,2.2631023E3,4.0281852E6,6.168535E6,2.686793E5,2.0558604E3,1.885208E4,1.0990349E7,2.6823696E3,6.8230654E3,1.6633E3,1.2492715E2,1.0686367E4,1.1808828E4,4.6388068E2,7.673754E1,1.7438951E4,1.6554702E5,5.7722985E6,7.206768E4,6.922231E6,9.162761E5,8.79705E4,1.8856365E4,1.4756719E3,1.704631E4,1.5349497E3,7.281525E2,4.0057158E6,2.2469549E4,5.439743E6,7.2879225E5,1.6849834E5,1.0018096E5,1.019552E3,1.0363082E3,1.8326188E4,5.258925E2,9.520344E6,1.4700048E6,1.7929357E3,8.8943384E2,5.0575E3,1.7655654E3,1.00293494E3,6.6036505E2,5.916976E1,6.5757385E1,9.141697E3,1.54467E3,7.6911807E3,4.1176475E3,2.8969122E2,1.7418944E2,3.0925564E1,4.5811977E1,1.57108545E4,1.7280958E3,2.9741613E4,1.358054E5,3.977943E6,1.7943552E6,1.653854E4,5.5529137E4,3.1502315E6,3.7719998E6,3.7290997E5,5.433662E5,1.8267025E4,6.970348E4,6.660057E2,1.819036E4,1.1501268E3,3.25545E2,7.0803423E3,9.965968E3,2.7843158E2,1.2565181E3,2.2325412E2,5.0489844E2,3.5276152E6,4.7810034E5,1.8511688E4,3.9578628E3,1.051611E6,4.388132E6,7.1771344E5,1.1078862E4,6.1382543E4,1.07115805E5,9.3801805E4,6.3791553E3,7.637211E2,2.5583087E2,3.6561893E2,6.7068933E2,1.266743E4,5.658759E3,4.3535144E2,9.054109E1,2.9703465E6,6.5499975E6,1.1271972E6,3.4280747E5],"tree_param":{"num_deleted":"0","num_feature":"79","num_nodes":"127","size_leaf_vector":"1"}},{"base_weights":[9.714458E-8,2.2049583E-2,-1.9455448E-2,5.666687E-1,2.0827446E-2,-3.7369262E-3,-4.098108E-2,1.5630565E0,9.599712E-2,3.9097603E-2,5.355327E-3,6.0367143E-1,-4.8260856E-3,-4.5859948E-2,1.20247655E-1,1.250968E0,3.2054567E0,4.0212553E-2,2.4844794E0,3.6931336E-2,2.1793748E-1,-2.342817E-1,6.4187115E-3,3.484177E-1,2.6952937E0,1.5776016E-2,-1.7137125E-2,-5.7189536E-1,-4.4729747E-2,1.3948977E-1,-6.54197E-1,2.185883E0,8.978226E-1,3.5924742E0,2.1917844E0,4.5911136E-1,-1.8106791E-1,3.038047E0,-1.114144E0,1.3644458E-1,3.426796E-2,1.0431097E0,1.9425704E-1,-1.9878376E0,-2.1941726E-1,1.0067076E-2,-3.4330703E-2,2.690554E0,2.6631746E-1,3.2965329E0,1.4720486E0,1.3304861E-2,1.7529805E-1,-1.1954919E-2,-7.44105E-2,-6.140666E-1,1.5489844E0,-3.0534543E-2,-6.9598764E-2,6.249157E-2,2.0076586E-1,-1.2517856E-1,-1.7767988E0,1.5452023E-1,9.080549E-2,7.6438345E-2,3.1619485E-2,1.9060734E-1,1.0137194E-1,1.3014118E-1,-1.29242465E-2,1.6833672E-2,6.522506E-2,1.8189996E-2,-1.4018598E-2,1.2220805E-1,1.9944994E-1,-1.2496356E-1,-1.1475831E-2,2.3970464E-2,5.5683483E-3,2.5675583E-3,1.1989842E-3,8.817788E-2,3.5982102E-2,7.1252263E-3,1.9387705E-2,7.520209E-2,-1.3639483E-1,-1.7317953E-2,-3.6590882E-3,5.818938E-4,-4.3030353E-3,-2.5437828E-4,-2.594663E-3,-3.8771313E-2,1.503371E-1,4.939987E-2,3.1716598E-3,1.937769E-1,1.1498701E-1,1.3715674E-1,1.4578055E-2,2.0513185E-3,1.7722427E-4,3.540864E-3,1.4724356E-2,-9.985509E-4,4.4561573E-4,-2.1654968E-3,-5.075707E-3,-1.2794762E-2,-4.0912528E-2,9.3553655E-2,-1.2770261E-1,-2.090038E-3,-6.4891286E-4,-3.3204928E-3,-1.4026604E-2,6.6961546E-4,8.4236255E-3,6.484943E-3,1.4955834E-2,-7.610602E-2,-3.4096208E-3,-1.5413646E-1,-5.3274553E-2],"categories":[],"categories_nodes":[],"categories_segments":[],"categories_sizes":[],"default_left":[0,1,0,0,0,1,0,0,1,0,0,0,0,1,0,0,0,0,0,1,0,1,1,0,0,0,0,1,1,0,1,0,0,1,0,0,0,0,0,0,0,0,0,0,0,0,0,0,0,1,0,0,0,0,1,0,0,0,0,1,0,0,0,0,0,0,0,0,0,0,0,0,0,0,0,0,0,0,0,0,0,0,0,0,0,0,0,0,0,0,0,0,0,0,0,0,0,0,0,0,0,0,0,0,0,0,0,0,0,0,0,0,0,0,0,0,0,0,0,0,0,0,0,0,0,0,0],"id":2,"left_children":[1,3,5,7,9,11,13,15,17,19,21,23,25,27,29,31,33,35,37,39,41,43,45,47,49,51,53,55,57,59,61,63,65,67,69,71,73,75,77,79,81,83,85,87,89,91,93,95,97,99,101,103,105,107,109,111,113,115,117,119,121,123,125,-1,-1,-1,-1,-1,-1,-1,-1,-1,-1,-1,-1,-1,-1,-1,-1,-1,-1,-1,-1,-1,-1,-1,-1,-1,-1,-1,-1,-1,-1,-1,-1,-1,-1,-1,-1,-1,-1,-1,-1,-1,-1,-1,-1,-1,-1,-1,-1,-1,-1,-1,-1,-1,-1,-1,-1,-1,-1,-1,-1,-1,-1,-1,-1],"loss_changes":[1.5230871E4,1.1077396E4,6.3818735E3,1.7475156E4,4.6940127E3,7.211918E3,6.261755E3,6.1237676E3,3.3721008E3,2.949873E3,2.2912087E3,1.0416635E4,2.7599854E3,4.593618E3,3.4843252E3,3.3153662E3,7.407676E2,2.292644E3,1.15402E3,1.9939355E3,1.7804541E3,1.0349497E3,1.3308126E3,3.3434626E3,1.5558613E3,1.6045223E3,2.0216686E3,1.4825317E3,2.721793E3,1.0763999E3,3.3662708E3,9.155244E2,1.2206807E3,4.6652148E2,5.343013E2,8.8446716E2,8.7579846E2,2.7311816E2,9.4679825E1,1.6865564E3,1.2877734E3,5.911074E2,8.870398E2,8.6660706E2,7.3117725E2,1.2405876E3,3.777859E2,6.476782E2,2.460259E3,8.117744E2,1.0512269E3,1.0845095E3,7.731957E2,1.044846E3,4.7640698E2,1.1876738E3,4.3195282E2,9.7083545E2,1.8845186E3,5.260946E2,8.8791504E2,3.067035E2,1.683273E3,0E0,0E0,0E0,0E0,0E0,0E0,0E0,0E0,0E0,0E0,0E0,0E0,0E0,0E0,0E0,0E0,0E0,0E0,0E0,0E0,0E0,0E0,0E0,0E0,0E0,0E0,0E0,0E0,0E0,0E0,0E0,0E0,0E0,0E0,0E0,0E0,0E0,0E0,0E0,0E0,0E0,0E0,0E0,0E0,0E0,0E0,0E0,0E0,0E0,0E0,0E0,0E0,0E0,0E0,0E0,0E0,0E0,0E0,0E0,0E0,0E0,0E0,0E0,0E0],"parents":[2147483647,0,0,1,1,2,2,3,3,4,4,5,5,6,6,7,7,8,8,9,9,10,10,11,11,12,12,13,13,14,14,15,15,16,16,17,17,18,18,19,19,20,20,21,21,22,22,23,23,24,24,25,25,26,26,27,27,28,28,29,29,30,30,31,31,32,32,33,33,34,34,35,35,36,36,37,37,38,38,39,39,40,40,41,41,42,42,43,43,44,44,45,45,46,46,47,47,48,48,49,49,50,50,51,51,52,52,53,53,54,54,55,55,56,56,57,57,58,58,59,59,60,60,61,61,62,62],"right_children":[2,4,6,8,10,12,14,16,18,20,22,24,26,28,30,32,34,36,38,40,42,44,46,48,50,52,54,56,58,60,62,64,66,68,70,72,74,76,78,80,82,84,86,88,90,92,94,96,98,100,102,104,106,108,110,112,114,116,118,120,122,124,126,-1,-1,-1,-1,-1,-1,-1,-1,-1,-1,-1,-1,-1,-1,-1,-1,-1,-1,-1,-1,-1,-1,-1,-1,-1,-1,-1,-1,-1,-1,-1,-1,-1,-1,-1,-1,-1,-1,-1,-1,-1,-1,-1,-1,-1,-1,-1,-1,-1,-1,-1,-1,-1,-1,-1,-1,-1,-1,-1,-1,-1,-1,-1,-1],"split_conditions":[-5.6416564E-2,-1.2559617E1,2.0842123E-1,-2.1847324E0,-2.9594666E-1,-1.2559617E1,2.3325744E0,8.906409E-1,1.5697724E0,2.3941586E0,-3.388016E0,8.906409E-1,-2.734545E-1,-1.2559617E1,3.1830082E0,-1.5431648E0,-8.2858163E-1,-7.897669E-1,-1.0155269E0,-1.8092108E0,-2.4538634E0,-8.285163E0,1.3125966E0,-2.4430168E0,-8.0835557E-1,2.3941586E0,1.3381332E0,1.5697724E0,3.3648384E-1,3.2885534E-1,1.1644539E0,2.1649987E-1,4.830823E-1,-8.750367E-1,-3.9127088E-1,2.3621514E0,-2.390973E-1,2.7405949E0,1.2596227E-1,-2.4985015E0,-7.8293544E-1,7.635644E-1,1.2116688E0,1.3802173E0,3.5585636E-1,2.0198593E0,8.7164186E-2,8.9376587E-1,-1.1047318E-1,-1.8772848E0,-5.014829E-1,-3.238972E-1,4.306529E-2,-1.156196E-1,-5.451701E-3,1.493482E0,-1.2183632E0,-1.8043041E-1,2.2338428E0,2.1061757E-1,1.5455417E-1,-1.4755713E0,-4.3439782E-1,1.5452023E-1,9.080549E-2,7.6438345E-2,3.1619485E-2,1.9060734E-1,1.0137194E-1,1.3014118E-1,-1.29242465E-2,1.6833672E-2,6.522506E-2,1.8189996E-2,-1.4018598E-2,1.2220805E-1,1.9944994E-1,-1.2496356E-1,-1.1475831E-2,2.3970464E-2,5.5683483E-3,2.5675583E-3,1.1989842E-3,8.817788E-2,3.5982102E-2,7.1252263E-3,1.9387705E-2,7.520209E-2,-1.3639483E-1,-1.7317953E-2,-3.6590882E-3,5.818938E-4,-4.3030353E-3,-2.5437828E-4,-2.594663E-3,-3.8771313E-2,1.503371E-1,4.939987E-2,3.1716598E-3,1.937769E-1,1.1498701E-1,1.3715674E-1,1.4578055E-2,2.0513185E-3,1.7722427E-4,3.540864E-3,1.4724356E-2,-9.985509E-4,4.4561573E-4,-2.1654968E-3,-5.075707E-3,-1.2794762E-2,-4.0912528E-2,9.3553655E-2,-1.2770261E-1,-2.090038E-3,-6.4891286E-4,-3.3204928E-3,-1.4026604E-2,6.6961546E-4,8.4236255E-3,6.484943E-3,1.4955834E-2,-7.610602E-2,-3.4096208E-3,-1.5413646E-1,-5.3274553E-2],"split_indices":[6,75,36,36,4,75,52,15,15,58,58,15,4,75,1,7,52,36,52,8,8,41,66,33,52,58,19,15,45,68,8,66,19,42,29,39,7,34,12,4,6,19,78,14,23,14,22,34,7,42,27,47,69,68,21,7,52,68,36,21,5,38,23,0,0,0,0,0,0,0,0,0,0,0,0,0,0,0,0,0,0,0,0,0,0,0,0,0,0,0,0,0,0,0,0,0,0,0,0,0,0,0,0,0,0,0,0,0,0,0,0,0,0,0,0,0,0,0,0,0,0,0,0,0,0,0,0],"split_type":[0,0,0,0,0,0,0,0,0,0,0,0,0,0,0,0,0,0,0,0,0,0,0,0,0,0,0,0,0,0,0,0,0,0,0,0,0,0,0,0,0,0,0,0,0,0,0,0,0,0,0,0,0,0,0,0,0,0,0,0,0,0,0,0,0,0,0,0,0,0,0,0,0,0,0,0,0,0,0,0,0,0,0,0,0,0,0,0,0,0,0,0,0,0,0,0,0,0,0,0,0,0,0,0,0,0,0,0,0,0,0,0,0,0,0,0,0,0,0,0,0,0,0,0,0,0,0],"sum_hessian":[3.5504456E7,1.6642767E7,1.886169E7,3.726205E4,1.6605505E7,1.0901304E7,7.9603865E6,1.1953911E4,2.530814E4,7.614256E6,8.991249E6,1.9511422E4,1.0881793E7,7.7265765E6,2.338096E5,1.0046617E4,1.9072941E3,2.4731537E4,5.766044E2,7.52313E6,9.112575E4,3.9721258E4,8.951528E6,1.7390338E4,2.1210847E3,4.0702948E6,6.811498E6,1.6564055E4,7.7100125E6,2.2814192E5,5.6676704E3,2.7530415E3,7.293575E3,1.3784581E3,5.2883594E2,8.548181E3,1.6183356E4,4.9986682E2,7.673754E1,1.960996E5,7.3270305E6,2.5409338E3,8.858482E4,3.327611E2,3.9388496E4,8.215941E6,7.3558644E5,5.878727E2,1.6802465E4,1.4209679E3,7.001169E2,4.0082048E6,6.208996E4,6.24632E6,5.65178E5,1.6241816E4,3.222392E2,4.90834E6,2.8016725E6,1.0110172E5,1.270402E5,3.8530562E3,1.8146146E3,7.9673883E2,1.9563026E3,2.1583455E3,5.13523E3,1.2075303E3,1.7092787E2,4.5281305E2,7.60229E1,7.4679893E3,1.0801917E3,2.4943782E3,1.3688978E4,3.098994E2,1.8996739E2,2.9196762E1,4.754078E1,1.3360577E4,1.8273902E5,2.7540508E6,4.57298E6,7.859539E2,1.75498E3,6.989304E4,1.869178E4,5.8010967E1,2.7475015E2,2.1084463E4,1.8304031E4,8.083846E6,1.320952E5,2.760092E5,4.5957725E5,4.9024563E1,5.388481E2,3.6862456E3,1.311622E4,8.970259E2,5.23942E2,3.3648453E2,3.636324E2,1.04374575E6,2.964459E6,3.3087316E4,2.9002645E4,4.5127555E6,1.7335641E6,2.6318466E5,3.0199334E5,5.8980103E3,1.0343806E4,2.9928897E2,2.2950233E1,2.989754E6,1.918586E6,2.7599488E6,4.172383E4,6.909312E4,3.20086E4,7.375101E4,5.328919E4,1.5001135E2,3.7030447E3,6.386842E2,1.1759303E3],"tree_param":{"num_deleted":"0","num_feature":"79","num_nodes":"127","size_leaf_vector":"1"}},{"base_weights":[1.3230665E-7,2.0947175E-2,-1.848266E-2,5.38363E-1,1.9786082E-2,-2.0656735E-2,1.2496902E-1,1.4849675E0,9.120799E-2,4.230713E-2,8.307122E-3,-7.7796495E-3,-4.5859743E-2,1.1091528E-1,1.4306449E0,1.1884547E0,3.0453982E0,3.8205415E-2,2.360576E0,2.0869432E-1,3.957012E-2,-2.0751557E-1,9.230185E-3,-3.4098674E-3,-6.4954065E-2,-5.525952E-1,-4.4865105E-2,1.245542E-1,-6.921667E-1,2.2071812E0,2.3276068E-1,2.0766778E0,8.529463E-1,2.565176E0,3.800076E0,3.4129342E-1,-2.4179824E-1,2.8867867E0,-1.0601919E0,5.414462E-1,1.3841842E-1,1.375154E-1,3.6572672E-2,-1.8510252E0,-1.9557622E-1,2.2486398E-2,-1.9968732E-3,5.9932786E-1,-3.8008732E-3,-3.3819728E-2,-9.33092E-2,-2.3454472E-1,-8.8986963E-1,2.2909036E-2,-5.1157497E-2,5.1325765E-2,2.2048658E-1,-2.034817E0,-3.6896953E-1,2.936523E0,1.347817E0,-5.114806E-2,1.7345761E0,8.4591694E-2,1.4307335E-1,5.440866E-2,7.6153236E-3,1.5214181E-1,8.3402745E-2,7.39256E-2,1.9524907E-1,1.1010811E-2,5.466746E-2,-2.0886682E-2,4.9851644E-3,1.161173E-1,1.8952966E-1,-1.19409755E-1,-1.0260262E-2,4.0276483E-2,1.6888356E-2,2.6109887E-2,4.840224E-3,1.6942058E-2,5.351021E-3,2.6722215E-3,1.2798266E-3,7.15057E-2,-1.26832E-1,-1.3336177E-2,1.5900632E-4,1.6219756E-3,3.6001575E-4,-3.3098404E-4,2.1683243E-3,2.0595944E-2,1.7500913E-1,8.0622453E-4,-7.568953E-4,2.1395634E-3,-2.1008367E-3,-6.9090314E-3,-2.6046082E-3,-1.5071719E-2,6.339076E-2,-6.1859846E-2,-2.7815824E-2,1.3116846E-3,-3.3830743E-2,-2.430463E-3,-1.0846686E-2,5.6562614E-2,2.0593854E-3,9.6344305E-3,2.7607655E-2,-6.477218E-2,-1.5475036E-1,-7.368179E-4,-4.2586584E-2,1.679455E-1,8.64723E-2,-1.3123389E-1,7.797616E-2,6.4570285E-2,-1.4367907E-2,6.688735E-2,1.9555345E-1],"categories":[],"categories_nodes":[],"categories_segments":[],"categories_sizes":[],"default_left":[0,1,0,0,0,0,1,0,1,0,0,0,1,0,1,0,0,0,0,1,1,1,0,1,1,0,1,0,0,0,0,0,0,0,0,0,0,0,0,0,0,0,0,0,0,0,0,1,0,0,0,1,0,1,0,0,1,0,0,1,0,0,0,0,0,0,0,0,0,0,0,0,0,0,0,0,0,0,0,0,0,0,0,0,0,0,0,0,0,0,0,0,0,0,0,0,0,0,0,0,0,0,0,0,0,0,0,0,0,0,0,0,0,0,0,0,0,0,0,0,0,0,0,0,0,0,0],"id":3,"left_children":[1,3,5,7,9,11,13,15,17,19,21,23,25,27,29,31,33,35,37,39,41,43,45,47,49,51,53,55,57,59,61,63,65,67,69,71,73,75,77,79,81,83,85,87,89,91,93,95,97,99,101,103,105,107,109,111,113,115,117,119,121,123,125,-1,-1,-1,-1,-1,-1,-1,-1,-1,-1,-1,-1,-1,-1,-1,-1,-1,-1,-1,-1,-1,-1,-1,-1,-1,-1,-1,-1,-1,-1,-1,-1,-1,-1,-1,-1,-1,-1,-1,-1,-1,-1,-1,-1,-1,-1,-1,-1,-1,-1,-1,-1,-1,-1,-1,-1,-1,-1,-1,-1,-1,-1,-1,-1],"loss_changes":[1.37459E4,9.998418E3,5.8824814E3,1.5772529E4,4.292826E3,6.0300103E3,5.1669077E3,5.5277676E3,3.0441523E3,2.55312E3,2.1912444E3,3.0723027E3,3.1667217E3,3.051554E3,2.7887407E3,2.9924824E3,6.8184375E2,2.099028E3,1.0427744E3,2.1215708E3,1.6192852E3,9.188082E2,1.630023E3,2.6923352E3,7.708052E2,1.3200999E3,2.6742139E3,1.9244155E3,2.0181729E3,1.1362051E3,5.0340433E2,8.269385E2,1.2020488E3,4.9598535E2,1.7445215E2,1.0812511E3,7.724842E2,2.4671143E2,8.777509E1,8.506616E2,1.196303E3,1.0054888E3,9.9107764E2,7.6336035E2,6.576428E2,7.641172E2,1.2435679E3,4.024868E3,2.5789402E3,2.613471E2,8.4511743E2,6.371021E2,6.913237E2,1.238985E3,2.4239258E3,1.7008365E3,1.0932207E3,7.033872E2,6.414645E2,4.954502E2,7.0798047E2,3.1551004E2,1.5688794E2,0E0,0E0,0E0,0E0,0E0,0E0,0E0,0E0,0E0,0E0,0E0,0E0,0E0,0E0,0E0,0E0,0E0,0E0,0E0,0E0,0E0,0E0,0E0,0E0,0E0,0E0,0E0,0E0,0E0,0E0,0E0,0E0,0E0,0E0,0E0,0E0,0E0,0E0,0E0,0E0,0E0,0E0,0E0,0E0,0E0,0E0,0E0,0E0,0E0,0E0,0E0,0E0,0E0,0E0,0E0,0E0,0E0,0E0,0E0,0E0,0E0,0E0,0E0,0E0],"parents":[2147483647,0,0,1,1,2,2,3,3,4,4,5,5,6,6,7,7,8,8,9,9,10,10,11,11,12,12,13,13,14,14,15,15,16,16,17,17,18,18,19,19,20,20,21,21,22,22,23,23,24,24,25,25,26,26,27,27,28,28,29,29,30,30,31,31,32,32,33,33,34,34,35,35,36,36,37,37,38,38,39,39,40,40,41,41,42,42,43,43,44,44,45,45,46,46,47,47,48,48,49,49,50,50,51,51,52,52,53,53,54,54,55,55,56,56,57,57,58,58,59,59,60,60,61,61,62,62],"right_children":[2,4,6,8,10,12,14,16,18,20,22,24,26,28,30,32,34,36,38,40,42,44,46,48,50,52,54,56,58,60,62,64,66,68,70,72,74,76,78,80,82,84,86,88,90,92,94,96,98,100,102,104,106,108,110,112,114,116,118,120,122,124,126,-1,-1,-1,-1,-1,-1,-1,-1,-1,-1,-1,-1,-1,-1,-1,-1,-1,-1,-1,-1,-1,-1,-1,-1,-1,-1,-1,-1,-1,-1,-1,-1,-1,-1,-1,-1,-1,-1,-1,-1,-1,-1,-1,-1,-1,-1,-1,-1,-1,-1,-1,-1,-1,-1,-1,-1,-1,-1,-1,-1,-1,-1,-1,-1],"split_conditions":[-5.6416564E-2,-1.2559617E1,2.9346347E0,-2.1847324E0,-6.426724E-1,3.7427744E-1,1.4775392E0,8.906409E-1,1.5697724E0,-2.7132642E0,-3.388016E0,1.4755043E0,-1.2559617E1,3.1830082E0,-5.064608E-1,-1.5431648E0,2.7790167E0,1.0201375E0,-1.0155269E0,-1.1957048E0,-1.8092108E0,-8.285163E0,-8.051894E-2,-1.2559617E1,-2.8972414E-3,1.938955E0,-8.07536E0,5.257559E-1,-1.8419693E0,1.6136879E0,3.4057026E0,9.495875E-1,-6.303013E-1,-8.2858163E-1,2.0407102E0,2.4217415E0,1.3359282E0,2.7405949E0,1.4E1,-6.5897423E-1,-2.8716712E0,-1.2502308E0,-6.2642425E-2,1.3802173E0,8.8631374E-1,5.342794E-1,2.3621514E0,1.5697724E0,-2.734545E-1,-8.3026147E-1,-2.4990714E-1,1.0020343E-1,-4.056675E-3,2.1278212E0,2.0584416E0,-1.9046777E0,2.3325744E0,3.8967988E-1,2.6196053E0,-1.3337077E0,-2.1391E0,6.2E1,1.955803E0,8.4591694E-2,1.4307335E-1,5.440866E-2,7.6153236E-3,1.5214181E-1,8.3402745E-2,7.39256E-2,1.9524907E-1,1.1010811E-2,5.466746E-2,-2.0886682E-2,4.9851644E-3,1.161173E-1,1.8952966E-1,-1.19409755E-1,-1.0260262E-2,4.0276483E-2,1.6888356E-2,2.6109887E-2,4.840224E-3,1.6942058E-2,5.351021E-3,2.6722215E-3,1.2798266E-3,7.15057E-2,-1.26832E-1,-1.3336177E-2,1.5900632E-4,1.6219756E-3,3.6001575E-4,-3.3098404E-4,2.1683243E-3,2.0595944E-2,1.7500913E-1,8.0622453E-4,-7.568953E-4,2.1395634E-3,-2.1008367E-3,-6.9090314E-3,-2.6046082E-3,-1.5071719E-2,6.339076E-2,-6.1859846E-2,-2.7815824E-2,1.3116846E-3,-3.3830743E-2,-2.430463E-3,-1.0846686E-2,5.6562614E-2,2.0593854E-3,9.6344305E-3,2.7607655E-2,-6.477218E-2,-1.5475036E-1,-7.368179E-4,-4.2586584E-2,1.679455E-1,8.64723E-2,-1.3123389E-1,7.797616E-2,6.4570285E-2,-1.4367907E-2,6.688735E-2,1.9555345E-1],"split_indices":[6,75,58,36,4,36,17,15,15,4,58,19,75,1,75,7,35,36,52,8,8,41,36,75,21,5,39,68,5,7,24,8,52,52,50,50,60,34,9,29,1,36,25,14,23,25,39,15,4,5,8,15,59,8,36,33,52,69,4,42,20,11,34,0,0,0,0,0,0,0,0,0,0,0,0,0,0,0,0,0,0,0,0,0,0,0,0,0,0,0,0,0,0,0,0,0,0,0,0,0,0,0,0,0,0,0,0,0,0,0,0,0,0,0,0,0,0,0,0,0,0,0,0,0,0,0,0],"split_type":[0,0,0,0,0,0,0,0,0,0,0,0,0,0,0,0,0,0,0,0,0,0,0,0,0,0,0,0,0,0,0,0,0,0,0,0,0,0,0,0,0,0,0,0,0,0,0,0,0,0,0,0,0,0,0,0,0,0,0,0,0,0,0,0,0,0,0,0,0,0,0,0,0,0,0,0,0,0,0,0,0,0,0,0,0,0,0,0,0,0,0,0,0,0,0,0,0,0,0,0,0,0,0,0,0,0,0,0,0,0,0,0,0,0,0,0,0,0,0,0,0,0,0,0,0,0,0],"sum_hessian":[3.5504456E7,1.6642767E7,1.886169E7,3.726205E4,1.6605505E7,1.8580102E7,2.8158866E5,1.1953911E4,2.530814E4,5.6062895E6,1.0999215E7,1.2297094E7,6.2830075E6,2.785911E5,2.9975515E3,1.0046617E4,1.9072941E3,2.4731537E4,5.766044E2,9.072794E4,5.5155615E6,4.6841824E4,1.0952373E7,1.1423972E7,8.731215E5,1.2307238E4,6.2707005E6,2.7393956E5,4.651533E3,1.8181083E3,1.1794432E3,2.7530415E3,7.293575E3,1.1682827E3,7.3901135E2,1.1876107E4,1.285543E4,4.9986682E2,7.673754E1,1.5819052E4,7.490888E4,1.6378064E5,5.351781E6,3.3671936E2,4.6505105E4,5.022324E6,5.930049E6,7.4051206E3,1.1416567E7,4.161668E5,4.569547E5,6.335008E3,5.9722305E3,5.3273306E5,5.7379675E6,1.5535408E5,1.185855E5,9.0143335E2,3.7501E3,9.8214526E2,8.359631E2,9.927383E2,1.8670497E2,1.8493265E3,9.037149E2,5.459946E3,1.8336293E3,7.6080853E2,4.0747412E2,3.260277E1,7.064086E2,1.0230363E4,1.6457444E3,8.484267E3,4.371163E3,3.098994E2,1.8996739E2,2.935257E1,4.738497E1,6.886846E3,8.932206E3,7.326804E3,6.758208E4,2.1543287E4,1.4223736E5,2.1093818E6,3.2423992E6,5.8010967E1,2.7870837E2,3.4245984E4,1.2259121E4,3.0417628E6,1.9805612E6,5.3816285E6,5.484205E5,6.956819E3,4.483015E2,4.1401172E6,7.27645E6,4.022364E4,3.759432E5,2.1877753E5,2.3817716E5,6.065742E3,2.692659E2,2.9243792E3,3.047851E3,5.3021406E5,2.5190083E3,5.6511025E6,8.686507E4,1.4438297E3,1.5391025E5,1.0941654E5,9.168954E3,5.323771E2,3.6905627E2,2.163577E3,1.5865231E3,7.262346E2,2.5591069E2,4.172017E1,7.9424286E2,1.4786226E2,8.4487604E2,1.5927905E2,2.742592E1],"tree_param":{"num_deleted":"0","num_feature":"79","num_nodes":"127","size_leaf_vector":"1"}},{"base_weights":[1.6727081E-7,2.795128E-2,-1.2704321E-2,5.5720323E-1,2.6465418E-2,8.678492E-3,-2.5961043E-2,1.4575865E0,1.0637696E-1,5.272046E-2,1.663433E-2,5.8751136E-1,7.289615E-3,1.0759003E-1,-2.8660204E-2,1.0949029E0,2.5776849E0,2.9823374E-2,1.5330101E0,1.7804757E-1,4.59858E-2,1.8626194E-2,-1.3405213E-1,4.1311425E-1,3.0850682E0,6.2500047E-3,2.186071E-1,1.2092458E-1,-9.258214E-1,-2.3253184E-2,-7.872946E-2,2.0192492E0,8.0004585E-1,2.9339435E0,1.1411253E0,5.338766E-1,-1.6108845E-1,6.1671335E-1,2.122341E0,1.17803134E-1,4.0714878E-1,4.304335E-2,1.7525329E-1,2.2020979E-2,-2.8444739E-2,-6.100457E-2,-2.3328438E-1,1.0220249E0,1.0834058E-1,3.3341577E0,1.3070807E0,1.0693456E-2,-4.4624284E-2,2.548521E-1,-1.2534393E-1,-2.1940753E-2,1.4868143E-1,-3.7433118E-1,-2.1535516E0,-1.3441214E-2,-4.1882996E-2,-6.3318956E-1,-7.4395925E-2,1.0710573E-1,-5.3189505E-2,5.121954E-2,5.996214E-3,8.065674E-2,1.6302869E-1,1.8276194E-2,1.3909133E-1,1.4064102E-1,2.4294576E-2,-1.7905107E-2,6.7162695E-3,1.4527081E-1,1.3093601E-2,-1.2276918E-1,1.1202431E-1,8.8234255E-3,4.5375363E-4,1.0026431E-2,2.9141376E-2,8.932059E-3,2.0750423E-3,7.3077143E-3,3.5055064E-2,1.6941353E-3,5.469132E-4,5.9709415E-5,-2.7987787E-3,-1.2260702E-2,-1.1492384E-3,-7.3186443E-3,-2.2647865E-2,8.880017E-2,3.4757253E-2,9.288545E-3,-2.569252E-2,8.6097695E-2,1.8046789E-1,1.3550088E-1,-3.1688716E-2,1.2898637E-3,-8.81375E-5,-3.804848E-3,-7.4526214E-4,8.590131E-3,2.0815698E-2,-1.22743204E-1,-3.741926E-3,3.984874E-2,-1.5985401E-3,4.3776855E-3,1.1725854E-2,1.2142672E-1,-2.377682E-2,-1.983975E-1,-8.132736E-2,2.1879494E-4,-1.1681196E-3,-1.5563078E-2,-1.9999333E-3,-4.2222988E-2,-1.0962999E-2,-2.5059897E-3,-4.907574E-3],"categories":[],"categories_nodes":[],"categories_segments":[],"categories_sizes":[],"default_left":[0,1,0,0,0,1,1,0,0,1,0,1,0,0,0,0,1,0,0,1,0,0,0,0,0,1,0,1,0,0,1,0,0,0,0,0,0,0,1,1,0,0,0,0,1,0,0,0,0,0,0,0,0,1,0,0,0,0,0,0,0,0,1,0,0,0,0,0,0,0,0,0,0,0,0,0,0,0,0,0,0,0,0,0,0,0,0,0,0,0,0,0,0,0,0,0,0,0,0,0,0,0,0,0,0,0,0,0,0,0,0,0,0,0,0,0,0,0,0,0,0,0,0,0,0,0,0],"id":4,"left_children":[1,3,5,7,9,11,13,15,17,19,21,23,25,27,29,31,33,35,37,39,41,43,45,47,49,51,53,55,57,59,61,63,65,67,69,71,73,75,77,79,81,83,85,87,89,91,93,95,97,99,101,103,105,107,109,111,113,115,117,119,121,123,125,-1,-1,-1,-1,-1,-1,-1,-1,-1,-1,-1,-1,-1,-1,-1,-1,-1,-1,-1,-1,-1,-1,-1,-1,-1,-1,-1,-1,-1,-1,-1,-1,-1,-1,-1,-1,-1,-1,-1,-1,-1,-1,-1,-1,-1,-1,-1,-1,-1,-1,-1,-1,-1,-1,-1,-1,-1,-1,-1,-1,-1,-1,-1,-1],"loss_changes":[1.2607795E4,8.724886E3,6.919307E3,1.2608071E4,2.8557256E3,7.510046E3,5.4316377E3,4.207201E3,2.2605476E3,2.5440332E3,2.4160664E3,9.738526E3,2.0473428E3,4.113483E3,3.9984678E3,2.1325205E3,1.2935742E3,1.8905822E3,5.6791675E2,2.1214639E3,1.0879956E3,1.2695125E3,7.612157E2,3.8790413E3,6.4195605E2,2.096392E3,5.687969E2,1.1686323E3,2.5739565E3,2.436649E3,3.4587715E3,7.193623E2,9.059404E2,8.7047266E2,6.4186456E2,5.888275E2,8.293843E2,3.3546844E2,3.5223486E2,7.7631714E2,1.1615654E3,5.849658E2,9.7401855E2,9.7414136E2,4.360835E2,4.2364447E2,8.500508E2,1.7171753E3,6.71266E2,5.6141797E2,4.9448376E2,1.6045757E3,6.9675073E2,5.533904E2,5.116161E2,3.9381522E2,1.2947036E3,7.458441E2,1.120417E3,1.5434081E3,2.3342393E3,9.760757E2,8.2371387E2,0E0,0E0,0E0,0E0,0E0,0E0,0E0,0E0,0E0,0E0,0E0,0E0,0E0,0E0,0E0,0E0,0E0,0E0,0E0,0E0,0E0,0E0,0E0,0E0,0E0,0E0,0E0,0E0,0E0,0E0,0E0,0E0,0E0,0E0,0E0,0E0,0E0,0E0,0E0,0E0,0E0,0E0,0E0,0E0,0E0,0E0,0E0,0E0,0E0,0E0,0E0,0E0,0E0,0E0,0E0,0E0,0E0,0E0,0E0,0E0,0E0,0E0,0E0,0E0],"parents":[2147483647,0,0,1,1,2,2,3,3,4,4,5,5,6,6,7,7,8,8,9,9,10,10,11,11,12,12,13,13,14,14,15,15,16,16,17,17,18,18,19,19,20,20,21,21,22,22,23,23,24,24,25,25,26,26,27,27,28,28,29,29,30,30,31,31,32,32,33,33,34,34,35,35,36,36,37,37,38,38,39,39,40,40,41,41,42,42,43,43,44,44,45,45,46,46,47,47,48,48,49,49,50,50,51,51,52,52,53,53,54,54,55,55,56,56,57,57,58,58,59,59,60,60,61,61,62,62],"right_children":[2,4,6,8,10,12,14,16,18,20,22,24,26,28,30,32,34,36,38,40,42,44,46,48,50,52,54,56,58,60,62,64,66,68,70,72,74,76,78,80,82,84,86,88,90,92,94,96,98,100,102,104,106,108,110,112,114,116,118,120,122,124,126,-1,-1,-1,-1,-1,-1,-1,-1,-1,-1,-1,-1,-1,-1,-1,-1,-1,-1,-1,-1,-1,-1,-1,-1,-1,-1,-1,-1,-1,-1,-1,-1,-1,-1,-1,-1,-1,-1,-1,-1,-1,-1,-1,-1,-1,-1,-1,-1,-1,-1,-1,-1,-1,-1,-1,-1,-1,-1,-1,-1,-1,-1,-1,-1],"split_conditions":[-3.2976598E-1,-1.2559617E1,-1.9810566E-1,-2.1847324E0,-9.527586E-1,-1.2559617E1,-3.377498E0,2.3234184E-1,8.2813317E-1,-1.5394447E0,2.3176258E0,1.5697724E0,3.0442042E0,1.1606287E0,1.244235E0,-1.9120036E0,-8.2858163E-1,-2.2573061E-1,2.6E1,6.26603E-1,2.1021788E0,1.506128E0,6.8695284E-2,-2.4494312E0,-8.0835557E-1,1.3918843E0,2.226441E0,-1.6435714E-1,3.1830082E0,6.317344E-1,-1.2559617E1,-5.9153086E-1,-1.1829548E0,2.4217415E0,2.9468715E0,-3.1262147E0,1.1786798E0,-6.321204E-1,-2.1715639E0,-7.1817674E-2,1.0816951E0,-2.8716712E0,2.6006134E0,-5.7275712E-2,-5.451701E-3,-1.8012601E0,1.2950501E0,-3.1692004E-1,2.8433342E0,2.4217415E0,-1.8328643E-1,-1.4012589E-1,-2.4990714E-1,2.9346347E0,-6.098641E-1,-1.0025036E0,1.1484986E-1,-1.8837477E0,-7.047763E-1,-2.173783E-1,-2.0396042E0,-2.301786E-3,8.928107E-3,1.0710573E-1,-5.3189505E-2,5.121954E-2,5.996214E-3,8.065674E-2,1.6302869E-1,1.8276194E-2,1.3909133E-1,1.4064102E-1,2.4294576E-2,-1.7905107E-2,6.7162695E-3,1.4527081E-1,1.3093601E-2,-1.2276918E-1,1.1202431E-1,8.8234255E-3,4.5375363E-4,1.0026431E-2,2.9141376E-2,8.932059E-3,2.0750423E-3,7.3077143E-3,3.5055064E-2,1.6941353E-3,5.469132E-4,5.9709415E-5,-2.7987787E-3,-1.2260702E-2,-1.1492384E-3,-7.3186443E-3,-2.2647865E-2,8.880017E-2,3.4757253E-2,9.288545E-3,-2.569252E-2,8.6097695E-2,1.8046789E-1,1.3550088E-1,-3.1688716E-2,1.2898637E-3,-8.81375E-5,-3.804848E-3,-7.4526214E-4,8.590131E-3,2.0815698E-2,-1.22743204E-1,-3.741926E-3,3.984874E-2,-1.5985401E-3,4.3776855E-3,1.1725854E-2,1.2142672E-1,-2.377682E-2,-1.983975E-1,-8.132736E-2,2.1879494E-4,-1.1681196E-3,-1.5563078E-2,-1.9999333E-3,-4.2222988E-2,-1.0962999E-2,-2.5059897E-3,-4.907574E-3],"split_indices":[6,75,36,36,4,75,15,17,17,8,14,15,60,38,19,7,52,7,9,74,58,19,73,36,52,66,4,31,1,36,75,52,52,50,34,61,60,29,55,46,56,1,49,36,21,57,38,7,7,50,62,4,8,58,14,8,5,4,23,4,8,59,31,0,0,0,0,0,0,0,0,0,0,0,0,0,0,0,0,0,0,0,0,0,0,0,0,0,0,0,0,0,0,0,0,0,0,0,0,0,0,0,0,0,0,0,0,0,0,0,0,0,0,0,0,0,0,0,0,0,0,0,0,0,0,0,0],"split_type":[0,0,0,0,0,0,0,0,0,0,0,0,0,0,0,0,0,0,0,0,0,0,0,0,0,0,0,0,0,0,0,0,0,0,0,0,0,0,0,0,0,0,0,0,0,0,0,0,0,0,0,0,0,0,0,0,0,0,0,0,0,0,0,0,0,0,0,0,0,0,0,0,0,0,0,0,0,0,0,0,0,0,0,0,0,0,0,0,0,0,0,0,0,0,0,0,0,0,0,0,0,0,0,0,0,0,0,0,0,0,0,0,0,0,0,0,0,0,0,0,0,0,0,0,0,0,0],"sum_hessian":[3.5504456E7,1.1094805E7,2.4409652E7,3.1060135E4,1.1063745E7,9.341695E6,1.5067957E7,1.0362358E4,2.0697775E4,3.0141382E6,8.0496065E6,2.2360215E4,9.319335E6,2.9850038E5,1.4769457E7,7.829254E3,2.533105E3,1.9644658E4,1.0531177E3,1.5370858E5,2.8604298E6,7.944591E6,1.0501545E5,2.0901865E4,1.4583506E3,9.273712E6,4.562247E4,2.9469862E5,3.8017393E3,1.3329946E7,1.4395106E6,1.8920442E3,5.93721E3,2.0289056E3,5.041993E2,5.396033E3,1.4248624E4,4.1301102E2,6.401067E2,1.21706234E5,3.2002346E4,2.7967695E6,6.366018E4,7.4101655E6,5.344252E5,6.0489273E4,4.4526176E4,6.9713584E3,1.3930507E4,1.2783793E3,1.7997133E2,8.528793E6,7.449191E5,4.1273406E4,4.349064E3,4.794167E4,2.4675695E5,2.6242458E3,1.1774933E3,8.731325E6,4.598622E6,1.1162514E4,1.4283481E6,1.8198256E3,7.221865E1,4.4641562E3,1.4730535E3,4.034391E2,1.6254666E3,3.4318826E2,1.6101106E2,1.1008687E2,5.2859463E3,8.547813E3,5.700811E3,5.4473385E1,3.5853763E2,1.560697E1,6.244997E2,7.905217E4,4.265406E4,1.4707098E4,1.7295248E4,3.145576E4,2.7653138E6,6.032333E4,3.336851E3,3.5792865E6,3.8308792E6,2.5735978E5,2.770654E5,1.0347795E4,5.014148E4,3.1904953E4,1.2621225E4,2.106981E3,4.8643774E3,1.2389377E4,1.5411298E3,1.8745706E2,1.0909222E3,1.04231705E2,7.573963E1,3.8547275E6,4.6740655E6,3.6178484E5,3.8313428E5,2.7256053E4,1.4017353E4,9.127924E1,4.2577847E3,5.7913367E2,4.736254E4,1.4412244E5,1.0263452E5,9.065206E1,2.5335938E3,2.6356134E2,9.139319E2,3.1229405E6,5.608384E6,3.1943217E4,4.5666785E6,7.3897393E3,3.772774E3,7.064352E5,7.219129E5],"tree_param":{"num_deleted":"0","num_feature":"79","num_nodes":"127","size_leaf_vector":"1"}},{"base_weights":[1.8899775E-7,1.8405879E-2,-1.7562874E-2,4.8292395E-1,1.738559E-2,-2.8218739E-2,8.62866E-3,1.1996058E0,2.9090117E-3,3.3446968E-2,3.9592558E-3,-2.6992796E-2,-3.603479E-1,2.001712E-3,1.1724481E-1,7.2802615E-1,1.990543E0,-5.7422806E-2,1.7539165E0,3.1515043E-2,1.9591123E-1,-1.8657552E-1,5.0200475E-3,4.6389192E-1,-2.7777404E-2,-7.9909176E-1,-1.8481375E-1,2.2692945E-2,-1.961914E-2,1.2768018E-1,-5.852412E-1,1.6086364E0,4.983777E-1,2.4928582E0,3.6174545E-1,4.7996184E-1,-1.6913038E-1,3.1250942E0,1.1538556E0,5.5830553E-2,2.3052856E-2,9.608604E-1,1.7412597E-1,-1.4104217E-1,-5.066579E-1,1.9604847E-2,-3.3416045E-3,2.9225364E-1,2.1930122E0,-1.7426891E-2,-5.6905724E-2,-5.916847E-1,-1.1493756E0,-1.2555543E-1,-4.4354525E-1,2.6334556E-2,-1.5290736E-1,-3.3344805E-2,1.4054075E-2,7.89184E-2,2.1636432E-1,1.7240028E-3,-1.4720916E0,3.3336394E-2,9.3439996E-2,3.673385E-2,8.460229E-3,1.5208809E-1,9.686377E-2,6.277298E-3,1.0466696E-1,1.4870386E-1,2.0931507E-2,-3.593752E-3,-3.1686258E-2,1.7001781E-1,1.8515248E-2,7.343874E-2,-2.0745588E-2,7.5605162E-3,2.4719757E-3,1.5661338E-3,3.4928442E-5,8.232754E-2,3.2632284E-2,3.3918557E-5,1.1481631E-2,-3.6421034E-3,-1.7708095E-2,-2.28717E-2,-9.544026E-2,-3.7950475E-3,1.0794471E-3,-4.0857735E-4,2.1688119E-3,4.441799E-2,2.6651665E-3,1.5666823E-1,6.222381E-2,-6.164429E-4,-3.1169222E-3,-2.1963737E-3,-4.4486164E-3,-3.5761256E-2,-9.966195E-3,-8.275053E-2,-3.5358675E-2,-4.9633933E-3,-2.023049E-2,-3.6624197E-2,-1.192697E-2,2.3440782E-3,6.6752214E-4,-2.8063473E-3,-1.629804E-2,-1.2968659E-3,-4.3008314E-3,4.600785E-3,2.4861752E-4,-3.2784825E-3,6.1712894E-3,1.201906E-2,-6.2761293E-3,-1.3884345E-2,2.1433258E-2,-1.3128895E-1,-4.9857184E-2],"categories":[],"categories_nodes":[],"categories_segments":[],"categories_sizes":[],"default_left":[0,1,0,0,0,0,0,0,0,0,0,0,1,0,0,0,1,0,0,0,0,0,0,1,0,0,1,0,0,0,1,0,0,0,1,0,0,0,0,1,0,0,0,1,0,0,0,0,0,0,0,0,0,0,0,0,0,0,0,0,0,0,0,0,0,0,0,0,0,0,0,0,0,0,0,0,0,0,0,0,0,0,0,0,0,0,0,0,0,0,0,0,0,0,0,0,0,0,0,0,0,0,0,0,0,0,0,0,0,0,0,0,0,0,0,0,0,0,0,0,0,0,0,0,0,0,0],"id":5,"left_children":[1,3,5,7,9,11,13,15,17,19,21,23,25,27,29,31,33,35,37,39,41,43,45,47,49,51,53,55,57,59,61,63,65,67,69,71,73,75,77,79,81,83,85,87,89,91,93,95,97,99,101,103,105,107,109,111,113,115,117,119,121,123,125,-1,-1,-1,-1,-1,-1,-1,-1,-1,-1,-1,-1,-1,-1,-1,-1,-1,-1,-1,-1,-1,-1,-1,-1,-1,-1,-1,-1,-1,-1,-1,-1,-1,-1,-1,-1,-1,-1,-1,-1,-1,-1,-1,-1,-1,-1,-1,-1,-1,-1,-1,-1,-1,-1,-1,-1,-1,-1,-1,-1,-1,-1,-1,-1],"loss_changes":[1.1477183E4,8.216428E3,5.070599E3,1.307092E4,3.7303115E3,5.2582393E3,3.7818079E3,5.6830586E3,2.4040256E3,2.4721123E3,1.9043691E3,4.9556133E3,3.6574746E3,2.215289E3,2.2148809E3,1.9303633E3,4.65617E3,1.320652E3,6.2004297E2,1.6015972E3,1.542293E3,7.6022485E2,1.1426892E3,6.093102E3,3.872998E3,9.8527344E2,5.200454E2,1.6180782E3,1.1192095E3,1.2873813E3,2.3021685E3,4.8266797E2,5.8912854E2,1.3207617E3,5.4895276E2,5.779189E2,8.22913E2,1.732583E2,2.618661E2,1.2249453E3,1.0674546E3,5.405486E2,8.6644727E2,6.637939E2,4.4750085E2,6.4700146E2,1.3438335E3,2.660684E3,1.6497393E3,2.1701108E3,1.4016377E3,4.1313257E2,1.1270923E3,2.024418E2,3.7425464E2,6.613419E2,8.6098035E2,6.7120886E2,4.9648682E2,1.2352982E3,8.672539E2,3.1770074E2,9.6249316E2,0E0,0E0,0E0,0E0,0E0,0E0,0E0,0E0,0E0,0E0,0E0,0E0,0E0,0E0,0E0,0E0,0E0,0E0,0E0,0E0,0E0,0E0,0E0,0E0,0E0,0E0,0E0,0E0,0E0,0E0,0E0,0E0,0E0,0E0,0E0,0E0,0E0,0E0,0E0,0E0,0E0,0E0,0E0,0E0,0E0,0E0,0E0,0E0,0E0,0E0,0E0,0E0,0E0,0E0,0E0,0E0,0E0,0E0,0E0,0E0,0E0,0E0,0E0,0E0],"parents":[2147483647,0,0,1,1,2,2,3,3,4,4,5,5,6,6,7,7,8,8,9,9,10,10,11,11,12,12,13,13,14,14,15,15,16,16,17,17,18,18,19,19,20,20,21,21,22,22,23,23,24,24,25,25,26,26,27,27,28,28,29,29,30,30,31,31,32,32,33,33,34,34,35,35,36,36,37,37,38,38,39,39,40,40,41,41,42,42,43,43,44,44,45,45,46,46,47,47,48,48,49,49,50,50,51,51,52,52,53,53,54,54,55,55,56,56,57,57,58,58,59,59,60,60,61,61,62,62],"right_children":[2,4,6,8,10,12,14,16,18,20,22,24,26,28,30,32,34,36,38,40,42,44,46,48,50,52,54,56,58,60,62,64,66,68,70,72,74,76,78,80,82,84,86,88,90,92,94,96,98,100,102,104,106,108,110,112,114,116,118,120,122,124,126,-1,-1,-1,-1,-1,-1,-1,-1,-1,-1,-1,-1,-1,-1,-1,-1,-1,-1,-1,-1,-1,-1,-1,-1,-1,-1,-1,-1,-1,-1,-1,-1,-1,-1,-1,-1,-1,-1,-1,-1,-1,-1,-1,-1,-1,-1,-1,-1,-1,-1,-1,-1,-1,-1,-1,-1,-1,-1,-1,-1,-1,-1,-1,-1],"split_conditions":[-2.5663925E-2,-1.2559617E1,-1.1265422E-1,-1.8851284E0,-2.9594666E-1,2.2338428E0,2.3941586E0,2.4217415E0,1.4775392E0,2.3941586E0,-3.5086398E0,-2.4494312E0,-1.2468518E0,-2.6395065E-1,3.1830082E0,-1.6660635E0,-1.058888E0,-4.3707284E-1,1.4776556E-1,-1.0516355E0,-2.4538634E0,2.146928E0,-2.462647E-1,1.4775392E0,5.198055E-1,3.2736204E0,1.4822475E0,2.5906913E0,7.008041E-1,6.80579E-1,1.1644539E0,7.5363517E-1,-9.812399E-2,1.0202481E-1,1.5697724E0,-3.1262147E0,2.5620015E0,-2.301786E-3,1.0862594E0,-1.5394447E0,3.230925E-1,7.635644E-1,8.92335E-2,6.5570796E-1,1.18787944E-1,-2.302126E0,2.3621514E0,-1.2671841E0,-8.0835557E-1,1.2410113E0,4.5116064E-1,-3.1349662E-1,-3.102681E-1,6.6491685E0,-4.664126E-1,-7.8571594E-1,4.9510732E-1,1.6153826E0,-1.4073406E0,-5.6163106E-2,8.6493766E-1,3.832701E-1,-3.347383E-1,3.3336394E-2,9.3439996E-2,3.673385E-2,8.460229E-3,1.5208809E-1,9.686377E-2,6.277298E-3,1.0466696E-1,1.4870386E-1,2.0931507E-2,-3.593752E-3,-3.1686258E-2,1.7001781E-1,1.8515248E-2,7.343874E-2,-2.0745588E-2,7.5605162E-3,2.4719757E-3,1.5661338E-3,3.4928442E-5,8.232754E-2,3.2632284E-2,3.3918557E-5,1.1481631E-2,-3.6421034E-3,-1.7708095E-2,-2.28717E-2,-9.544026E-2,-3.7950475E-3,1.0794471E-3,-4.0857735E-4,2.1688119E-3,4.441799E-2,2.6651665E-3,1.5666823E-1,6.222381E-2,-6.164429E-4,-3.1169222E-3,-2.1963737E-3,-4.4486164E-3,-3.5761256E-2,-9.966195E-3,-8.275053E-2,-3.5358675E-2,-4.9633933E-3,-2.023049E-2,-3.6624197E-2,-1.192697E-2,2.3440782E-3,6.6752214E-4,-2.8063473E-3,-1.629804E-2,-1.2968659E-3,-4.3008314E-3,4.600785E-3,2.4861752E-4,-3.2784825E-3,6.1712894E-3,1.201906E-2,-6.2761293E-3,-1.3884345E-2,2.1433258E-2,-1.3128895E-1,-4.9857184E-2],"split_indices":[6,75,68,36,4,36,58,50,17,58,60,36,8,56,1,7,52,7,5,6,8,38,36,17,36,7,45,37,59,68,8,34,7,19,15,61,7,59,23,8,36,19,5,78,55,33,39,52,52,66,56,72,72,24,52,33,68,66,4,5,38,70,23,0,0,0,0,0,0,0,0,0,0,0,0,0,0,0,0,0,0,0,0,0,0,0,0,0,0,0,0,0,0,0,0,0,0,0,0,0,0,0,0,0,0,0,0,0,0,0,0,0,0,0,0,0,0,0,0,0,0,0,0,0,0,0,0],"split_type":[0,0,0,0,0,0,0,0,0,0,0,0,0,0,0,0,0,0,0,0,0,0,0,0,0,0,0,0,0,0,0,0,0,0,0,0,0,0,0,0,0,0,0,0,0,0,0,0,0,0,0,0,0,0,0,0,0,0,0,0,0,0,0,0,0,0,0,0,0,0,0,0,0,0,0,0,0,0,0,0,0,0,0,0,0,0,0,0,0,0,0,0,0,0,0,0,0,0,0,0,0,0,0,0,0,0,0,0,0,0,0,0,0,0,0,0,0,0,0,0,0,0,0,0,0,0,0],"sum_hessian":[3.5504456E7,1.7336354E7,1.8168104E7,3.799388E4,1.729836E7,1.2914087E7,5.2540175E6,1.5239373E4,2.2754504E4,7.8762825E6,9.422077E6,1.2866595E7,4.749164E4,4.951891E6,3.0212644E5,9.5483125E3,5.6910605E3,2.1997537E4,7.569686E2,7.7837245E6,9.2558016E4,5.216547E4,9.369911E6,2.053164E4,1.2846063E7,1.3570046E4,3.3921594E4,2.5303432E6,2.4215475E6,2.9770488E5,4.4215615E3,1.9737527E3,7.57456E3,4.34924E3,1.3418203E3,3.7851682E3,1.8212367E4,2.2914642E2,5.278222E2,2.0095152E6,5.774209E6,2.5618066E3,8.999621E4,4.5670105E4,6.4953633E3,3.414381E6,5.9555305E6,1.86787E4,1.8529414E3,9.478099E6,3.3679645E6,8.52499E3,5.0450557E3,2.7601414E4,6.3201787E3,2.4789358E6,5.140749E4,1.720321E6,7.0122656E5,1.9208912E5,1.05615734E5,2.661221E3,1.7603408E3,4.2794904E2,1.5458037E3,4.40859E3,3.1659702E3,2.1855198E3,2.1637205E3,1.1817018E3,1.6011852E2,8.970565E1,3.6954624E3,1.5060791E4,3.151577E3,2.0811679E2,2.1029629E1,4.3963272E2,8.818949E1,1.2619281E5,1.8833224E6,4.214925E6,1.5592842E6,7.930819E2,1.7687249E3,2.181852E4,6.8177695E4,3.4599363E4,1.1070745E4,6.276351E3,2.1901205E2,6.9488016E4,3.3448928E6,5.3975075E6,5.580226E5,5.344108E3,1.3334592E4,9.2932806E2,9.236134E2,8.511892E6,9.662069E5,2.3975938E6,9.703709E5,6.482925E3,2.042065E3,2.352431E3,2.6926248E3,2.5226387E4,2.3750288E3,2.6220479E3,3.6981309E3,9.5990675E5,1.5190291E6,3.2970184E4,1.8437305E4,1.508215E6,2.12106E5,7.316198E4,6.280646E5,4.523582E4,1.4685331E5,9.86837E4,6.9320312E3,1.608736E3,1.0524849E3,5.120357E2,1.2483052E3],"tree_param":{"num_deleted":"0","num_feature":"79","num_nodes":"127","size_leaf_vector":"1"}},{"base_weights":[2.0032729E-7,2.7750868E-2,-1.0650598E-2,5.201535E-1,2.6273947E-2,9.028208E-3,-2.2950556E-2,1.3397776E0,1.0393064E-1,1.9777717E-1,2.4883114E-2,5.3529876E-1,7.7810776E-3,9.925296E-2,-2.5389157E-2,1.0130345E0,2.3469558E0,3.308416E-2,1.4313143E0,5.1822615E-1,1.2523274E-1,2.6374463E-2,-1.4316113E-1,3.2152408E-1,2.2844849E0,6.838469E-3,2.070226E-1,1.1080836E-1,-9.2863166E-1,-2.1706095E-2,-8.798573E-2,1.8267728E0,7.4222505E-1,2.6779993E0,1.0335765E0,3.2644537E-1,-2.532343E-1,1.7891915E0,-6.0424596E-2,6.555673E-1,9.083653E-2,3.4986883E-1,6.398001E-2,3.821766E-2,1.2399054E-2,-9.355298E-2,-3.8487217E-1,1.7494103E0,2.2019143E-1,2.5980966E0,5.9719664E-1,1.15246875E-2,-3.3753347E-2,1.7140315E-1,5.137514E-1,6.631909E-2,1.9077934E-1,-4.077826E-1,-2.025203E0,-7.696799E-3,-3.3542585E-2,-5.9325993E-1,-8.23411E-2,9.713697E-2,-5.2245677E-2,4.6470936E-2,2.696247E-3,7.5141646E-2,1.484254E-1,1.0025056E-2,1.2593174E-1,4.6520036E-2,9.472764E-3,-2.364259E-2,-1.0123661E-3,5.1011242E-2,1.3211626E-1,1.4947785E-1,-2.3303784E-2,4.6935864E-2,2.1033466E-2,3.7434217E-2,8.9104025E-4,7.495894E-2,1.4840779E-2,2.0294695E-3,4.0701628E-2,1.8706693E-3,1.6863743E-2,-3.9459425E-3,7.192754E-4,-1.9278197E-2,-3.6125039E-3,-1.6377013E-2,-6.0795516E-2,1.1769537E-1,4.9744643E-2,9.899179E-2,8.929972E-3,9.444933E-2,1.6281779E-1,1.03038274E-1,-3.2880593E-2,1.2758637E-3,-1.6770156E-5,-3.7999594E-4,-2.6842984E-3,5.2022297E-2,7.906059E-3,1.9268401E-2,7.4920125E-2,4.5779063E-3,-8.078276E-3,8.243273E-3,2.9326985E-2,1.790267E-2,-4.1435044E-2,-1.8694846E-1,-7.669496E-2,-3.713862E-5,-1.5428913E-3,-1.6294823E-3,-1.3439258E-2,-4.0237583E-2,-9.472958E-3,-6.6128694E-3,-3.0641055E-3],"categories":[],"categories_nodes":[],"categories_segments":[],"categories_sizes":[],"default_left":[0,1,0,0,0,1,1,0,0,1,0,0,0,0,0,0,1,0,0,0,0,0,1,0,1,0,0,0,0,0,1,0,0,0,0,1,0,0,0,0,0,0,0,0,0,0,0,1,0,0,0,0,0,0,0,0,0,0,0,0,0,0,0,0,0,0,0,0,0,0,0,0,0,0,0,0,0,0,0,0,0,0,0,0,0,0,0,0,0,0,0,0,0,0,0,0,0,0,0,0,0,0,0,0,0,0,0,0,0,0,0,0,0,0,0,0,0,0,0,0,0,0,0,0,0,0,0],"id":6,"left_children":[1,3,5,7,9,11,13,15,17,19,21,23,25,27,29,31,33,35,37,39,41,43,45,47,49,51,53,55,57,59,61,63,65,67,69,71,73,75,77,79,81,83,85,87,89,91,93,95,97,99,101,103,105,107,109,111,113,115,117,119,121,123,125,-1,-1,-1,-1,-1,-1,-1,-1,-1,-1,-1,-1,-1,-1,-1,-1,-1,-1,-1,-1,-1,-1,-1,-1,-1,-1,-1,-1,-1,-1,-1,-1,-1,-1,-1,-1,-1,-1,-1,-1,-1,-1,-1,-1,-1,-1,-1,-1,-1,-1,-1,-1,-1,-1,-1,-1,-1,-1,-1,-1,-1,-1,-1,-1],"loss_changes":[1.0493938E4,7.161342E3,6.2102773E3,1.004587E4,2.3418706E3,6.476959E3,4.705116E3,3.26142E3,1.8366677E3,1.8359392E3,2.4406895E3,8.723297E3,1.8489866E3,3.6691301E3,3.5688145E3,1.6492261E3,1.0531406E3,1.5575569E3,5.284109E2,8.5568555E2,8.8610895E2,1.5977363E3,1.0272175E3,3.0078848E3,1.342833E3,1.8639491E3,5.0639624E2,1.0868022E3,1.9605894E3,2.4242324E3,2.4532827E3,6.246372E2,7.242593E2,6.575205E2,6.0636334E2,7.576069E2,4.8017493E2,5.2091675E2,2.3948656E2,7.334292E2,1.7034492E2,8.4087976E2,8.8777625E2,1.2567754E3,8.032357E2,4.4215448E2,6.9465796E2,6.2596484E2,1.4205283E3,9.937461E2,7.35046E2,1.4578401E3,5.2868945E2,4.7927148E2,6.090851E2,1.1289292E3,1.1197417E3,7.512307E2,9.2518506E2,1.0783566E3,1.7764004E3,8.1142554E2,8.942212E2,0E0,0E0,0E0,0E0,0E0,0E0,0E0,0E0,0E0,0E0,0E0,0E0,0E0,0E0,0E0,0E0,0E0,0E0,0E0,0E0,0E0,0E0,0E0,0E0,0E0,0E0,0E0,0E0,0E0,0E0,0E0,0E0,0E0,0E0,0E0,0E0,0E0,0E0,0E0,0E0,0E0,0E0,0E0,0E0,0E0,0E0,0E0,0E0,0E0,0E0,0E0,0E0,0E0,0E0,0E0,0E0,0E0,0E0,0E0,0E0,0E0,0E0,0E0,0E0],"parents":[2147483647,0,0,1,1,2,2,3,3,4,4,5,5,6,6,7,7,8,8,9,9,10,10,11,11,12,12,13,13,14,14,15,15,16,16,17,17,18,18,19,19,20,20,21,21,22,22,23,23,24,24,25,25,26,26,27,27,28,28,29,29,30,30,31,31,32,32,33,33,34,34,35,35,36,36,37,37,38,38,39,39,40,40,41,41,42,42,43,43,44,44,45,45,46,46,47,47,48,48,49,49,50,50,51,51,52,52,53,53,54,54,55,55,56,56,57,57,58,58,59,59,60,60,61,61,62,62],"right_children":[2,4,6,8,10,12,14,16,18,20,22,24,26,28,30,32,34,36,38,40,42,44,46,48,50,52,54,56,58,60,62,64,66,68,70,72,74,76,78,80,82,84,86,88,90,92,94,96,98,100,102,104,106,108,110,112,114,116,118,120,122,124,126,-1,-1,-1,-1,-1,-1,-1,-1,-1,-1,-1,-1,-1,-1,-1,-1,-1,-1,-1,-1,-1,-1,-1,-1,-1,-1,-1,-1,-1,-1,-1,-1,-1,-1,-1,-1,-1,-1,-1,-1,-1,-1,-1,-1,-1,-1,-1,-1,-1,-1,-1,-1,-1,-1,-1,-1,-1,-1,-1,-1,-1,-1,-1,-1],"split_conditions":[-4.0703627E-1,-1.2559617E1,-1.9810566E-1,-2.1847324E0,-2.7132642E0,-1.2559617E1,-3.377498E0,2.3234184E-1,8.2813317E-1,-1.1957048E0,2.7772043E0,8.906409E-1,3.0442042E0,1.2241931E0,1.5387603E0,-1.9120036E0,-8.2858163E-1,1.2568076E0,-7.582649E-1,4.174988E-1,-2.5331588E0,-1.511441E-1,8.0453974E-1,-1.0907444E0,4.243951E0,1.244235E0,3.4755208E0,2.2636609E-1,3.1830082E0,7.612218E-2,-1.2559617E1,-5.9153086E-1,2.1878402E0,2.4217415E0,2.8364248E0,-1.3337077E0,9.9297905E-1,-1.0851827E-1,2.5E1,-7.849538E-1,-1.0252695E0,-2.5113964E0,1.4043634E0,2.431806E0,-2.064428E0,-2.2253473E0,1.6438395E0,-1.5264679E0,-2.4430168E0,2.5966895E0,2.0343606E0,-1.2916134E-1,5.167131E-2,-2.3728995E0,9.0287834E-2,3.71677E0,1.8087791E0,-3.347383E-1,-7.047763E-1,7.726904E-1,2.501232E0,-2.301786E-3,-7.4209976E-1,9.713697E-2,-5.2245677E-2,4.6470936E-2,2.696247E-3,7.5141646E-2,1.484254E-1,1.0025056E-2,1.2593174E-1,4.6520036E-2,9.472764E-3,-2.364259E-2,-1.0123661E-3,5.1011242E-2,1.3211626E-1,1.4947785E-1,-2.3303784E-2,4.6935864E-2,2.1033466E-2,3.7434217E-2,8.9104025E-4,7.495894E-2,1.4840779E-2,2.0294695E-3,4.0701628E-2,1.8706693E-3,1.6863743E-2,-3.9459425E-3,7.192754E-4,-1.9278197E-2,-3.6125039E-3,-1.6377013E-2,-6.0795516E-2,1.1769537E-1,4.9744643E-2,9.899179E-2,8.929972E-3,9.444933E-2,1.6281779E-1,1.03038274E-1,-3.2880593E-2,1.2758637E-3,-1.6770156E-5,-3.7999594E-4,-2.6842984E-3,5.2022297E-2,7.906059E-3,1.9268401E-2,7.4920125E-2,4.5779063E-3,-8.078276E-3,8.243273E-3,2.9326985E-2,1.790267E-2,-4.1435044E-2,-1.8694846E-1,-7.669496E-2,-3.713862E-5,-1.5428913E-3,-1.6294823E-3,-1.3439258E-2,-4.0237583E-2,-9.472958E-3,-6.6128694E-3,-3.0641055E-3],"split_indices":[6,75,36,36,4,75,15,17,17,8,14,15,60,38,19,7,52,36,52,61,1,4,77,7,78,19,24,5,1,4,75,52,2,50,34,42,60,8,11,1,25,42,49,47,58,57,22,42,33,35,41,4,5,19,17,24,61,23,23,36,36,59,8,0,0,0,0,0,0,0,0,0,0,0,0,0,0,0,0,0,0,0,0,0,0,0,0,0,0,0,0,0,0,0,0,0,0,0,0,0,0,0,0,0,0,0,0,0,0,0,0,0,0,0,0,0,0,0,0,0,0,0,0,0,0,0,0],"split_type":[0,0,0,0,0,0,0,0,0,0,0,0,0,0,0,0,0,0,0,0,0,0,0,0,0,0,0,0,0,0,0,0,0,0,0,0,0,0,0,0,0,0,0,0,0,0,0,0,0,0,0,0,0,0,0,0,0,0,0,0,0,0,0,0,0,0,0,0,0,0,0,0,0,0,0,0,0,0,0,0,0,0,0,0,0,0,0,0,0,0,0,0,0,0,0,0,0,0,0,0,0,0,0,0,0,0,0,0,0,0,0,0,0,0,0,0,0,0,0,0,0,0,0,0,0,0,0],"sum_hessian":[3.5504456E7,9.847301E6,2.5657156E7,2.9446805E4,9.817854E6,9.868485E6,1.5788671E7,9.91669E3,1.9530115E4,7.897783E4,9.738876E6,2.3329555E4,9.845155E6,3.089018E5,1.547977E7,7.489118E3,2.427572E3,1.8541523E4,9.885921E2,1.457774E4,6.4400086E4,9.653207E6,8.566886E4,2.0789924E4,2.5396316E3,9.798798E6,4.6356953E4,3.0546866E5,3.433161E3,1.4619583E7,8.60187E5,1.8685834E3,5.6205347E3,1.9380406E3,4.895313E2,9.158058E3,9.383465E3,7.971513E2,1.9144078E2,1.1032065E4,3.545675E3,1.3796944E4,5.0603145E4,5.2252045E6,4.428003E6,7.108163E4,1.4587227E4,1.3765527E3,1.9413371E4,2.1411262E3,3.9850528E2,8.784636E6,1.01416256E6,4.153516E4,4.821791E3,1.9627773E5,1.09190914E5,2.328529E3,1.1046318E3,6.6952715E6,7.924311E6,9.5022E3,8.506848E5,1.7963647E3,7.221865E1,4.418505E3,1.20203E3,3.853592E2,1.5526814E3,3.1433395E2,1.7519737E2,1.6921218E3,7.465936E3,4.829791E3,4.553674E3,4.204117E2,3.767396E2,2.1725182E1,1.6971559E2,5.0008994E3,6.0311655E3,3.533004E2,3.1923748E3,6.0757574E2,1.3189368E4,4.9073816E4,1.5293284E3,5.211191E6,1.4013695E4,9.427154E4,4.333731E6,4.831835E3,6.62498E4,1.3647129E4,9.400983E2,7.6307764E2,6.1347516E2,4.4719424E2,1.8966178E4,1.032613E3,1.1085132E3,1.8365436E2,2.148509E2,4.0300108E6,4.754625E6,4.3863478E5,5.755278E5,6.240812E2,4.091108E4,4.2668506E3,5.549403E2,1.7670736E5,1.9570373E4,1.02481945E5,6.708971E3,8.2593616E2,1.5025928E3,2.4464635E2,8.5998553E2,5.1492315E6,1.5460399E6,7.8923415E6,3.1969805E4,6.2354E3,3.2668003E3,2.5240411E5,5.982807E5],"tree_param":{"num_deleted":"0","num_feature":"79","num_nodes":"127","size_leaf_vector":"1"}},{"base_weights":[2.2903595E-7,1.4980352E-2,-1.8366186E-2,1.3968311E-2,3.7934288E-1,-2.9651448E-2,8.77335E-3,2.9330598E-2,2.2504835E-3,1.1676458E0,2.126676E-1,-2.8388834E-2,-3.513527E-1,2.1385103E-3,1.102644E-1,2.6034233E-1,2.821389E-2,3.6726538E-3,-1.1613858E-1,1.8960859E0,4.8922703E-1,1.0829692E-1,4.2356902E-1,4.3520105E-1,-2.9170778E-2,-7.5920576E-1,-1.7683125E-1,2.2011176E-2,-1.8146854E-2,1.20411694E-1,-5.495845E-1,1.3727078E-1,9.677924E-1,5.2300513E-2,2.0678973E-2,1.819318E-2,-4.5791217E-3,-1.932359E-1,-1.073621E-2,1.4774772E0,2.6026504E0,3.4161443E-1,1.3954141E0,-7.878598E-2,1.9499734E-1,1.0060562E0,3.3829764E-1,1.1472087E0,7.6427326E-2,-1.967499E-2,-5.7326987E-2,-6.301128E-1,-1.2526456E0,-1.3570945E-1,-5.359668E-1,2.6331589E-2,-1.1737953E-1,-3.2491587E-2,1.392714E-2,7.0691496E-2,1.994839E-1,6.0183476E-3,-1.37941E0,2.317328E-2,2.337983E-3,7.652509E-2,2.8173147E-2,9.56227E-3,2.4335242E-3,1.6839094E-3,4.969832E-4,2.6519252E-2,8.6918304E-4,2.206587E-3,-4.4481579E-4,-1.220188E-2,6.828735E-4,1.335822E-2,-1.4532538E-3,1.17941275E-1,5.5096265E-2,1.4227764E-1,8.663604E-2,1.5045051E-2,1.2899376E-1,9.550726E-2,1.9217866E-2,4.8461105E-3,-1.6930336E-2,5.507894E-3,2.4824437E-2,8.999433E-2,2.2395283E-2,1.9103488E-2,-2.569207E-2,4.5027267E-2,1.406772E-1,1.8779088E-2,-1.1089933E-3,-7.184329E-4,-3.0431873E-3,-2.5612123E-3,-6.213547E-3,-3.647268E-2,-7.964078E-3,-1.8190695E-2,-7.271545E-2,-5.4820324E-3,-2.1352967E-2,8.521415E-2,-2.8942967E-2,2.3114453E-3,5.8233185E-4,-2.5816394E-3,-1.5104959E-2,-1.291864E-3,-4.069421E-3,1.0297644E-2,5.107666E-4,1.7864573E-3,1.09692775E-2,4.457406E-3,1.471894E-2,-1.3415717E-2,2.084486E-2,-9.439019E-2,-1.9721499E-2],"categories":[],"categories_nodes":[],"categories_segments":[],"categories_sizes":[],"default_left":[0,1,0,0,0,0,0,0,0,1,0,0,1,0,0,1,0,0,0,0,0,0,1,1,0,1,1,0,0,0,1,0,0,0,0,1,1,0,0,0,0,0,0,0,0,0,1,1,0,0,0,0,0,0,0,0,0,0,0,1,0,0,0,0,0,0,0,0,0,0,0,0,0,0,0,0,0,0,0,0,0,0,0,0,0,0,0,0,0,0,0,0,0,0,0,0,0,0,0,0,0,0,0,0,0,0,0,0,0,0,0,0,0,0,0,0,0,0,0,0,0,0,0,0,0,0,0],"id":7,"left_children":[1,3,5,7,9,11,13,15,17,19,21,23,25,27,29,31,33,35,37,39,41,43,45,47,49,51,53,55,57,59,61,63,65,67,69,71,73,75,77,79,81,83,85,87,89,91,93,95,97,99,101,103,105,107,109,111,113,115,117,119,121,123,125,-1,-1,-1,-1,-1,-1,-1,-1,-1,-1,-1,-1,-1,-1,-1,-1,-1,-1,-1,-1,-1,-1,-1,-1,-1,-1,-1,-1,-1,-1,-1,-1,-1,-1,-1,-1,-1,-1,-1,-1,-1,-1,-1,-1,-1,-1,-1,-1,-1,-1,-1,-1,-1,-1,-1,-1,-1,-1,-1,-1,-1,-1,-1,-1],"loss_changes":[9.768383E3,7.2108735E3,4.8849663E3,3.5103857E3,7.1164775E3,4.5757344E3,3.15432E3,2.1768125E3,1.8626041E3,4.6707725E3,9.8415857E2,4.0676914E3,3.134643E3,1.772494E3,1.9246777E3,3.534238E3,1.5240825E3,1.3097887E3,1.0670881E3,1.3443652E3,6.5444214E2,4.8518777E2,7.348501E2,4.826648E3,2.9950928E3,8.398843E2,4.554439E2,1.3375692E3,1.00109515E3,1.1129434E3,2.0072308E3,1.0209114E3,1.367727E3,1.0092495E3,8.92978E2,1.6423649E3,1.4657993E3,7.97124E2,2.8257523E2,9.455967E2,3.531377E2,3.830111E2,3.5601428E2,4.325004E2,5.2275885E2,8.3644666E2,4.8185095E2,2.5996035E3,3.7066614E2,1.8308997E3,1.1542041E3,4.8925586E2,4.898335E2,2.1016153E2,3.0545245E2,6.294575E2,8.1090735E2,4.8918286E2,4.7926138E2,9.035448E2,1.1442246E3,2.9415027E2,8.7354126E2,0E0,0E0,0E0,0E0,0E0,0E0,0E0,0E0,0E0,0E0,0E0,0E0,0E0,0E0,0E0,0E0,0E0,0E0,0E0,0E0,0E0,0E0,0E0,0E0,0E0,0E0,0E0,0E0,0E0,0E0,0E0,0E0,0E0,0E0,0E0,0E0,0E0,0E0,0E0,0E0,0E0,0E0,0E0,0E0,0E0,0E0,0E0,0E0,0E0,0E0,0E0,0E0,0E0,0E0,0E0,0E0,0E0,0E0,0E0,0E0,0E0,0E0,0E0,0E0],"parents":[2147483647,0,0,1,1,2,2,3,3,4,4,5,5,6,6,7,7,8,8,9,9,10,10,11,11,12,12,13,13,14,14,15,15,16,16,17,17,18,18,19,19,20,20,21,21,22,22,23,23,24,24,25,25,26,26,27,27,28,28,29,29,30,30,31,31,32,32,33,33,34,34,35,35,36,36,37,37,38,38,39,39,40,40,41,41,42,42,43,43,44,44,45,45,46,46,47,47,48,48,49,49,50,50,51,51,52,52,53,53,54,54,55,55,56,56,57,57,58,58,59,59,60,60,61,61,62,62],"right_children":[2,4,6,8,10,12,14,16,18,20,22,24,26,28,30,32,34,36,38,40,42,44,46,48,50,52,54,56,58,60,62,64,66,68,70,72,74,76,78,80,82,84,86,88,90,92,94,96,98,100,102,104,106,108,110,112,114,116,118,120,122,124,126,-1,-1,-1,-1,-1,-1,-1,-1,-1,-1,-1,-1,-1,-1,-1,-1,-1,-1,-1,-1,-1,-1,-1,-1,-1,-1,-1,-1,-1,-1,-1,-1,-1,-1,-1,-1,-1,-1,-1,-1,-1,-1,-1,-1,-1,-1,-1,-1,-1,-1,-1,-1,-1,-1,-1,-1,-1,-1,-1,-1,-1,-1,-1,-1],"split_conditions":[7.010068E-2,2.9346347E0,-1.1265422E-1,-3.300938E-1,-2.0133529E0,2.2338428E0,2.3941586E0,-2.4494312E0,2.2190022E0,-1.058888E0,3.332354E-1,-2.4494312E0,-1.2468518E0,-2.6395065E-1,3.1830082E0,1.3302101E0,-1.0516355E0,-2.462647E-1,-7.326046E-2,2.3587054E-1,1.4775392E0,-2.0293021E-1,-1.2064909E0,-1.2559617E1,5.4917043E-1,2.2244377E0,1.8361019E0,2.328261E0,7.008041E-1,-1.9840267E-2,1.1644539E0,-2.7376947E-1,3.491317E-1,-2.7132642E0,-2.3009536E-1,-1.2559617E1,-8.07536E0,2.9362166E-1,-3.5409367E-4,4.347245E-1,2.865915E-1,1.8928413E0,2.728842E-1,1.787133E0,3.0442042E0,4.3527126E-1,8.330403E-1,1.5697724E0,-1.0087665E0,1.1970416E0,1.7721702E0,-1.2842855E-1,1.1237055E0,6.6491685E0,-2.0310056E0,-6.820462E-1,7.292455E-1,1.6541518E0,-2.2584455E0,2.0806966E0,-1.1429727E-1,3.832701E-1,1.2404926E0,2.317328E-2,2.337983E-3,7.652509E-2,2.8173147E-2,9.56227E-3,2.4335242E-3,1.6839094E-3,4.969832E-4,2.6519252E-2,8.6918304E-4,2.206587E-3,-4.4481579E-4,-1.220188E-2,6.828735E-4,1.335822E-2,-1.4532538E-3,1.17941275E-1,5.5096265E-2,1.4227764E-1,8.663604E-2,1.5045051E-2,1.2899376E-1,9.550726E-2,1.9217866E-2,4.8461105E-3,-1.6930336E-2,5.507894E-3,2.4824437E-2,8.999433E-2,2.2395283E-2,1.9103488E-2,-2.569207E-2,4.5027267E-2,1.406772E-1,1.8779088E-2,-1.1089933E-3,-7.184329E-4,-3.0431873E-3,-2.5612123E-3,-6.213547E-3,-3.647268E-2,-7.964078E-3,-1.8190695E-2,-7.271545E-2,-5.4820324E-3,-2.1352967E-2,8.521415E-2,-2.8942967E-2,2.3114453E-3,5.8233185E-4,-2.5816394E-3,-1.5104959E-2,-1.291864E-3,-4.069421E-3,1.0297644E-2,5.107666E-4,1.7864573E-3,1.09692775E-2,4.457406E-3,1.471894E-2,-1.3415717E-2,2.084486E-2,-9.439019E-2,-1.9721499E-2],"split_indices":[6,58,68,4,36,36,58,36,72,52,74,36,8,56,1,58,6,36,7,16,17,61,52,75,36,33,45,37,59,37,8,71,66,4,36,75,39,57,24,19,46,28,12,66,60,66,31,15,38,66,6,14,45,24,33,33,68,66,4,52,5,70,5,0,0,0,0,0,0,0,0,0,0,0,0,0,0,0,0,0,0,0,0,0,0,0,0,0,0,0,0,0,0,0,0,0,0,0,0,0,0,0,0,0,0,0,0,0,0,0,0,0,0,0,0,0,0,0,0,0,0,0,0,0,0,0,0],"split_type":[0,0,0,0,0,0,0,0,0,0,0,0,0,0,0,0,0,0,0,0,0,0,0,0,0,0,0,0,0,0,0,0,0,0,0,0,0,0,0,0,0,0,0,0,0,0,0,0,0,0,0,0,0,0,0,0,0,0,0,0,0,0,0,0,0,0,0,0,0,0,0,0,0,0,0,0,0,0,0,0,0,0,0,0,0,0,0,0,0,0,0,0,0,0,0,0,0,0,0,0,0,0,0,0,0,0,0,0,0,0,0,0,0,0,0,0,0,0,0,0,0,0,0,0,0,0,0],"sum_hessian":[3.5504456E7,1.9554942E7,1.5949515E7,1.9500778E7,5.4163633E4,1.1265185E7,4.6843305E6,8.438175E6,1.1062603E7,9.452298E3,4.4711336E4,1.1221145E7,4.4039695E4,4.396891E6,2.8743975E5,4.0592707E4,8.397582E6,1.093129E7,1.3131316E5,4.557244E3,4.8950537E3,2.9910684E4,1.4800654E4,1.8894057E4,1.1202251E7,1.3196467E4,3.0843227E4,2.2210385E6,2.1758522E6,2.830872E5,4.3525566E3,3.457846E4,6.014248E3,2.0010108E6,6.396571E6,3.961064E6,6.9702265E6,7.583919E4,5.5473965E4,2.863711E3,1.6935331E3,4.210556E3,6.84498E2,9.472004E3,2.043868E4,1.8886335E3,1.29120205E4,6.329866E3,1.2564191E4,8.377059E6,2.8251922E6,1.0461756E4,2.734711E3,2.767568E4,3.1675469E3,2.1542678E6,6.677067E4,1.5034509E6,6.724015E5,1.7380278E5,1.092844E5,2.6076316E3,1.7449253E3,7.5097607E3,2.7068697E4,2.5134578E3,3.5007903E3,5.0945438E4,1.9500654E6,2.8938078E6,3.5027632E6,6.2495537E3,3.9548142E6,5.67469E5,6.4027575E6,6.08882E4,1.4950989E4,3.4315488E3,5.2042414E4,8.540764E2,2.0096345E3,1.3221035E3,3.714296E2,4.136449E3,7.4106544E1,4.5299042E2,2.3150758E2,5.651028E3,3.8209763E3,1.5951347E4,4.4873325E3,7.787832E2,1.1098503E3,1.2281694E4,6.303261E2,5.515031E3,8.148357E2,3.1140325E3,9.450158E3,7.4210135E6,9.560453E5,2.589161E6,2.3603131E5,8.638558E3,1.8231987E3,5.0624387E2,2.228467E3,2.540401E4,2.2716707E3,5.877987E1,3.1087668E3,9.147835E5,1.2394844E6,4.9244492E4,1.7526176E4,1.3233582E6,1.8009262E5,1.2749846E4,6.596516E5,1.4071725E5,3.308553E4,5.053199E4,5.8752414E4,1.5638429E3,1.0437886E3,1.1502905E3,5.9463477E2],"tree_param":{"num_deleted":"0","num_feature":"79","num_nodes":"127","size_leaf_vector":"1"}},{"base_weights":[2.4526588E-7,1.4231384E-2,-1.7447876E-2,1.3269905E-2,3.6039025E-1,-2.8168866E-2,8.334664E-3,3.6913726E-2,6.3183503E-3,1.1732066E0,2.1422385E-1,-2.7325427E-2,-4.646963E-1,2.0315822E-3,1.0475092E-1,3.5030644E-2,3.055651E-1,-1.7553473E-1,7.0672235E-3,1.8441879E0,4.963384E-1,1.0830934E-1,4.246041E-1,4.1345176E-1,-2.8067414E-2,-8.326808E-1,-2.4574843E-1,2.1998385E-2,-1.6271885E-2,1.1439122E-1,-5.221298E-1,1.2408166E-1,3.125092E-2,9.690148E-1,1.8662576E-1,1.8444985E-1,-2.2676039E-1,1.5786551E-2,-7.134537E-3,2.4815042E0,1.4396893E0,3.276954E-1,1.3882868E0,-7.7827424E-2,1.9455606E-1,1.0245029E0,3.314264E-1,1.0898776E0,7.260736E-2,-1.9547341E-2,-5.8707222E-2,-6.355091E-1,-1.2791153E0,-1.9873555E-1,-7.612856E-1,2.6262779E-2,-1.14279695E-1,-2.7024727E-2,2.2352103E-2,6.872783E-2,1.9828944E-1,5.7202633E-3,-1.3105049E0,1.751825E-2,4.424134E-3,1.815947E-3,-2.4884587E-4,6.804605E-2,1.9806117E-2,3.6240765E-3,3.2355092E-2,3.2807835E-3,3.8319748E-2,-7.962033E-3,-2.188203E-2,2.194372E-2,7.682932E-4,1.7711705E-3,-6.041941E-4,1.3152917E-1,1.8400295E-2,5.9394132E-2,1.3607965E-1,-3.1553183E-3,2.6523924E-2,9.314697E-2,2.5155326E-2,4.543846E-3,-1.622244E-2,9.122362E-3,1.197583E-1,8.356297E-2,2.0253107E-2,1.8647535E-2,-2.3978641E-2,3.441983E-2,1.0161319E-1,1.7840436E-2,-1.0535493E-3,-7.565219E-4,-3.2558907E-3,-1.0259922E-2,-2.7173257E-3,-3.7816208E-2,-6.127256E-3,-8.101116E-2,-3.8414206E-2,-3.7653875E-2,-8.358787E-3,-4.8824187E-2,1.6066503E-2,1.6832547E-3,-6.268507E-4,-2.5716412E-3,-1.4374614E-2,-1.2049221E-3,-6.21271E-3,-4.162955E-3,1.7594807E-3,-2.738632E-3,5.5097914E-3,1.1678423E-2,1.822147E-4,-1.274536E-2,1.9803613E-2,-1.20678976E-1,-4.3391664E-2],"categories":[],"categories_nodes":[],"categories_segments":[],"categories_sizes":[],"default_left":[0,1,0,0,0,0,0,0,0,1,0,0,1,0,0,1,0,0,0,0,0,0,1,1,0,1,0,0,0,0,1,0,1,0,0,0,0,1,1,0,0,1,0,0,1,0,1,0,0,0,0,0,0,0,0,0,0,0,1,0,1,0,0,0,0,0,0,0,0,0,0,0,0,0,0,0,0,0,0,0,0,0,0,0,0,0,0,0,0,0,0,0,0,0,0,0,0,0,0,0,0,0,0,0,0,0,0,0,0,0,0,0,0,0,0,0,0,0,0,0,0,0,0,0,0,0,0],"id":8,"left_children":[1,3,5,7,9,11,13,15,17,19,21,23,25,27,29,31,33,35,37,39,41,43,45,47,49,51,53,55,57,59,61,63,65,67,69,71,73,75,77,79,81,83,85,87,89,91,93,95,97,99,101,103,105,107,109,111,113,115,117,119,121,123,125,-1,-1,-1,-1,-1,-1,-1,-1,-1,-1,-1,-1,-1,-1,-1,-1,-1,-1,-1,-1,-1,-1,-1,-1,-1,-1,-1,-1,-1,-1,-1,-1,-1,-1,-1,-1,-1,-1,-1,-1,-1,-1,-1,-1,-1,-1,-1,-1,-1,-1,-1,-1,-1,-1,-1,-1,-1,-1,-1,-1,-1,-1,-1,-1],"loss_changes":[8.815994E3,6.508356E3,4.408676E3,3.205174E3,6.434857E3,4.1476533E3,2.8467595E3,2.2414795E3,2.05231E3,3.7484287E3,1.02293945E3,3.6771963E3,1.7500903E3,1.6068958E3,1.737156E3,1.480957E3,2.4334626E3,1.1397366E3,1.8584648E3,1.065081E3,6.17935E2,4.9026312E2,8.589758E2,4.3562896E3,2.930211E3,7.1249023E2,3.2999384E2,1.2220868E3,9.527383E2,1.0845195E3,1.8117136E3,1.4430886E3,7.749487E2,1.0520513E3,1.3745972E3,5.3241974E2,7.7031396E2,1.6550977E3,1.2025566E3,5.0571582E2,8.1609863E2,2.7412692E2,2.7358472E2,4.0236832E2,5.55651E2,8.271389E2,4.4833594E2,2.3938853E3,3.3453705E2,1.7677285E3,1.5600459E3,3.483816E2,4.3116162E2,2.1829083E2,2.654455E2,5.8564404E2,6.945803E2,5.105509E2,6.7730786E2,9.3882837E2,6.8512646E2,2.6549387E2,8.504409E2,0E0,0E0,0E0,0E0,0E0,0E0,0E0,0E0,0E0,0E0,0E0,0E0,0E0,0E0,0E0,0E0,0E0,0E0,0E0,0E0,0E0,0E0,0E0,0E0,0E0,0E0,0E0,0E0,0E0,0E0,0E0,0E0,0E0,0E0,0E0,0E0,0E0,0E0,0E0,0E0,0E0,0E0,0E0,0E0,0E0,0E0,0E0,0E0,0E0,0E0,0E0,0E0,0E0,0E0,0E0,0E0,0E0,0E0,0E0,0E0,0E0,0E0,0E0,0E0],"parents":[2147483647,0,0,1,1,2,2,3,3,4,4,5,5,6,6,7,7,8,8,9,9,10,10,11,11,12,12,13,13,14,14,15,15,16,16,17,17,18,18,19,19,20,20,21,21,22,22,23,23,24,24,25,25,26,26,27,27,28,28,29,29,30,30,31,31,32,32,33,33,34,34,35,35,36,36,37,37,38,38,39,39,40,40,41,41,42,42,43,43,44,44,45,45,46,46,47,47,48,48,49,49,50,50,51,51,52,52,53,53,54,54,55,55,56,56,57,57,58,58,59,59,60,60,61,61,62,62],"right_children":[2,4,6,8,10,12,14,16,18,20,22,24,26,28,30,32,34,36,38,40,42,44,46,48,50,52,54,56,58,60,62,64,66,68,70,72,74,76,78,80,82,84,86,88,90,92,94,96,98,100,102,104,106,108,110,112,114,116,118,120,122,124,126,-1,-1,-1,-1,-1,-1,-1,-1,-1,-1,-1,-1,-1,-1,-1,-1,-1,-1,-1,-1,-1,-1,-1,-1,-1,-1,-1,-1,-1,-1,-1,-1,-1,-1,-1,-1,-1,-1,-1,-1,-1,-1,-1,-1,-1,-1,-1,-1,-1,-1,-1,-1,-1,-1,-1,-1,-1,-1,-1,-1,-1,-1,-1,-1],"split_conditions":[7.010068E-2,2.9346347E0,-1.1265422E-1,-9.527586E-1,-2.1847324E0,2.501232E0,2.3941586E0,5.275602E0,-2.8180635E0,-1.058888E0,3.332354E-1,-2.4494312E0,-1.3043046E0,-3.4119394E-1,3.1830082E0,-1.5394447E0,-2.4494312E0,5.0299224E-2,2.2447696E-1,4.347245E-1,1.4775392E0,-2.0293021E-1,-1.2064909E0,-1.2559617E1,6.317344E-1,2.115404E0,3.569578E0,2.328261E0,1.2261496E0,6.80579E-1,1.1644539E0,-2.3614354E0,6.032524E-1,-9.309851E-1,2.4217415E0,1.2449597E0,2.146928E0,-1.2559617E1,-2.406854E0,-2.1439198E-1,1.5697724E0,-2.0206902E0,1.5792985E-2,1.787133E0,1.9097685E0,6.799989E-1,8.330403E-1,-7.4772076E-3,-1.0087665E0,1.338146E0,-1.4465456E0,-1.2842855E-1,-3.0046552E-1,-2.1391E0,-9.836794E-2,3.7337026E-1,7.292455E-1,2.2190022E0,-1.3698136E0,2.987917E-3,3.1493487E0,3.832701E-1,-3.347383E-1,1.751825E-2,4.424134E-3,1.815947E-3,-2.4884587E-4,6.804605E-2,1.9806117E-2,3.6240765E-3,3.2355092E-2,3.2807835E-3,3.8319748E-2,-7.962033E-3,-2.188203E-2,2.194372E-2,7.682932E-4,1.7711705E-3,-6.041941E-4,1.3152917E-1,1.8400295E-2,5.9394132E-2,1.3607965E-1,-3.1553183E-3,2.6523924E-2,9.314697E-2,2.5155326E-2,4.543846E-3,-1.622244E-2,9.122362E-3,1.197583E-1,8.356297E-2,2.0253107E-2,1.8647535E-2,-2.3978641E-2,3.441983E-2,1.0161319E-1,1.7840436E-2,-1.0535493E-3,-7.565219E-4,-3.2558907E-3,-1.0259922E-2,-2.7173257E-3,-3.7816208E-2,-6.127256E-3,-8.101116E-2,-3.8414206E-2,-3.7653875E-2,-8.358787E-3,-4.8824187E-2,1.6066503E-2,1.6832547E-3,-6.268507E-4,-2.5716412E-3,-1.4374614E-2,-1.2049221E-3,-6.21271E-3,-4.162955E-3,1.7594807E-3,-2.738632E-3,5.5097914E-3,1.1678423E-2,1.822147E-4,-1.274536E-2,1.9803613E-2,-1.20678976E-1,-4.3391664E-2],"split_indices":[6,58,68,4,36,36,58,76,47,52,74,36,8,56,1,8,36,24,36,19,17,61,52,75,36,33,5,37,60,68,8,4,21,52,50,22,38,75,50,71,15,75,67,66,27,66,31,15,38,66,8,14,72,20,69,20,68,72,8,5,75,70,23,0,0,0,0,0,0,0,0,0,0,0,0,0,0,0,0,0,0,0,0,0,0,0,0,0,0,0,0,0,0,0,0,0,0,0,0,0,0,0,0,0,0,0,0,0,0,0,0,0,0,0,0,0,0,0,0,0,0,0,0,0,0,0,0],"split_type":[0,0,0,0,0,0,0,0,0,0,0,0,0,0,0,0,0,0,0,0,0,0,0,0,0,0,0,0,0,0,0,0,0,0,0,0,0,0,0,0,0,0,0,0,0,0,0,0,0,0,0,0,0,0,0,0,0,0,0,0,0,0,0,0,0,0,0,0,0,0,0,0,0,0,0,0,0,0,0,0,0,0,0,0,0,0,0,0,0,0,0,0,0,0,0,0,0,0,0,0,0,0,0,0,0,0,0,0,0,0,0,0,0,0,0,0,0,0,0,0,0,0,0,0,0,0,0],"sum_hessian":[3.5504456E7,1.9554942E7,1.5949515E7,1.9500778E7,5.4163633E4,1.1265185E7,4.6843305E6,4.4307575E6,1.507002E7,8.25445E3,4.5909184E4,1.1243462E7,2.172307E4,4.396891E6,2.8743975E5,4.399918E6,3.0839646E4,6.180305E4,1.5008217E7,4.1443857E3,4.110065E3,3.0537037E4,1.5372147E4,1.8894057E4,1.1224568E7,8.1024766E3,1.3620595E4,2.1028945E6,2.2939962E6,2.830872E5,4.3525566E3,1.791471E5,4.220771E6,4.687178E3,2.6152469E4,7.698663E3,5.4104387E4,9.298996E6,5.7092215E6,1.6071194E3,2.537266E3,3.45768E3,6.5238513E2,9.669189E3,2.0867848E4,2.0652986E3,1.330685E4,6.329866E3,1.2564191E4,8.782424E6,2.4421442E6,5.621927E3,2.4805496E3,1.2483577E4,1.1370173E3,2.0390885E6,6.3806055E4,1.7944305E6,4.9956562E5,1.8331558E5,9.97716E4,2.6076316E3,1.7449253E3,2.4351164E4,1.5479592E5,3.702778E6,5.179928E5,2.7824058E3,1.9047723E3,2.0958395E4,5.1940747E3,6.394092E3,1.3045717E3,4.0983895E4,1.3120491E4,9.236E3,9.28976E6,5.947904E5,5.114431E6,1.5009993E3,1.0612008E2,2.1223047E3,4.149616E2,1.1814633E3,2.2762168E3,4.2394965E2,2.2843552E2,5.741962E3,3.9272273E3,2.0754727E4,1.131197E2,1.0095411E3,1.0557576E3,1.265922E4,6.4762915E2,4.440029E3,1.8898373E3,3.1140325E3,9.450158E3,8.0064065E6,7.760171E5,7.059431E4,2.3715498E6,4.549855E3,1.0720721E3,1.4860604E3,9.944892E2,6.712009E2,1.1812376E4,9.485636E2,1.8845375E2,1.712394E6,3.2669453E5,4.6819715E4,1.6986342E4,1.7420032E6,5.2427293E4,5.4142496E4,4.4542316E5,4.607982E4,1.3723577E5,8.446271E4,1.5308891E4,1.5638429E3,1.0437886E3,4.984376E2,1.2464877E3],"tree_param":{"num_deleted":"0","num_feature":"79","num_nodes":"127","size_leaf_vector":"1"}},{"base_weights":[2.4980838E-7,2.695676E-2,-8.6138155E-3,4.5559198E-1,2.5573978E-2,8.970315E-3,-1.969633E-2,1.0799274E0,6.015583E-3,1.7782229E-1,2.4212856E-2,4.6927944E-1,7.885852E-3,8.9209825E-2,-2.1852659E-2,1.986614E0,7.93077E-1,-6.057135E-2,1.2484224E0,5.0881207E-1,1.18518606E-1,2.595783E-2,-1.0275138E-1,2.74978E-1,2.0493882E0,7.056909E-3,1.8958057E-1,1.0097384E-1,-7.727569E-1,-1.3069891E-2,-4.476662E-2,2.3143232E0,3.678123E-1,1.3651408E0,5.3507423E-1,3.130163E-1,-2.5075933E-1,3.5512045E-1,1.8527579E0,3.065634E-1,8.00395E-1,3.299035E-1,5.8196723E-2,2.3750661E-2,9.345756E-2,4.938699E-3,-1.4942102E-1,1.5596381E0,1.8187626E-1,2.5136616E0,1.0086085E0,3.484153E-2,1.3662248E-3,1.555727E-1,4.835212E-1,3.967257E-2,1.5458527E-1,-2.7819574E-1,-1.6821419E0,-1.6182166E-3,-2.2985952E-2,-4.101466E-2,-2.3909765E-1,3.6495048E-4,1.2464513E-1,-5.843274E-4,8.909811E-2,7.265478E-2,-7.16128E-2,4.0339768E-2,7.829951E-3,1.243734E-1,1.3876139E-2,-2.4431443E-2,2.78258E-3,1.4356999E-1,-1.7385668E-3,1.249918E-1,5.2838635E-2,1.0745167E-2,5.0045904E-2,5.99568E-2,2.1305557E-2,6.8329655E-2,1.3956986E-2,1.7985238E-3,2.9698974E-2,1.3664839E-3,-5.127683E-4,4.4116606E-3,3.447961E-2,-6.1650993E-4,3.955206E-2,-4.5515303E-3,-1.5256767E-2,6.1185844E-2,1.3303088E-1,6.425675E-2,6.3005844E-3,5.656538E-2,1.4138302E-1,-9.27641E-2,7.462457E-2,3.2721811E-3,1.0570675E-3,2.0139622E-4,-2.9769083E-3,9.084241E-3,-1.3930208E-2,1.931372E-2,8.388325E-2,5.2641775E-3,-2.2668787E-3,6.808381E-3,3.447806E-2,-2.481681E-2,4.333606E-2,-6.1465573E-2,-1.4766453E-1,-5.427699E-4,5.049444E-4,4.3673036E-4,-1.3390739E-3,-1.6965859E-3,-4.1671228E-3,-2.9844055E-2,-6.7302817E-3],"categories":[],"categories_nodes":[],"categories_segments":[],"categories_sizes":[],"default_left":[0,1,0,0,0,1,1,0,0,0,0,0,0,0,1,1,0,0,0,0,0,1,0,0,0,1,0,1,1,0,0,0,0,0,0,0,0,0,0,0,0,0,0,1,0,0,0,0,0,0,0,0,0,0,0,0,0,1,0,1,1,0,0,0,0,0,0,0,0,0,0,0,0,0,0,0,0,0,0,0,0,0,0,0,0,0,0,0,0,0,0,0,0,0,0,0,0,0,0,0,0,0,0,0,0,0,0,0,0,0,0,0,0,0,0,0,0,0,0,0,0,0,0,0,0,0,0],"id":9,"left_children":[1,3,5,7,9,11,13,15,17,19,21,23,25,27,29,31,33,35,37,39,41,43,45,47,49,51,53,55,57,59,61,63,65,67,69,71,73,75,77,79,81,83,85,87,89,91,93,95,97,99,101,103,105,107,109,111,113,115,117,119,121,123,125,-1,-1,-1,-1,-1,-1,-1,-1,-1,-1,-1,-1,-1,-1,-1,-1,-1,-1,-1,-1,-1,-1,-1,-1,-1,-1,-1,-1,-1,-1,-1,-1,-1,-1,-1,-1,-1,-1,-1,-1,-1,-1,-1,-1,-1,-1,-1,-1,-1,-1,-1,-1,-1,-1,-1,-1,-1,-1,-1,-1,-1,-1,-1,-1],"loss_changes":[8.244318E3,5.096128E3,5.243424E3,7.7604517E3,1.7760298E3,5.1925566E3,3.875852E3,3.008747E3,1.3299027E3,1.4905916E3,1.8819453E3,7.5056865E3,1.5630095E3,3.2494053E3,3.2569897E3,1.4745107E3,1.2972632E3,1.0841836E3,4.4080566E2,6.802212E2,8.2120337E2,1.248374E3,5.787977E2,2.6038438E3,1.2910342E3,1.6333806E3,4.710531E2,1.0389287E3,1.9399924E3,1.3285524E3,3.2696465E3,9.527803E2,2.519367E2,6.744785E2,6.233417E2,3.9660114E2,7.3699567E2,3.2505084E2,2.4846606E2,4.3350232E2,7.0467017E2,7.520774E2,5.966717E2,9.875376E2,8.2624927E2,4.7269562E2,7.3048584E2,5.40843E2,1.2511577E3,8.000576E2,1.149478E3,7.362661E2,1.3899723E3,4.7898712E2,5.6684937E2,8.226303E2,1.6615227E3,6.98712E2,8.7111523E2,5.8763983E2,7.5490796E2,1.3189702E3,3.1754414E3,0E0,0E0,0E0,0E0,0E0,0E0,0E0,0E0,0E0,0E0,0E0,0E0,0E0,0E0,0E0,0E0,0E0,0E0,0E0,0E0,0E0,0E0,0E0,0E0,0E0,0E0,0E0,0E0,0E0,0E0,0E0,0E0,0E0,0E0,0E0,0E0,0E0,0E0,0E0,0E0,0E0,0E0,0E0,0E0,0E0,0E0,0E0,0E0,0E0,0E0,0E0,0E0,0E0,0E0,0E0,0E0,0E0,0E0,0E0,0E0,0E0,0E0,0E0,0E0],"parents":[2147483647,0,0,1,1,2,2,3,3,4,4,5,5,6,6,7,7,8,8,9,9,10,10,11,11,12,12,13,13,14,14,15,15,16,16,17,17,18,18,19,19,20,20,21,21,22,22,23,23,24,24,25,25,26,26,27,27,28,28,29,29,30,30,31,31,32,32,33,33,34,34,35,35,36,36,37,37,38,38,39,39,40,40,41,41,42,42,43,43,44,44,45,45,46,46,47,47,48,48,49,49,50,50,51,51,52,52,53,53,54,54,55,55,56,56,57,57,58,58,59,59,60,60,61,61,62,62],"right_children":[2,4,6,8,10,12,14,16,18,20,22,24,26,28,30,32,34,36,38,40,42,44,46,48,50,52,54,56,58,60,62,64,66,68,70,72,74,76,78,80,82,84,86,88,90,92,94,96,98,100,102,104,106,108,110,112,114,116,118,120,122,124,126,-1,-1,-1,-1,-1,-1,-1,-1,-1,-1,-1,-1,-1,-1,-1,-1,-1,-1,-1,-1,-1,-1,-1,-1,-1,-1,-1,-1,-1,-1,-1,-1,-1,-1,-1,-1,-1,-1,-1,-1,-1,-1,-1,-1,-1,-1,-1,-1,-1,-1,-1,-1,-1,-1,-1,-1,-1,-1,-1,-1,-1,-1,-1,-1],"split_conditions":[-4.9471152E-1,-1.2559617E1,-1.9810566E-1,-1.8851284E0,-2.7132642E0,-1.2559617E1,-3.377498E0,2.0132871E-2,8.2813317E-1,-1.1957048E0,2.3176258E0,8.906409E-1,3.0442042E0,1.1315764E0,5.1585734E-1,-7.186521E-1,-1.5935998E0,8.544484E-2,2.6E1,1.1678877E0,-2.5331588E0,-1.7795101E-1,9.3839985E-1,-1.0907444E0,-8.0835557E-1,-9.226465E-1,3.4755208E0,-5.55616E-4,1.4403374E0,7.612218E-2,2.0584416E0,3.5688445E-1,1.5697724E0,3.8263276E0,-2.5270635E-1,-3.1262147E0,1.1786798E0,-6.321204E-1,1.2817799E-1,5.275602E0,6.9346184E-1,-2.5113964E0,1.3184663E0,1.4201584E0,2.431806E0,2.5594065E0,1.2585068E0,1.5217272E0,-2.193946E0,2.4217415E0,-1.8956541E0,-2.0531006E-1,1.8268273E0,2.6758823E0,1.4775392E0,2.0395732E-1,1.8130238E0,4.1414332E-1,3.439243E0,7.484598E-2,-1.1723546E0,1.5387603E0,-1.3043046E0,3.6495048E-4,1.2464513E-1,-5.843274E-4,8.909811E-2,7.265478E-2,-7.16128E-2,4.0339768E-2,7.829951E-3,1.243734E-1,1.3876139E-2,-2.4431443E-2,2.78258E-3,1.4356999E-1,-1.7385668E-3,1.249918E-1,5.2838635E-2,1.0745167E-2,5.0045904E-2,5.99568E-2,2.1305557E-2,6.8329655E-2,1.3956986E-2,1.7985238E-3,2.9698974E-2,1.3664839E-3,-5.127683E-4,4.4116606E-3,3.447961E-2,-6.1650993E-4,3.955206E-2,-4.5515303E-3,-1.5256767E-2,6.1185844E-2,1.3303088E-1,6.425675E-2,6.3005844E-3,5.656538E-2,1.4138302E-1,-9.27641E-2,7.462457E-2,3.2721811E-3,1.0570675E-3,2.0139622E-4,-2.9769083E-3,9.084241E-3,-1.3930208E-2,1.931372E-2,8.388325E-2,5.2641775E-3,-2.2668787E-3,6.808381E-3,3.447806E-2,-2.481681E-2,4.333606E-2,-6.1465573E-2,-1.4766453E-1,-5.427699E-4,5.049444E-4,4.3673036E-4,-1.3390739E-3,-1.6965859E-3,-4.1671228E-3,-2.9844055E-2,-6.7302817E-3],"split_indices":[6,75,36,36,4,75,15,66,17,8,14,15,60,38,45,52,33,7,9,56,1,15,24,7,52,45,24,31,8,4,36,60,15,0,7,61,60,29,70,76,66,42,49,66,47,22,38,8,33,50,61,48,19,1,17,47,61,31,24,27,39,19,8,0,0,0,0,0,0,0,0,0,0,0,0,0,0,0,0,0,0,0,0,0,0,0,0,0,0,0,0,0,0,0,0,0,0,0,0,0,0,0,0,0,0,0,0,0,0,0,0,0,0,0,0,0,0,0,0,0,0,0,0,0,0,0,0],"split_type":[0,0,0,0,0,0,0,0,0,0,0,0,0,0,0,0,0,0,0,0,0,0,0,0,0,0,0,0,0,0,0,0,0,0,0,0,0,0,0,0,0,0,0,0,0,0,0,0,0,0,0,0,0,0,0,0,0,0,0,0,0,0,0,0,0,0,0,0,0,0,0,0,0,0,0,0,0,0,0,0,0,0,0,0,0,0,0,0,0,0,0,0,0,0,0,0,0,0,0,0,0,0,0,0,0,0,0,0,0,0,0,0,0,0,0,0,0,0,0,0,0,0,0,0,0,0,0],"sum_hessian":[3.5504456E7,8.598053E6,2.6906404E7,2.7647133E4,8.570406E6,1.0402006E7,1.6504398E7,1.1573452E4,1.6073681E4,7.594064E4,8.494466E6,2.4447943E4,1.0377558E7,3.204395E5,1.6183958E7,2.7800986E3,8.793354E3,1.5256935E4,8.1674585E2,1.1537754E4,6.4402887E4,8.379303E6,1.1516288E5,2.177189E4,2.676053E3,1.0330429E7,4.712929E4,3.1612594E5,4.3135654E3,1.1699587E7,4.484371E6,2.3116917E3,4.6840704E2,2.7318325E3,6.0615215E3,5.146662E3,1.0110272E4,3.3021878E2,4.865271E2,6.813679E3,4.724074E3,1.4297152E4,5.0105734E4,8.1139855E6,2.6531728E5,3.4819004E4,8.034388E4,1.4701632E3,2.0301729E4,1.8495748E3,8.2647815E2,1.7561358E6,8.574293E6,4.2243406E4,4.8858813E3,1.4748638E5,1.6863956E5,2.794893E3,1.5186722E3,5.4293925E6,6.2701945E6,4.3994325E6,8.493889E4,1.6615938E2,2.1455322E3,3.7008374E2,9.832331E1,2.6490234E3,8.280904E1,3.5277146E3,2.5338066E3,8.155013E1,5.0651123E3,5.6913965E3,4.418876E3,4.3448265E1,2.867705E2,2.671848E2,2.1934229E2,6.020268E3,7.934113E2,2.2862395E3,2.437835E3,6.6620044E2,1.3630951E4,4.811098E4,1.994754E3,7.341336E6,7.726496E5,2.6301347E5,2.3038213E3,3.4071516E4,7.474899E2,5.843374E4,2.1910143E4,1.1280836E3,3.4207956E2,9.7739215E2,1.9324336E4,3.4321234E2,1.5063624E3,1.19048454E2,7.074297E2,5.4307206E5,1.2130636E6,8.215263E6,3.5903003E5,3.9847496E4,2.3959128E3,4.519179E3,3.6670233E2,8.3240766E4,6.4245613E4,1.6302823E5,5.6113335E3,2.3480808E3,4.4681223E2,1.1212194E3,3.9745294E2,3.0359782E6,2.393414E6,6.700819E5,5.6001125E6,3.768783E6,6.306494E5,1.9198389E4,6.57405E4],"tree_param":{"num_deleted":"0","num_feature":"79","num_nodes":"127","size_leaf_vector":"1"}},{"base_weights":[2.7564687E-7,2.556337E-2,-8.699713E-3,2.2002516E-2,2.0283209E-1,2.5539033E-3,-2.7235717E-2,1.0877858E-1,1.9641355E-2,8.788088E-1,1.5887173E-1,-1.7250018E-1,3.2459158E-3,-1.8037353E-2,-6.302672E-2,3.2498094E-1,7.191532E-2,2.7922029E-2,-2.609027E-3,2.2580712E0,5.404911E-1,2.3363993E-1,5.2291643E-2,1.718628E-1,-2.2010234E-1,1.9886546E-2,-3.0637968E-3,-3.2713994E-2,6.316896E-4,-5.9761804E-2,-3.202638E-1,4.9832067E-1,1.8584447E-1,3.732196E-1,4.181419E-2,1.0304275E-1,2.581903E-2,-3.2462403E-1,-1.8911709E-3,2.3699286E0,-6.774268E-1,1.2103165E0,8.821006E-2,1.2691055E-1,3.638197E-1,3.254723E-2,6.1627483E-1,5.2317422E-2,6.947895E-1,-1.1926487E-1,-3.601589E-1,6.0529613E-1,1.8370286E-2,6.58849E-5,-3.613968E-2,-3.171011E-2,-4.7771853E-1,2.820939E-3,-1.722069E-1,-5.1629383E-2,-1.1388572E-1,-8.019543E-1,-2.05014E-1,3.7630957E-2,9.58535E-3,1.2031804E-2,-8.554823E-3,5.8923036E-2,1.492995E-2,1.7759238E-3,3.5244875E-2,7.708948E-3,1.1204925E-3,5.5258036E-2,1.2853512E-3,-4.6456147E-2,-9.788357E-3,-1.0851311E-2,-4.506517E-5,1.6767555E-1,9.989206E-2,1.5739295E-1,-6.471022E-2,6.66172E-2,-6.1031472E-2,-5.7954895E-3,6.3110314E-2,5.360519E-3,4.414215E-2,5.358954E-3,2.3762299E-2,-2.2155564E-2,3.285888E-3,5.1069766E-2,-6.1553707E-3,-9.642264E-3,1.2440107E-2,7.2678566E-2,1.2294817E-2,-2.0112328E-3,-1.496339E-2,-8.060246E-2,-1.5548162E-2,1.9684074E-2,1.0470545E-1,1.5726797E-3,2.1909483E-4,7.6367665E-4,-3.0780153E-4,-1.8668437E-2,-1.7081539E-3,2.3393288E-2,-1.612757E-3,-5.41236E-2,-8.6489925E-3,-4.0305342E-4,2.2849904E-3,-1.406692E-3,-3.4825217E-2,-2.7305826E-3,6.7173014E-3,4.2348813E-2,-5.835383E-3,-2.4605291E-2,-7.3102616E-2,-7.971577E-3,-4.090334E-2],"categories":[],"categories_nodes":[],"categories_segments":[],"categories_sizes":[],"default_left":[0,0,0,0,0,0,0,1,0,0,0,0,0,0,0,0,0,1,1,0,0,0,1,0,0,1,0,0,0,0,0,0,0,0,0,0,1,0,0,0,0,0,0,0,0,1,0,0,0,0,1,0,0,0,1,1,0,0,0,0,0,0,0,0,0,0,0,0,0,0,0,0,0,0,0,0,0,0,0,0,0,0,0,0,0,0,0,0,0,0,0,0,0,0,0,0,0,0,0,0,0,0,0,0,0,0,0,0,0,0,0,0,0,0,0,0,0,0,0,0,0,0,0,0,0,0,0],"id":10,"left_children":[1,3,5,7,9,11,13,15,17,19,21,23,25,27,29,31,33,35,37,39,41,43,45,47,49,51,53,55,57,59,61,63,65,67,69,71,73,75,77,79,81,83,85,87,89,91,93,95,97,99,101,103,105,107,109,111,113,115,117,119,121,123,125,-1,-1,-1,-1,-1,-1,-1,-1,-1,-1,-1,-1,-1,-1,-1,-1,-1,-1,-1,-1,-1,-1,-1,-1,-1,-1,-1,-1,-1,-1,-1,-1,-1,-1,-1,-1,-1,-1,-1,-1,-1,-1,-1,-1,-1,-1,-1,-1,-1,-1,-1,-1,-1,-1,-1,-1,-1,-1,-1,-1,-1,-1,-1,-1],"loss_changes":[7.896143E3,5.6906367E3,5.5255825E3,1.8107695E3,5.275223E3,1.9966753E3,3.294438E3,1.8657485E3,1.5851921E3,5.0568955E3,1.3282773E3,1.063918E3,1.7238004E3,2.181272E3,1.7182979E3,8.223406E2,1.8139226E3,9.9053955E2,5.39406E2,7.0258887E2,2.637335E3,1.3610488E3,7.652624E2,4.927212E2,8.052378E2,4.006455E3,1.232253E3,1.9910747E3,1.3258196E3,8.892554E2,1.4233533E3,1.1837239E3,3.7003064E2,1.091187E3,7.5906946E2,7.040449E2,7.3733545E2,4.0411444E2,4.958198E2,7.4600195E2,1.9079099E2,1.0425288E3,1.245757E3,8.015617E2,1.2619824E3,1.0476926E3,6.9641235E2,3.091505E2,4.9918677E2,4.7166693E2,1.4694448E3,3.672872E3,8.2392944E2,1.0289886E3,6.858821E2,1.210852E3,1.8485972E3,1.6144865E3,3.3105068E3,9.741636E2,7.156875E2,1.01177246E3,5.781195E2,0E0,0E0,0E0,0E0,0E0,0E0,0E0,0E0,0E0,0E0,0E0,0E0,0E0,0E0,0E0,0E0,0E0,0E0,0E0,0E0,0E0,0E0,0E0,0E0,0E0,0E0,0E0,0E0,0E0,0E0,0E0,0E0,0E0,0E0,0E0,0E0,0E0,0E0,0E0,0E0,0E0,0E0,0E0,0E0,0E0,0E0,0E0,0E0,0E0,0E0,0E0,0E0,0E0,0E0,0E0,0E0,0E0,0E0,0E0,0E0,0E0,0E0,0E0,0E0],"parents":[2147483647,0,0,1,1,2,2,3,3,4,4,5,5,6,6,7,7,8,8,9,9,10,10,11,11,12,12,13,13,14,14,15,15,16,16,17,17,18,18,19,19,20,20,21,21,22,22,23,23,24,24,25,25,26,26,27,27,28,28,29,29,30,30,31,31,32,32,33,33,34,34,35,35,36,36,37,37,38,38,39,39,40,40,41,41,42,42,43,43,44,44,45,45,46,46,47,47,48,48,49,49,50,50,51,51,52,52,53,53,54,54,55,55,56,56,57,57,58,58,59,59,60,60,61,61,62,62],"right_children":[2,4,6,8,10,12,14,16,18,20,22,24,26,28,30,32,34,36,38,40,42,44,46,48,50,52,54,56,58,60,62,64,66,68,70,72,74,76,78,80,82,84,86,88,90,92,94,96,98,100,102,104,106,108,110,112,114,116,118,120,122,124,126,-1,-1,-1,-1,-1,-1,-1,-1,-1,-1,-1,-1,-1,-1,-1,-1,-1,-1,-1,-1,-1,-1,-1,-1,-1,-1,-1,-1,-1,-1,-1,-1,-1,-1,-1,-1,-1,-1,-1,-1,-1,-1,-1,-1,-1,-1,-1,-1,-1,-1,-1,-1,-1,-1,-1,-1,-1,-1,-1,-1,-1,-1,-1,-1],"split_conditions":[-7.214253E-1,2.3941586E0,2.3536082E-1,-2.4985015E0,-1.2923698E0,-2.8180635E0,8.3256334E-1,-1.1084392E0,3.230925E-1,-2.3566694E-3,-1.5851561E-2,5.0299224E-2,-4.4150603E-1,-1.9561179E-1,1.9266363E0,-1.5764912E0,-2.8716712E0,-1.8092108E0,-1.2559617E1,4.105399E0,-3.244247E-1,3.4836102E-1,9.0287834E-2,1.0549171E0,1.643706E0,-1.2559617E1,1.244235E0,3.569578E0,3.1830082E0,1.9590092E0,-1.1255347E0,-9.332008E-2,2.0197621E-1,-2.290838E0,5.275602E0,-4.279682E-1,-1.4034059E1,-1.3094244E0,-2.8180635E0,-1.8092108E0,-7.8853226E-1,3.8263276E0,4.5361614E-1,1.4146515E0,2.3393503E-1,-1.698769E1,6.727795E-1,-2.8062267E0,1.6966697E0,9.3024737E-1,-3.377498E0,8.2813317E-1,3.873025E-1,-5.379582E-1,-1.2559617E1,-1.2559617E1,-1.0697333E0,2.4217415E0,1.0244694E0,2.4558902E0,-1.964171E0,3.569578E0,2.6196053E0,3.7630957E-2,9.58535E-3,1.2031804E-2,-8.554823E-3,5.8923036E-2,1.492995E-2,1.7759238E-3,3.5244875E-2,7.708948E-3,1.1204925E-3,5.5258036E-2,1.2853512E-3,-4.6456147E-2,-9.788357E-3,-1.0851311E-2,-4.506517E-5,1.6767555E-1,9.989206E-2,1.5739295E-1,-6.471022E-2,6.66172E-2,-6.1031472E-2,-5.7954895E-3,6.3110314E-2,5.360519E-3,4.414215E-2,5.358954E-3,2.3762299E-2,-2.2155564E-2,3.285888E-3,5.1069766E-2,-6.1553707E-3,-9.642264E-3,1.2440107E-2,7.2678566E-2,1.2294817E-2,-2.0112328E-3,-1.496339E-2,-8.060246E-2,-1.5548162E-2,1.9684074E-2,1.0470545E-1,1.5726797E-3,2.1909483E-4,7.6367665E-4,-3.0780153E-4,-1.8668437E-2,-1.7081539E-3,2.3393288E-2,-1.612757E-3,-5.41236E-2,-8.6489925E-3,-4.0305342E-4,2.2849904E-3,-1.406692E-3,-3.4825217E-2,-2.7305826E-3,6.7173014E-3,4.2348813E-2,-5.835383E-3,-2.4605291E-2,-7.3102616E-2,-7.971577E-3,-4.090334E-2],"split_indices":[4,58,6,4,52,47,19,8,36,66,20,24,36,68,36,1,1,8,75,7,7,68,17,22,38,75,19,5,1,66,52,61,7,42,76,46,73,35,47,8,15,0,17,16,5,8,23,60,37,52,15,17,25,6,75,75,34,50,61,60,33,5,4,0,0,0,0,0,0,0,0,0,0,0,0,0,0,0,0,0,0,0,0,0,0,0,0,0,0,0,0,0,0,0,0,0,0,0,0,0,0,0,0,0,0,0,0,0,0,0,0,0,0,0,0,0,0,0,0,0,0,0,0,0,0,0,0],"split_type":[0,0,0,0,0,0,0,0,0,0,0,0,0,0,0,0,0,0,0,0,0,0,0,0,0,0,0,0,0,0,0,0,0,0,0,0,0,0,0,0,0,0,0,0,0,0,0,0,0,0,0,0,0,0,0,0,0,0,0,0,0,0,0,0,0,0,0,0,0,0,0,0,0,0,0,0,0,0,0,0,0,0,0,0,0,0,0,0,0,0,0,0,0,0,0,0,0,0,0,0,0,0,0,0,0,0,0,0,0,0,0,0,0,0,0,0,0,0,0,0,0,0,0,0,0,0,0],"sum_hessian":[3.5504456E7,9.015194E6,2.6489262E7,8.837671E6,1.7752394E5,1.6482422E7,1.0006841E7,2.3410053E5,8.60357E6,1.0838699E4,1.6668525E5,6.4899723E4,1.6417522E7,7.960879E6,2.0459615E6,3.4099535E4,2.0000098E5,6.270098E6,2.333472E6,2.133818E3,8.704882E3,9.796178E4,6.872347E4,7.8814214E3,5.70183E4,4.513651E6,1.1903871E7,4.4570075E6,3.5038715E6,2.0203204E6,2.564116E4,1.5182372E4,1.8917164E4,1.8164803E4,1.8183619E5,1.7074942E5,6.0993485E6,5.189349E3,2.3282825E6,2.055679E3,7.8139175E1,3.5079514E3,5.19693E3,5.3830336E4,4.4131445E4,6.639994E4,2.3235286E3,6.4158135E3,1.465608E3,3.31517E4,2.3866602E4,1.1659503E4,4.5019915E6,1.0874878E7,1.0289936E6,4.446977E6,1.0030834E4,3.460046E6,4.382548E4,1.7564118E6,2.639086E5,4.9493257E3,2.0691836E4,8.298406E3,6.8839663E3,1.6400031E4,2.5171335E3,1.5392924E3,1.662551E4,1.80127E5,1.7091814E3,1.044854E5,6.626402E4,6.318528E2,6.098717E6,9.107218E2,4.278627E3,1.0662699E4,2.31762E6,5.6201807E2,1.4936609E3,1.0279774E1,6.78594E1,3.3407083E3,1.672432E2,4.4279536E3,7.689763E2,5.246422E4,1.3661161E3,1.3360673E4,3.0770771E4,4.3278013E3,6.2072137E4,1.5008212E3,8.2270746E2,2.8543425E3,3.561471E3,5.4393506E2,9.216729E2,2.3037178E4,1.0114521E4,9.012239E2,2.2965379E4,1.0209608E4,1.4498939E3,2.326252E6,2.1757392E6,3.15744E6,7.7174375E6,5.9950073E3,1.0229986E6,4.8453535E3,4.4421315E6,3.360123E3,6.6707114E3,2.7596815E6,7.003645E5,3.4379344E4,9.446136E3,1.7286915E6,2.7720281E4,7.7192255E2,2.631367E5,3.3694563E3,1.5798698E3,1.9260979E4,1.4308557E3],"tree_param":{"num_deleted":"0","num_feature":"79","num_nodes":"127","size_leaf_vector":"1"}},{"base_weights":[2.7845297E-7,1.6213685E-2,-1.2610427E-2,1.386407E-2,1.8240228E-1,-6.108252E-3,-4.1789576E-2,3.705613E-2,6.7259064E-3,7.743096E-1,1.447019E-1,4.0766177E-1,-6.4388313E-3,-3.9310843E-2,-2.382668E-1,2.6727518E-1,3.57693E-2,1.4330905E-2,-1.3527392E-2,1.3036101E0,6.65665E-2,1.0622604E-1,3.146543E-1,5.2992295E-2,1.9118893E0,-1.7325754E-1,-5.66563E-3,-2.4235759E-2,-6.763336E-2,-5.176833E-1,-1.3861021E-1,7.3925644E-1,7.190493E-2,1.16180114E-1,3.2913104E-2,1.7218204E-2,-2.6775569E-2,1.21175624E-1,-1.4810196E-2,2.454978E0,9.5301807E-1,9.677997E-1,-9.2763424E-2,6.575826E-2,2.727787E-1,2.2435199E-1,5.833334E-1,-3.2614025E-1,5.1001143E-1,2.2911248E0,4.589177E-1,-8.143669E-2,-3.2695884E-1,7.653933E-3,-1.5342171E-2,2.2212486E-1,-2.502473E-2,-7.469486E-2,1.066061E-2,-1.6373879E0,-4.694867E-1,-3.4183422E-1,-8.518613E-2,3.1749617E-2,9.393837E-2,2.1931806E-1,3.2200527E-3,1.792568E-2,4.443189E-3,2.530538E-3,1.1117912E-3,1.9496962E-3,6.394089E-4,-2.1665762E-3,8.70424E-4,-6.558469E-4,1.805697E-2,-4.9787055E-4,-2.6705519E-3,1.291078E-1,3.6587264E-2,9.875902E-2,3.735034E-2,-3.6886141E-3,7.413948E-2,-9.31134E-3,4.5362514E-2,-1.2666193E-2,4.235487E-3,3.266265E-5,1.740965E-2,9.877225E-3,6.0244482E-2,1.782883E-2,4.9096014E-2,-4.6465173E-3,-4.4895854E-2,4.713629E-2,1.742951E-3,8.9495875E-2,1.5413454E-1,8.972118E-2,-4.9753796E-2,1.3547935E-2,-5.8877985E-3,-7.287136E-2,-1.2961592E-2,7.5747044E-4,-4.5798463E-4,-1.2366379E-3,3.31897E-4,5.888476E-3,8.434104E-2,-9.542812E-4,-2.8167935E-3,-3.3090196E-3,-6.980209E-3,-3.1172408E-4,9.620098E-3,-3.317834E-2,-1.5801717E-1,-1.818661E-2,-4.224938E-2,-1.1080554E-2,-7.591824E-2,-3.5392903E-3,-3.288618E-2],"categories":[],"categories_nodes":[],"categories_segments":[],"categories_sizes":[],"default_left":[0,0,0,0,0,1,0,0,0,0,0,1,0,0,0,0,1,0,1,0,0,0,0,0,1,0,0,0,0,1,0,0,1,0,0,0,0,0,0,0,0,0,0,1,0,0,0,0,0,0,0,0,1,0,0,0,0,0,0,0,0,0,0,0,0,0,0,0,0,0,0,0,0,0,0,0,0,0,0,0,0,0,0,0,0,0,0,0,0,0,0,0,0,0,0,0,0,0,0,0,0,0,0,0,0,0,0,0,0,0,0,0,0,0,0,0,0,0,0,0,0,0,0,0,0,0,0],"id":11,"left_children":[1,3,5,7,9,11,13,15,17,19,21,23,25,27,29,31,33,35,37,39,41,43,45,47,49,51,53,55,57,59,61,63,65,67,69,71,73,75,77,79,81,83,85,87,89,91,93,95,97,99,101,103,105,107,109,111,113,115,117,119,121,123,125,-1,-1,-1,-1,-1,-1,-1,-1,-1,-1,-1,-1,-1,-1,-1,-1,-1,-1,-1,-1,-1,-1,-1,-1,-1,-1,-1,-1,-1,-1,-1,-1,-1,-1,-1,-1,-1,-1,-1,-1,-1,-1,-1,-1,-1,-1,-1,-1,-1,-1,-1,-1,-1,-1,-1,-1,-1,-1,-1,-1,-1,-1,-1,-1],"loss_changes":[7.25933E3,6.065464E3,3.7890686E3,2.5356833E3,4.8323003E3,2.2339233E3,1.7723872E3,1.0679209E3,1.8039644E3,4.8573867E3,1.3312368E3,6.9555977E3,2.1048608E3,1.5344946E3,1.2624766E3,1.8475962E3,8.233032E2,1.0105935E3,5.524801E2,2.9922412E3,7.9692194E2,1.1188693E3,9.1168896E2,1.8283906E3,1.3696172E3,1.0625117E3,2.0935725E3,4.5591003E2,6.9023E2,6.4248096E2,3.628391E2,6.957312E2,4.585477E2,8.139387E2,6.541492E2,7.674883E2,4.087857E2,9.71954E2,5.9326526E2,3.7747754E2,1.1963989E3,4.4733508E2,4.4099203E2,8.076532E2,6.6594775E2,7.391697E2,8.540437E2,7.689988E2,9.837057E2,7.770088E2,1.0040054E3,6.0327466E2,2.1553372E3,8.613991E2,1.9419412E3,1.1442881E3,4.3478174E2,6.328828E2,3.1714148E2,7.2682556E2,4.5355054E2,9.836892E2,2.1816205E2,0E0,0E0,0E0,0E0,0E0,0E0,0E0,0E0,0E0,0E0,0E0,0E0,0E0,0E0,0E0,0E0,0E0,0E0,0E0,0E0,0E0,0E0,0E0,0E0,0E0,0E0,0E0,0E0,0E0,0E0,0E0,0E0,0E0,0E0,0E0,0E0,0E0,0E0,0E0,0E0,0E0,0E0,0E0,0E0,0E0,0E0,0E0,0E0,0E0,0E0,0E0,0E0,0E0,0E0,0E0,0E0,0E0,0E0,0E0,0E0,0E0,0E0,0E0,0E0],"parents":[2147483647,0,0,1,1,2,2,3,3,4,4,5,5,6,6,7,7,8,8,9,9,10,10,11,11,12,12,13,13,14,14,15,15,16,16,17,17,18,18,19,19,20,20,21,21,22,22,23,23,24,24,25,25,26,26,27,27,28,28,29,29,30,30,31,31,32,32,33,33,34,34,35,35,36,36,37,37,38,38,39,39,40,40,41,41,42,42,43,43,44,44,45,45,46,46,47,47,48,48,49,49,50,50,51,51,52,52,53,53,54,54,55,55,56,56,57,57,58,58,59,59,60,60,61,61,62,62],"right_children":[2,4,6,8,10,12,14,16,18,20,22,24,26,28,30,32,34,36,38,40,42,44,46,48,50,52,54,56,58,60,62,64,66,68,70,72,74,76,78,80,82,84,86,88,90,92,94,96,98,100,102,104,106,108,110,112,114,116,118,120,122,124,126,-1,-1,-1,-1,-1,-1,-1,-1,-1,-1,-1,-1,-1,-1,-1,-1,-1,-1,-1,-1,-1,-1,-1,-1,-1,-1,-1,-1,-1,-1,-1,-1,-1,-1,-1,-1,-1,-1,-1,-1,-1,-1,-1,-1,-1,-1,-1,-1,-1,-1,-1,-1,-1,-1,-1,-1,-1,-1,-1,-1,-1,-1,-1,-1],"split_conditions":[-1.6215383E-1,2.3941586E0,8.4683883E-1,-6.755203E-1,-1.2671841E0,-1.2559617E1,1.9266363E0,-2.4494312E0,3.7427744E-1,-1.4675165E0,1.2116688E0,4.5361614E-1,-2.8180635E0,4.1499496E-1,-1.3043046E0,-2.7161396E-1,-2.0396042E0,1.5387603E0,-3.377498E0,9.115451E-2,1.4601381E-1,-1.4388769E-2,1.938955E0,6.267946E-1,2.1212082E0,1.7976286E0,-4.4137914E-2,-1.8005648E0,1.5578864E0,-2.2981017E0,-4.5260373E-1,2.4217415E0,-1.4034059E1,-1.7465564E0,-3.420055E-1,-1.0592937E0,-2.1681824E-1,8.176422E-1,1.3564948E0,5.551704E-1,-2.1452277E0,1.9369473E-1,4.5361614E-1,-1.698769E1,-1.3180551E-1,2.6414485E0,2.3325744E0,2.8433342E0,2.77232E-1,2.7203567E0,1.6931033E0,1.3E1,-3.377498E0,8.227988E-1,-1.1853541E-1,2.9346347E0,1.787133E0,2.032288E0,2.3325744E0,1.7200357E0,2.4509091E0,3.2736204E0,7.4752107E0,3.1749617E-2,9.393837E-2,2.1931806E-1,3.2200527E-3,1.792568E-2,4.443189E-3,2.530538E-3,1.1117912E-3,1.9496962E-3,6.394089E-4,-2.1665762E-3,8.70424E-4,-6.558469E-4,1.805697E-2,-4.9787055E-4,-2.6705519E-3,1.291078E-1,3.6587264E-2,9.875902E-2,3.735034E-2,-3.6886141E-3,7.413948E-2,-9.31134E-3,4.5362514E-2,-1.2666193E-2,4.235487E-3,3.266265E-5,1.740965E-2,9.877225E-3,6.0244482E-2,1.782883E-2,4.9096014E-2,-4.6465173E-3,-4.4895854E-2,4.713629E-2,1.742951E-3,8.9495875E-2,1.5413454E-1,8.972118E-2,-4.9753796E-2,1.3547935E-2,-5.8877985E-3,-7.287136E-2,-1.2961592E-2,7.5747044E-4,-4.5798463E-4,-1.2366379E-3,3.31897E-4,5.888476E-3,8.434104E-2,-9.542812E-4,-2.8167935E-3,-3.3090196E-3,-6.980209E-3,-3.1172408E-4,9.620098E-3,-3.317834E-2,-1.5801717E-1,-1.818661E-2,-4.224938E-2,-1.1080554E-2,-7.591824E-2,-3.5392903E-3,-3.288618E-2],"split_indices":[4,58,19,6,52,75,36,36,36,36,78,17,47,6,8,13,8,19,15,19,66,38,5,34,77,38,6,33,59,77,14,50,73,1,72,56,38,5,36,67,7,74,17,8,5,25,52,7,70,35,41,11,15,25,68,58,66,66,52,32,4,7,24,0,0,0,0,0,0,0,0,0,0,0,0,0,0,0,0,0,0,0,0,0,0,0,0,0,0,0,0,0,0,0,0,0,0,0,0,0,0,0,0,0,0,0,0,0,0,0,0,0,0,0,0,0,0,0,0,0,0,0,0,0,0,0,0],"split_type":[0,0,0,0,0,0,0,0,0,0,0,0,0,0,0,0,0,0,0,0,0,0,0,0,0,0,0,0,0,0,0,0,0,0,0,0,0,0,0,0,0,0,0,0,0,0,0,0,0,0,0,0,0,0,0,0,0,0,0,0,0,0,0,0,0,0,0,0,0,0,0,0,0,0,0,0,0,0,0,0,0,0,0,0,0,0,0,0,0,0,0,0,0,0,0,0,0,0,0,0,0,0,0,0,0,0,0,0,0,0,0,0,0,0,0,0,0,0,0,0,0,0,0,0,0,0,0],"sum_hessian":[3.5504456E7,1.5533393E7,1.9971064E7,1.5316841E7,2.165521E5,1.6331756E7,3.6393078E6,3.6047902E6,1.171205E7,1.2965792E4,2.035863E5,1.3036773E4,1.631872E7,3.593968E6,4.5339875E4,2.0036166E4,3.584754E6,8.514794E6,3.1972565E6,7.417567E3,5.548225E3,1.660056E5,3.7580703E4,1.0550251E4,2.4865217E3,7.528697E4,1.6243433E7,2.3455278E6,1.2484402E6,1.1918543E4,3.3421332E4,5.864866E3,1.4171301E4,1.2296155E5,3.4617925E6,7.9559705E6,5.588231E5,3.0160012E4,3.1670965E6,1.7300295E3,5.6875376E3,8.327555E2,4.715469E3,1.335564E5,3.2449191E4,2.8128598E4,9.452108E3,5.7666543E3,4.783597E3,1.9713971E3,5.1512476E2,4.713196E4,2.815501E4,6.835082E6,9.408351E6,7.4867017E3,2.338041E6,1.1451562E6,1.0328397E5,4.9049042E2,1.1428052E4,6.9558887E3,2.6465443E4,5.3746484E3,4.9021777E2,2.359133E1,1.4147709E4,1.2455142E4,1.1050641E5,1.3026458E6,2.1591468E6,1.3449392E6,6.6110315E6,4.0650425E5,1.5231889E5,1.933845E4,1.08215625E4,2.8134048E6,3.5369184E5,1.6106613E3,1.19368225E2,9.5257513E2,4.7349624E3,2.7580133E2,5.569541E2,4.3131655E3,4.0230365E2,7.486995E3,1.2606941E5,7.0415254E3,2.5407666E4,2.7381207E4,7.473892E2,6.0258726E3,3.4262354E3,4.096843E3,1.6698118E3,2.5030876E3,2.2805095E3,1.2090846E3,7.6231244E2,2.6838065E2,2.4674413E2,4.403137E3,4.2728824E4,1.590279E3,2.656473E4,4.7275505E6,2.107531E6,6.592031E6,2.81632E6,