{"learner":{"attributes":{"best_iteration":"222","best_score":"0.7904157636204914"},"feature_names":["feature_00","feature_01","feature_02","feature_03","feature_04","feature_05","feature_06","feature_07","feature_08","feature_09","feature_10","feature_11","feature_12","feature_13","feature_14","feature_15","feature_16","feature_17","feature_18","feature_19","feature_20","feature_21","feature_22","feature_23","feature_24","feature_25","feature_26","feature_27","feature_28","feature_29","feature_30","feature_31","feature_32","feature_33","feature_34","feature_35","feature_36","feature_37","feature_38","feature_39","feature_40","feature_41","feature_42","feature_43","feature_44","feature_45","feature_46","feature_47","feature_48","feature_49","feature_50","feature_51","feature_52","feature_53","feature_54","feature_55","feature_56","feature_57","feature_58","feature_59","feature_60","feature_61","feature_62","feature_63","feature_64","feature_65","feature_66","feature_67","feature_68","feature_69","feature_70","feature_71","feature_72","feature_73","feature_74","feature_75","feature_76","feature_77","feature_78"],"feature_types":["float","float","float","float","float","float","float","float","float","int","int","int","float","float","float","float","float","float","float","float","float","float","float","float","float","float","float","float","float","float","float","float","float","float","float","float","float","float","float","float","float","float","float","float","float","float","float","float","float","float","float","float","float","float","float","float","float","float","float","float","float","float","float","float","float","float","float","float","float","float","float","float","float","float","float","float","float","float","float"],"gradient_booster":{"model":{"gbtree_model_param":{"num_parallel_tree":"1","num_trees":"323"},"iteration_indptr":[0,1,2,3,4,5,6,7,8,9,10,11,12,13,14,15,16,17,18,19,20,21,22,23,24,25,26,27,28,29,30,31,32,33,34,35,36,37,38,39,40,41,42,43,44,45,46,47,48,49,50,51,52,53,54,55,56,57,58,59,60,61,62,63,64,65,66,67,68,69,70,71,72,73,74,75,76,77,78,79,80,81,82,83,84,85,86,87,88,89,90,91,92,93,94,95,96,97,98,99,100,101,102,103,104,105,106,107,108,109,110,111,112,113,114,115,116,117,118,119,120,121,122,123,124,125,126,127,128,129,130,131,132,133,134,135,136,137,138,139,140,141,142,143,144,145,146,147,148,149,150,151,152,153,154,155,156,157,158,159,160,161,162,163,164,165,166,167,168,169,170,171,172,173,174,175,176,177,178,179,180,181,182,183,184,185,186,187,188,189,190,191,192,193,194,195,196,197,198,199,200,201,202,203,204,205,206,207,208,209,210,211,212,213,214,215,216,217,218,219,220,221,222,223,224,225,226,227,228,229,230,231,232,233,234,235,236,237,238,239,240,241,242,243,244,245,246,247,248,249,250,251,252,253,254,255,256,257,258,259,260,261,262,263,264,265,266,267,268,269,270,271,272,273,274,275,276,277,278,279,280,281,282,283,284,285,286,287,288,289,290,291,292,293,294,295,296,297,298,299,300,301,302,303,304,305,306,307,308,309,310,311,312,313,314,315,316,317,318,319,320,321,322,323],"tree_info":[0,0,0,0,0,0,0,0,0,0,0,0,0,0,0,0,0,0,0,0,0,0,0,0,0,0,0,0,0,0,0,0,0,0,0,0,0,0,0,0,0,0,0,0,0,0,0,0,0,0,0,0,0,0,0,0,0,0,0,0,0,0,0,0,0,0,0,0,0,0,0,0,0,0,0,0,0,0,0,0,0,0,0,0,0,0,0,0,0,0,0,0,0,0,0,0,0,0,0,0,0,0,0,0,0,0,0,0,0,0,0,0,0,0,0,0,0,0,0,0,0,0,0,0,0,0,0,0,0,0,0,0,0,0,0,0,0,0,0,0,0,0,0,0,0,0,0,0,0,0,0,0,0,0,0,0,0,0,0,0,0,0,0,0,0,0,0,0,0,0,0,0,0,0,0,0,0,0,0,0,0,0,0,0,0,0,0,0,0,0,0,0,0,0,0,0,0,0,0,0,0,0,0,0,0,0,0,0,0,0,0,0,0,0,0,0,0,0,0,0,0,0,0,0,0,0,0,0,0,0,0,0,0,0,0,0,0,0,0,0,0,0,0,0,0,0,0,0,0,0,0,0,0,0,0,0,0,0,0,0,0,0,0,0,0,0,0,0,0,0,0,0,0,0,0,0,0,0,0,0,0,0,0,0,0,0,0,0,0,0,0,0,0,0,0,0,0,0,0,0,0,0,0,0,0,0,0,0,0,0,0,0,0,0,0,0,0,0,0,0,0,0,0],"trees":[{"base_weights":[1.5927366E-9,2.7302861E-2,-2.4091613E-2,6.324434E-1,2.5791151E-2,-5.243044E-4,-4.359192E-2,1.8579783E0,5.3216618E-2,4.9241286E-2,8.787959E-3,7.560509E-1,-2.3451187E-3,1.2791367E-1,-4.8087224E-2,1.3499736E0,3.0437243E0,-9.369862E-3,2.4811566E0,4.6037514E-2,2.4616607E-1,2.5920203E-2,-5.305384E-3,5.0807863E-1,3.2941384E0,-4.4097835E-3,1.9693388E-1,1.4681967E-1,-9.174993E-1,-5.9320295E-1,-4.701843E-2,2.4168305E0,9.504565E-1,3.6747584E0,1.2277107E0,3.0460227E-1,-3.6417386E-1,3.1527803E0,-1.1622003E0,1.5512496E-1,4.2112134E-2,1.9539687E-1,5.921679E-1,2.8815517E-2,-9.440039E-2,-2.0270006E-1,-4.160297E-3,1.2353678E0,1.3130368E-1,3.943628E0,1.7819297E0,3.2165024E-2,-1.6429592E-2,1.2971187E-1,3.6889005E-1,7.191742E-2,2.6702824E-1,-3.5431954E-1,-2.3880725E0,-1.610881E-1,-8.7019E-1,-4.010677E-2,-1.1060987E-1,1.0152759E-1,1.6723172E-1,6.082656E-2,2.7411182E-3,8.994934E-2,2.058583E-1,9.012948E-2,-3.205945E-2,7.46962E-3,4.5084935E-2,-3.346133E-2,-1.8419493E-3,1.6396344E-1,-8.427186E-2,-2.3557313E-1,-1.8503528E-2,1.3775088E-2,5.4076933E-3,2.8960723E-3,1.3802602E-3,8.4532825E-3,2.6934862E-2,7.541297E-2,2.3910187E-2,1.13278E-3,4.163613E-3,-8.140507E-3,9.3280425E-4,1.3759938E-2,-1.3822018E-2,-3.7105908E-6,-2.959594E-3,9.377109E-2,3.2904606E-2,1.590155E-2,-2.1770243E-2,2.0899554E-1,8.1252426E-2,1.197347E-1,6.625025E-3,8.0710294E-4,3.5182429E-3,-4.8532645E-4,-4.140656E-3,7.1394965E-3,-3.902514E-2,5.594141E-2,1.6745992E-2,-2.7614602E-5,8.524113E-3,1.2296088E-2,5.0213505E-2,8.798799E-2,-2.3121286E-2,-2.173066E-1,-9.105256E-2,-1.1547851E-2,7.952016E-2,-5.883644E-2,-2.7336476E-2,-7.935812E-4,-2.6031893E-3,-8.593691E-3,-4.6693413E-3],"categories":[],"categories_nodes":[],"categories_segments":[],"categories_sizes":[],"default_left":[0,1,0,0,0,1,1,0,1,0,0,1,0,0,1,0,0,0,0,1,1,0,0,0,1,0,0,0,0,0,0,0,0,0,0,1,0,0,0,0,0,0,0,0,0,0,0,1,0,0,0,0,0,0,0,0,0,0,0,0,0,0,0,0,0,0,0,0,0,0,0,0,0,0,0,0,0,0,0,0,0,0,0,0,0,0,0,0,0,0,0,0,0,0,0,0,0,0,0,0,0,0,0,0,0,0,0,0,0,0,0,0,0,0,0,0,0,0,0,0,0,0,0,0,0,0,0],"id":0,"left_children":[1,3,5,7,9,11,13,15,17,19,21,23,25,27,29,31,33,35,37,39,41,43,45,47,49,51,53,55,57,59,61,63,65,67,69,71,73,75,77,79,81,83,85,87,89,91,93,95,97,99,101,103,105,107,109,111,113,115,117,119,121,123,125,-1,-1,-1,-1,-1,-1,-1,-1,-1,-1,-1,-1,-1,-1,-1,-1,-1,-1,-1,-1,-1,-1,-1,-1,-1,-1,-1,-1,-1,-1,-1,-1,-1,-1,-1,-1,-1,-1,-1,-1,-1,-1,-1,-1,-1,-1,-1,-1,-1,-1,-1,-1,-1,-1,-1,-1,-1,-1,-1,-1,-1,-1,-1,-1],"loss_changes":[2.2692031E4,1.4793577E4,8.422529E3,2.8605533E4,6.431927E3,1.1431403E4,7.731926E3,7.786375E3,4.158342E3,4.277619E3,2.2577964E3,1.2537275E4,3.4060347E3,5.0628345E3,5.6936875E3,3.8575938E3,4.4398164E3,2.9720637E3,1.6864116E3,2.8568555E3,1.9065381E3,1.4702678E3,1.159668E3,4.9735996E3,1.7343926E3,3.6019788E3,9.812002E2,2.2653677E3,3.7676614E3,2.2887476E3,4.2869023E3,8.772383E2,1.5704316E3,2.3806133E3,1.0772701E3,1.3116134E3,1.2506825E3,3.610371E2,3.0124567E2,1.3102354E3,1.476957E3,8.555349E2,1.4492021E3,1.3824814E3,7.670171E2,1.042853E3,1.1470111E3,2.2873936E3,1.2655068E3,6.722578E2,5.399492E2,1.2404373E3,2.7522178E3,7.26626E2,6.074153E2,1.1072574E3,1.5027212E3,7.530442E2,1.3908672E3,9.146491E2,1.1548154E3,2.5493066E3,1.0088916E3,0E0,0E0,0E0,0E0,0E0,0E0,0E0,0E0,0E0,0E0,0E0,0E0,0E0,0E0,0E0,0E0,0E0,0E0,0E0,0E0,0E0,0E0,0E0,0E0,0E0,0E0,0E0,0E0,0E0,0E0,0E0,0E0,0E0,0E0,0E0,0E0,0E0,0E0,0E0,0E0,0E0,0E0,0E0,0E0,0E0,0E0,0E0,0E0,0E0,0E0,0E0,0E0,0E0,0E0,0E0,0E0,0E0,0E0,0E0,0E0,0E0,0E0,0E0,0E0],"parents":[2147483647,0,0,1,1,2,2,3,3,4,4,5,5,6,6,7,7,8,8,9,9,10,10,11,11,12,12,13,13,14,14,15,15,16,16,17,17,18,18,19,19,20,20,21,21,22,22,23,23,24,24,25,25,26,26,27,27,28,28,29,29,30,30,31,31,32,32,33,33,34,34,35,35,36,36,37,37,38,38,39,39,40,40,41,41,42,42,43,43,44,44,45,45,46,46,47,47,48,48,49,49,50,50,51,51,52,52,53,53,54,54,55,55,56,56,57,57,58,58,59,59,60,60,61,61,62,62],"right_children":[2,4,6,8,10,12,14,16,18,20,22,24,26,28,30,32,34,36,38,40,42,44,46,48,50,52,54,56,58,60,62,64,66,68,70,72,74,76,78,80,82,84,86,88,90,92,94,96,98,100,102,104,106,108,110,112,114,116,118,120,122,124,126,-1,-1,-1,-1,-1,-1,-1,-1,-1,-1,-1,-1,-1,-1,-1,-1,-1,-1,-1,-1,-1,-1,-1,-1,-1,-1,-1,-1,-1,-1,-1,-1,-1,-1,-1,-1,-1,-1,-1,-1,-1,-1,-1,-1,-1,-1,-1,-1,-1,-1,-1,-1,-1,-1,-1,-1,-1,-1,-1,-1,-1,-1,-1,-1],"split_conditions":[-5.8932263E-2,-1.2559617E1,-3.932075E-2,-2.2323174E0,-4.4879848E-1,-1.2559617E1,-3.377498E0,1.6660409E-1,1.6450562E0,2.1931014E0,-7.211501E-2,1.0005926E0,2.589204E0,1.1179872E0,-1.2559617E1,-1.5264814E0,-8.1971693E-1,5.3462505E-1,-1.009466E0,-1.7917621E0,6.1356026E-1,1.6635154E0,-3.719116E0,-2.4905603E0,-1.3823583E0,-7.570171E-1,3.394251E0,2.024428E-1,3.2047327E0,1.5571545E0,1.2279805E0,1.6515228E0,-1.0984213E0,2.4858704E0,-3.2130313E-1,2.5195312E0,1.2945968E0,1.3109252E0,-1.6174544E-1,-2.1522748E0,-2.304749E-1,3.2503765E0,-2.7733068E0,-1.8752721E-1,-4.0323887E-2,9E0,1.3532537E0,-1.6611686E0,1.8518199E0,-7.7888775E-1,-3.19125E-1,4.4547454E-2,1.4404376E0,2.8916988E0,-2.7733068E0,1.9945136E-1,6.917822E-1,-1.821985E0,-6.992977E-1,6.8764585E-1,-3.310657E-3,-1.6148128E-1,-9.074526E-1,1.0152759E-1,1.6723172E-1,6.082656E-2,2.7411182E-3,8.994934E-2,2.058583E-1,9.012948E-2,-3.205945E-2,7.46962E-3,4.5084935E-2,-3.346133E-2,-1.8419493E-3,1.6396344E-1,-8.427186E-2,-2.3557313E-1,-1.8503528E-2,1.3775088E-2,5.4076933E-3,2.8960723E-3,1.3802602E-3,8.4532825E-3,2.6934862E-2,7.541297E-2,2.3910187E-2,1.13278E-3,4.163613E-3,-8.140507E-3,9.3280425E-4,1.3759938E-2,-1.3822018E-2,-3.7105908E-6,-2.959594E-3,9.377109E-2,3.2904606E-2,1.590155E-2,-2.1770243E-2,2.0899554E-1,8.1252426E-2,1.197347E-1,6.625025E-3,8.0710294E-4,3.5182429E-3,-4.8532645E-4,-4.140656E-3,7.1394965E-3,-3.902514E-2,5.594141E-2,1.6745992E-2,-2.7614602E-5,8.524113E-3,1.2296088E-2,5.0213505E-2,8.798799E-2,-2.3121286E-2,-2.173066E-1,-9.105256E-2,-1.1547851E-2,7.952016E-2,-5.883644E-2,-2.7336476E-2,-7.935812E-4,-2.6031893E-3,-8.593691E-3,-4.6693413E-3],"split_indices":[6,75,36,36,4,75,15,17,15,58,36,15,60,38,75,7,52,7,52,8,74,72,60,36,42,56,59,5,1,7,19,8,52,50,29,58,60,31,31,7,36,60,4,29,7,9,19,42,7,52,30,68,19,4,4,69,8,4,23,15,59,4,8,0,0,0,0,0,0,0,0,0,0,0,0,0,0,0,0,0,0,0,0,0,0,0,0,0,0,0,0,0,0,0,0,0,0,0,0,0,0,0,0,0,0,0,0,0,0,0,0,0,0,0,0,0,0,0,0,0,0,0,0,0,0,0,0],"split_type":[0,0,0,0,0,0,0,0,0,0,0,0,0,0,0,0,0,0,0,0,0,0,0,0,0,0,0,0,0,0,0,0,0,0,0,0,0,0,0,0,0,0,0,0,0,0,0,0,0,0,0,0,0,0,0,0,0,0,0,0,0,0,0,0,0,0,0,0,0,0,0,0,0,0,0,0,0,0,0,0,0,0,0,0,0,0,0,0,0,0,0,0,0,0,0,0,0,0,0,0,0,0,0,0,0,0,0,0,0,0,0,0,0,0,0,0,0,0,0,0,0,0,0,0,0,0,0],"sum_hessian":[3.4498428E7,1.6171444E7,1.8326986E7,4.029641E4,1.6131148E7,8.298158E6,1.0028827E7,1.2932167E4,2.7364242E4,6.7801835E6,9.350964E6,1.9921848E4,8.278236E6,2.5614912E5,9.772678E6,9.054934E3,3.8772336E3,2.6677555E4,6.866874E2,6.671644E6,1.0853981E5,4.2204595E6,5.1305045E6,1.8149805E4,1.7720438E3,8.1933485E6,8.488763E4,2.5159986E5,4.5492544E3,1.9122428E4,9.753556E6,2.4656626E3,6.589271E3,2.8766296E3,1.000604E3,1.4153247E4,1.2524309E4,5.7991864E2,1.06768745E2,2.3173092E5,6.439913E6,9.465287E4,1.3886945E4,4.1212885E6,9.917119E4,2.9589393E4,5.1009155E6,6.1930576E3,1.1956746E4,1.2385024E3,5.335414E2,2.0266124E6,6.166736E6,6.1030875E4,2.385676E4,1.5501269E5,9.658717E4,3.290388E3,1.2588663E3,7.4701587E3,1.1652269E4,8.797383E6,9.56173E5,1.7431244E3,7.225384E2,5.0798057E3,1.5094651E3,5.499505E2,2.3266792E3,7.6524725E2,2.3535674E2,1.1234254E4,2.9189932E3,6.4822603E3,6.042048E3,5.6545776E2,1.4460891E1,1.857823E1,8.819051E1,6.5040707E4,1.6669022E5,3.0816265E6,3.3582865E6,8.791152E4,6.7413457E3,1.535082E3,1.2351863E4,3.7024808E6,4.1880772E5,6.1785027E4,3.738616E4,3.9549932E3,2.56344E4,4.748352E6,3.5256328E5,2.9357725E3,3.2572852E3,8.993783E3,2.9629634E3,1.1232329E3,1.1526951E2,3.886907E2,1.4485068E2,1.4277445E6,5.988679E5,5.599629E6,5.671072E5,6.0167227E4,8.6364667E2,1.0324349E3,2.2824324E4,8.933224E4,6.568045E4,9.390024E4,2.6869353E3,1.5932948E2,3.1310586E3,2.8118896E2,9.776773E2,7.1844316E3,2.8572687E2,5.98127E3,5.670999E3,2.906443E6,5.89094E6,2.0981892E5,7.4635406E5],"tree_param":{"num_deleted":"0","num_feature":"79","num_nodes":"127","size_leaf_vector":"1"}},{"base_weights":[3.293256E-8,2.6144067E-2,-2.2710413E-2,6.0171443E-1,2.4699995E-2,3.5016576E-3,-3.898575E-2,1.7650594E0,5.095646E-2,4.491214E-2,6.736282E-3,9.538018E-2,-1.8279366E-3,4.4230786E-1,-4.0252242E-2,1.4165261E0,3.3465219E0,-8.624995E-3,2.3565361E0,4.2095363E-2,2.3033018E-1,9.195179E-3,-8.578905E-2,1.1302392E-1,-7.0936865E-1,1.4139577E-2,-2.507096E-2,1.5366632E0,1.3358328E-1,-4.6314266E-2,4.4353496E-2,1.7295605E0,-1.2501354E-3,3.8621953E0,1.9252313E0,3.0742708E-1,-3.4755436E-1,2.9965305E0,-1.106448E0,1.418032E-1,3.8679603E-2,1.8193935E-1,5.4267555E-1,3.5011414E-2,1.7969117E-4,-1.595724E-1,2.7085494E-2,5.296548E-2,2.30555E-1,-3.0904686E-1,-2.1815073E0,3.66199E0,1.404255E-2,-3.906855E-2,-8.289152E-3,2.9051523E0,1.106393E0,7.834631E-1,7.050931E-2,-3.1574845E-2,-8.156708E-2,2.021611E-2,1.628218E-1,5.776109E-2,1.4124547E-1,8.668595E-3,-3.8430925E-2,2.0703438E-1,1.1705511E-1,1.1893823E-1,-8.774812E-3,9.510366E-3,4.510792E-2,-9.802814E-3,-4.182365E-2,1.18926995E-1,1.9838591E-1,-1.338439E-1,2.8552765E-2,1.2817713E-2,4.772799E-3,2.5953108E-3,1.1377354E-3,2.2382082E-2,7.555131E-3,5.3879935E-2,1.8929232E-2,1.3332296E-3,4.6832045E-3,2.4201359E-4,-2.3863588E-3,-6.3426117E-3,-1.5582959E-2,-4.5035963E-4,8.129339E-3,-2.4918753E-3,6.2056766E-3,1.8058021E-1,1.1379427E-2,-1.9415816E-3,-4.1398063E-2,-1.8447575E-1,-8.893447E-2,3.8550403E-2,2.3553944E-1,1.9975528E-3,2.1219734E-4,-1.3189908E-3,-2.8780643E-3,-1.9428738E-4,-8.310772E-3,1.6294426E-1,2.022924E-2,4.2399164E-2,1.4323016E-1,2.0091567E-2,8.803309E-2,5.4407385E-3,-3.908582E-2,-1.2178835E-3,-4.6505746E-3,-3.2448355E-2,-3.9296164E-3,1.3215395E-2,7.3051493E-4,-4.4913692E-3,1.0338567E-2],"categories":[],"categories_nodes":[],"categories_segments":[],"categories_sizes":[],"default_left":[0,1,1,0,0,1,0,0,1,0,0,0,0,1,0,0,0,0,0,1,1,0,0,0,0,0,0,0,1,0,0,0,0,1,0,1,0,0,0,0,0,0,0,0,0,0,0,0,1,0,0,0,0,0,0,0,1,0,0,0,1,0,1,0,0,0,0,0,0,0,0,0,0,0,0,0,0,0,0,0,0,0,0,0,0,0,0,0,0,0,0,0,0,0,0,0,0,0,0,0,0,0,0,0,0,0,0,0,0,0,0,0,0,0,0,0,0,0,0,0,0,0,0,0,0,0,0],"id":1,"left_children":[1,3,5,7,9,11,13,15,17,19,21,23,25,27,29,31,33,35,37,39,41,43,45,47,49,51,53,55,57,59,61,63,65,67,69,71,73,75,77,79,81,83,85,87,89,91,93,95,97,99,101,103,105,107,109,111,113,115,117,119,121,123,125,-1,-1,-1,-1,-1,-1,-1,-1,-1,-1,-1,-1,-1,-1,-1,-1,-1,-1,-1,-1,-1,-1,-1,-1,-1,-1,-1,-1,-1,-1,-1,-1,-1,-1,-1,-1,-1,-1,-1,-1,-1,-1,-1,-1,-1,-1,-1,-1,-1,-1,-1,-1,-1,-1,-1,-1,-1,-1,-1,-1,-1,-1,-1,-1],"loss_changes":[2.0483191E4,1.3329296E4,7.875876E3,2.5715195E4,5.8081904E3,3.4629446E3,6.9426094E3,7.1032734E3,3.7419985E3,3.9313662E3,1.9268912E3,5.505368E3,2.4807266E3,1.0099084E4,5.8261914E3,4.690494E3,1.6988574E3,2.844657E3,1.524176E3,2.5252666E3,1.7024111E3,1.9202041E3,1.8259983E3,2.6781562E3,4.9016914E3,1.4023481E3,6.3940393E2,3.8695977E3,9.556869E2,5.5079316E3,2.1718213E3,5.4429824E3,2.5639935E2,7.1353125E2,5.928286E2,9.5782605E2,9.4898645E2,3.3833984E2,2.8543488E2,1.3038716E3,1.5100391E3,7.9904395E2,1.3258457E3,1.0454121E3,1.3652783E3,6.597451E2,4.2386298E2,1.8366187E3,1.2861118E3,9.1717346E2,1.073668E3,3.1589514E2,1.00585156E3,3.4824072E2,8.608348E2,1.3897734E3,2.2717876E3,7.685167E2,6.939373E2,3.3143628E3,5.2750547E3,8.633522E2,1.4274575E3,0E0,0E0,0E0,0E0,0E0,0E0,0E0,0E0,0E0,0E0,0E0,0E0,0E0,0E0,0E0,0E0,0E0,0E0,0E0,0E0,0E0,0E0,0E0,0E0,0E0,0E0,0E0,0E0,0E0,0E0,0E0,0E0,0E0,0E0,0E0,0E0,0E0,0E0,0E0,0E0,0E0,0E0,0E0,0E0,0E0,0E0,0E0,0E0,0E0,0E0,0E0,0E0,0E0,0E0,0E0,0E0,0E0,0E0,0E0,0E0,0E0,0E0,0E0,0E0],"parents":[2147483647,0,0,1,1,2,2,3,3,4,4,5,5,6,6,7,7,8,8,9,9,10,10,11,11,12,12,13,13,14,14,15,15,16,16,17,17,18,18,19,19,20,20,21,21,22,22,23,23,24,24,25,25,26,26,27,27,28,28,29,29,30,30,31,31,32,32,33,33,34,34,35,35,36,36,37,37,38,38,39,39,40,40,41,41,42,42,43,43,44,44,45,45,46,46,47,47,48,48,49,49,50,50,51,51,52,52,53,53,54,54,55,55,56,56,57,57,58,58,59,59,60,60,61,61,62,62],"right_children":[2,4,6,8,10,12,14,16,18,20,22,24,26,28,30,32,34,36,38,40,42,44,46,48,50,52,54,56,58,60,62,64,66,68,70,72,74,76,78,80,82,84,86,88,90,92,94,96,98,100,102,104,106,108,110,112,114,116,118,120,122,124,126,-1,-1,-1,-1,-1,-1,-1,-1,-1,-1,-1,-1,-1,-1,-1,-1,-1,-1,-1,-1,-1,-1,-1,-1,-1,-1,-1,-1,-1,-1,-1,-1,-1,-1,-1,-1,-1,-1,-1,-1,-1,-1,-1,-1,-1,-1,-1,-1,-1,-1,-1,-1,-1,-1,-1,-1,-1,-1,-1,-1,-1,-1,-1,-1],"split_conditions":[-6.525043E-2,-1.2559617E1,-2.641122E-1,-2.2323174E0,-2.9661697E-1,-3.377498E0,-2.4905603E0,1.5573767E0,1.6450562E0,2.1931014E0,1.6635154E0,1.0928193E0,2.0022064E-1,-1.2559617E1,1.4200587E0,-9.026292E-1,-9.9846876E-1,1.425752E0,-1.009466E0,-1.7917621E0,5.847686E-1,-4.921576E-1,2.410878E-2,2.2594339E-1,3.2047327E0,-1.6696385E0,-1.8911824E-1,-2.1352887E0,-1.7868853E1,5.0448865E-1,2.589204E0,2.4858704E0,3.0932183E0,-1.1856997E0,-3.9255524E-1,2.0286644E-1,2.7658246E0,4.9E1,1.58E2,-2.0371602E0,-8.0419675E-2,-2.061541E0,-2.3409994E0,-1.8752721E-1,1.2279805E0,3.6296718E0,1.6893272E0,-4.3215398E-2,-1.2559617E1,1.7783693E0,-6.992977E-1,6.8764585E-1,-3.3684197E-1,4.2161295E-1,2.4882793E0,-3.2821506E-1,6.8764585E-1,3.2503765E0,2.8916988E0,1.4404376E0,-1.2559617E1,-2.1912293E0,-2.2835488E0,5.776109E-2,1.4124547E-1,8.668595E-3,-3.8430925E-2,2.0703438E-1,1.1705511E-1,1.1893823E-1,-8.774812E-3,9.510366E-3,4.510792E-2,-9.802814E-3,-4.182365E-2,1.18926995E-1,1.9838591E-1,-1.338439E-1,2.8552765E-2,1.2817713E-2,4.772799E-3,2.5953108E-3,1.1377354E-3,2.2382082E-2,7.555131E-3,5.3879935E-2,1.8929232E-2,1.3332296E-3,4.6832045E-3,2.4201359E-4,-2.3863588E-3,-6.3426117E-3,-1.5582959E-2,-4.5035963E-4,8.129339E-3,-2.4918753E-3,6.2056766E-3,1.8058021E-1,1.1379427E-2,-1.9415816E-3,-4.1398063E-2,-1.8447575E-1,-8.893447E-2,3.8550403E-2,2.3553944E-1,1.9975528E-3,2.1219734E-4,-1.3189908E-3,-2.8780643E-3,-1.9428738E-4,-8.310772E-3,1.6294426E-1,2.022924E-2,4.2399164E-2,1.4323016E-1,2.0091567E-2,8.803309E-2,5.4407385E-3,-3.908582E-2,-1.2178835E-3,-4.6505746E-3,-3.2448355E-2,-3.9296164E-3,1.3215395E-2,7.3051493E-4,-4.4913692E-3,1.0338567E-2],"split_indices":[6,75,45,36,4,15,36,17,15,58,72,38,36,75,59,52,52,36,52,8,74,36,7,5,1,37,13,33,8,36,60,50,7,42,29,73,7,9,11,7,36,1,4,29,19,72,7,69,75,24,23,15,49,6,37,52,15,60,4,19,75,4,8,0,0,0,0,0,0,0,0,0,0,0,0,0,0,0,0,0,0,0,0,0,0,0,0,0,0,0,0,0,0,0,0,0,0,0,0,0,0,0,0,0,0,0,0,0,0,0,0,0,0,0,0,0,0,0,0,0,0,0,0,0,0,0,0],"split_type":[0,0,0,0,0,0,0,0,0,0,0,0,0,0,0,0,0,0,0,0,0,0,0,0,0,0,0,0,0,0,0,0,0,0,0,0,0,0,0,0,0,0,0,0,0,0,0,0,0,0,0,0,0,0,0,0,0,0,0,0,0,0,0,0,0,0,0,0,0,0,0,0,0,0,0,0,0,0,0,0,0,0,0,0,0,0,0,0,0,0,0,0,0,0,0,0,0,0,0,0,0,0,0,0,0,0,0,0,0,0,0,0,0,0,0,0,0,0,0,0,0,0,0,0,0,0,0],"sum_hessian":[3.4498428E7,1.6036906E7,1.8461524E7,4.0133883E4,1.5996772E7,7.0719195E6,1.1389604E7,1.2894699E4,2.7239184E4,7.5273075E6,8.469465E6,3.8772866E5,6.684191E6,2.9891428E4,1.1359712E7,1.056763E4,2.3270696E3,2.6553965E4,6.85219E2,7.4146685E6,1.12638734E5,8.2502135E6,2.1925175E5,3.7941112E5,8.317551E3,3.962221E6,2.72197E6,6.5762407E3,2.3315188E4,1.0600205E7,7.595069E5,8.656188E3,1.9114418E3,1.706279E3,6.2079065E2,1.37407705E4,1.2813194E4,5.7845026E2,1.06768745E2,2.455943E5,7.169074E6,9.753022E4,1.5108516E4,2.1354002E6,6.114813E6,1.3258425E5,8.666751E4,2.5110022E5,1.2831089E5,6.540256E3,1.7772955E3,1.04382935E2,3.9621168E6,1.484095E6,1.237875E6,1.5716862E3,5.0045547E3,2.0616497E3,2.1253537E4,7.4749035E6,3.125302E6,6.30954E5,1.2855289E5,5.6799824E3,2.9762058E3,1.5577377E3,3.5370407E2,1.4407709E3,2.6550818E2,5.104545E2,1.1033615E2,1.1479513E4,2.2612578E3,9.783152E3,3.0300413E3,3.556136E2,2.2283667E2,5.483658E1,5.1932167E1,7.074285E4,1.7485145E5,3.9163235E6,3.2527508E6,1.0140642E4,8.738957E4,3.54536E3,1.1563155E4,1.8693725E6,2.6602775E5,5.5726805E6,5.4213275E5,1.0911166E5,2.3472588E4,6.84388E4,1.822871E4,1.0270311E5,1.4839711E5,1.1141199E2,1.2819948E5,4.301436E3,2.2388198E3,3.729488E2,1.4043468E3,2.824942E1,7.613352E1,1.0872674E6,2.8748492E6,8.801708E5,6.039242E5,1.204297E6,3.357798E4,1.3766418E3,1.950443E2,4.3645635E3,6.399913E2,1.4836437E3,5.780059E2,2.034017E4,9.133685E2,6.689112E6,7.857915E5,1.629864E4,3.1090035E6,1.4164134E4,6.167899E5,1.904862E4,1.0950427E5],"tree_param":{"num_deleted":"0","num_feature":"79","num_nodes":"127","size_leaf_vector":"1"}},{"base_weights":[7.4171865E-8,2.8578822E-2,-1.8928818E-2,5.974562E-1,2.7044492E-2,5.717841E-3,-3.4499265E-2,1.6958922E0,5.9946716E-2,4.7698632E-2,1.0401971E-2,7.023358E-1,3.8474072E-3,1.1466453E-1,-3.781226E-2,1.2358232E0,2.7668054E0,-8.217896E-3,1.8543228E0,4.4968348E-2,2.4528089E-1,1.2707205E-2,-9.1690876E-2,4.7197166E-1,3.029964E0,1.9597982E-3,1.9185239E-1,1.3136739E-1,-8.2548666E-1,-3.118782E-2,-1.0019415E-1,2.2025895E0,8.540326E-1,3.373362E0,1.0735877E0,3.9667302E-1,-2.6692563E-1,2.531055E0,-5.2769715E-1,1.351118E-1,4.070603E-2,1.9660954E-1,6.414728E-1,1.7398411E-2,-3.4669403E-2,-1.7951752E-1,1.6970154E-2,1.1228105E0,1.36819E-1,3.7577353E0,1.7887473E0,7.99329E-3,-5.675129E-2,3.0476752E-1,9.894446E-2,5.8216717E-2,2.4102603E-1,-3.4114605E-1,-2.190198E0,-1.1833516E-2,-4.4267472E-2,-7.2790474E-1,-9.4629705E-2,1.1527423E-1,-5.0488275E-2,5.483094E-2,2.708259E-3,8.169097E-2,1.891406E-1,1.1763882E-1,1.7018525E-2,1.0946739E-2,5.2404493E-2,-5.6070867E-3,-3.5417486E-2,1.440151E-1,3.1577356E-3,-2.1804571E-1,-5.7663964E-3,4.855034E-3,1.50401695E-2,1.8583548E-3,4.859823E-3,1.3708926E-2,3.1171127E-3,7.2884984E-2,2.6352808E-2,1.7472524E-3,2.3734212E-4,-3.253278E-4,-2.8020102E-3,3.383214E-6,-1.1398279E-2,-1.6722163E-3,6.5652714E-3,1.3765562E-1,4.564422E-2,1.4836863E-2,-2.1892447E-2,1.9931184E-1,6.755753E-2,1.2468449E-1,2.0999415E-2,1.4454959E-3,-2.7832805E-4,-1.4993742E-3,-4.4188015E-3,1.2219667E-2,3.3286892E-2,6.3863993E-3,-1.27129825E-2,-6.086144E-4,7.3195235E-3,1.0899207E-2,4.034484E-2,-2.3938315E-2,5.3084303E-2,9.363084E-3,-1.3080804E-1,-7.8864273E-4,2.279989E-3,-1.6795741E-3,-3.6945813E-3,-3.0843541E-2,-8.531775E-2,-7.6530846E-3,-3.9565503E-3],"categories":[],"categories_nodes":[],"categories_segments":[],"categories_sizes":[],"default_left":[0,1,0,0,0,1,1,0,1,0,0,1,0,0,0,0,0,0,0,1,1,0,0,0,1,0,0,0,0,0,1,0,0,0,0,1,0,0,0,0,0,0,0,0,0,0,0,0,0,0,0,0,0,0,0,0,0,0,0,0,0,0,0,0,0,0,0,0,0,0,0,0,0,0,0,0,0,0,0,0,0,0,0,0,0,0,0,0,0,0,0,0,0,0,0,0,0,0,0,0,0,0,0,0,0,0,0,0,0,0,0,0,0,0,0,0,0,0,0,0,0,0,0,0,0,0,0],"id":2,"left_children":[1,3,5,7,9,11,13,15,17,19,21,23,25,27,29,31,33,35,37,39,41,43,45,47,49,51,53,55,57,59,61,63,65,67,69,71,73,75,77,79,81,83,85,87,89,91,93,95,97,99,101,103,105,107,109,111,113,115,117,119,121,123,125,-1,-1,-1,-1,-1,-1,-1,-1,-1,-1,-1,-1,-1,-1,-1,-1,-1,-1,-1,-1,-1,-1,-1,-1,-1,-1,-1,-1,-1,-1,-1,-1,-1,-1,-1,-1,-1,-1,-1,-1,-1,-1,-1,-1,-1,-1,-1,-1,-1,-1,-1,-1,-1,-1,-1,-1,-1,-1,-1,-1,-1,-1,-1,-1],"loss_changes":[1.866241E4,1.1997705E4,7.9641294E3,2.1829809E4,4.712132E3,1.0469026E4,6.285085E3,5.9818633E3,3.0366147E3,3.2998555E3,1.7866494E3,1.1535253E4,2.843716E3,4.339536E3,5.141543E3,3.1352324E3,3.7447969E3,2.5055708E3,1.4659822E3,2.318245E3,1.6076221E3,1.6499852E3,1.5997513E3,4.270646E3,1.7434043E3,2.8103164E3,8.3559937E2,2.1779893E3,3.187801E3,2.8472734E3,4.1717646E3,7.9746875E2,1.1825356E3,1.9074238E3,9.0342834E2,1.0794711E3,9.9709924E2,6.098291E2,3.1856024E2,1.7156587E3,1.1517607E3,7.7334814E2,8.5108545E2,1.4995616E3,4.0257214E2,8.0656104E2,4.319045E2,2.2751406E3,1.1879388E3,6.6573047E2,6.9176416E2,2.0404672E3,6.257554E2,7.8341943E2,4.443072E2,1.01085834E3,1.4164375E3,6.880919E2,1.2799434E3,1.0262175E3,2.1226914E3,1.1391011E3,1.0721484E3,0E0,0E0,0E0,0E0,0E0,0E0,0E0,0E0,0E0,0E0,0E0,0E0,0E0,0E0,0E0,0E0,0E0,0E0,0E0,0E0,0E0,0E0,0E0,0E0,0E0,0E0,0E0,0E0,0E0,0E0,0E0,0E0,0E0,0E0,0E0,0E0,0E0,0E0,0E0,0E0,0E0,0E0,0E0,0E0,0E0,0E0,0E0,0E0,0E0,0E0,0E0,0E0,0E0,0E0,0E0,0E0,0E0,0E0,0E0,0E0,0E0,0E0,0E0,0E0],"parents":[2147483647,0,0,1,1,2,2,3,3,4,4,5,5,6,6,7,7,8,8,9,9,10,10,11,11,12,12,13,13,14,14,15,15,16,16,17,17,18,18,19,19,20,20,21,21,22,22,23,23,24,24,25,25,26,26,27,27,28,28,29,29,30,30,31,31,32,32,33,33,34,34,35,35,36,36,37,37,38,38,39,39,40,40,41,41,42,42,43,43,44,44,45,45,46,46,47,47,48,48,49,49,50,50,51,51,52,52,53,53,54,54,55,55,56,56,57,57,58,58,59,59,60,60,61,61,62,62],"right_children":[2,4,6,8,10,12,14,16,18,20,22,24,26,28,30,32,34,36,38,40,42,44,46,48,50,52,54,56,58,60,62,64,66,68,70,72,74,76,78,80,82,84,86,88,90,92,94,96,98,100,102,104,106,108,110,112,114,116,118,120,122,124,126,-1,-1,-1,-1,-1,-1,-1,-1,-1,-1,-1,-1,-1,-1,-1,-1,-1,-1,-1,-1,-1,-1,-1,-1,-1,-1,-1,-1,-1,-1,-1,-1,-1,-1,-1,-1,-1,-1,-1,-1,-1,-1,-1,-1,-1,-1,-1,-1,-1,-1,-1,-1,-1,-1,-1,-1,-1,-1,-1,-1,-1,-1,-1,-1],"split_conditions":[-1.7654292E-1,-1.2559617E1,-1.8822029E-1,-2.2323174E0,-4.1022137E-1,-1.2559617E1,-3.377498E0,1.6660409E-1,1.0005926E0,2.5195312E0,1.8285067E0,1.0005926E0,2.589204E0,1.1179872E0,1.2279805E0,-1.5264814E0,-8.1971693E-1,8.2896575E-2,-9.131156E-1,-1.5228812E0,6.1356026E-1,1.251268E0,-1.3014589E-1,-2.4905603E0,-1.7068421E0,1.2755122E0,-2.3465522E-1,1.4397857E-1,3.2047327E0,6.2135956E-3,-1.2559617E1,4.431882E0,-1.0984213E0,2.4858704E0,-5.675551E-1,2.5195312E0,2.5260804E0,1.6702724E0,-1.6174544E-1,6.77913E-1,-9.945306E-2,-4.8457254E-2,-2.7733068E0,-1.3819657E-1,1.3779867E-1,-6.4646375E-1,1.0654838E0,-2.4719696E0,1.9479066E0,-7.7888775E-1,-4.4541803E-1,-2.7182665E-1,1.82128E-2,1.8646884E0,2.6416757E0,1.7623264E-1,4.1599503E-1,-3.6765525E-1,3.773912E-1,1.1205727E0,3.7806207E-1,2.4824455E0,-9.074526E-1,1.1527423E-1,-5.0488275E-2,5.483094E-2,2.708259E-3,8.169097E-2,1.891406E-1,1.1763882E-1,1.7018525E-2,1.0946739E-2,5.2404493E-2,-5.6070867E-3,-3.5417486E-2,1.440151E-1,3.1577356E-3,-2.1804571E-1,-5.7663964E-3,4.855034E-3,1.50401695E-2,1.8583548E-3,4.859823E-3,1.3708926E-2,3.1171127E-3,7.2884984E-2,2.6352808E-2,1.7472524E-3,2.3734212E-4,-3.253278E-4,-2.8020102E-3,3.383214E-6,-1.1398279E-2,-1.6722163E-3,6.5652714E-3,1.3765562E-1,4.564422E-2,1.4836863E-2,-2.1892447E-2,1.9931184E-1,6.755753E-2,1.2468449E-1,2.0999415E-2,1.4454959E-3,-2.7832805E-4,-1.4993742E-3,-4.4188015E-3,1.2219667E-2,3.3286892E-2,6.3863993E-3,-1.27129825E-2,-6.086144E-4,7.3195235E-3,1.0899207E-2,4.034484E-2,-2.3938315E-2,5.3084303E-2,9.363084E-3,-1.3080804E-1,-7.8864273E-4,2.279989E-3,-1.6795741E-3,-3.6945813E-3,-3.0843541E-2,-8.531775E-2,-7.6530846E-3,-3.9565503E-3],"split_indices":[6,75,36,36,4,75,15,17,15,58,72,15,60,38,19,7,52,7,52,8,74,19,7,36,42,19,4,5,1,4,75,0,52,50,29,58,7,66,31,74,15,20,4,36,22,25,7,33,7,52,29,4,4,75,4,69,8,30,61,59,56,4,8,0,0,0,0,0,0,0,0,0,0,0,0,0,0,0,0,0,0,0,0,0,0,0,0,0,0,0,0,0,0,0,0,0,0,0,0,0,0,0,0,0,0,0,0,0,0,0,0,0,0,0,0,0,0,0,0,0,0,0,0,0,0,0,0],"split_type":[0,0,0,0,0,0,0,0,0,0,0,0,0,0,0,0,0,0,0,0,0,0,0,0,0,0,0,0,0,0,0,0,0,0,0,0,0,0,0,0,0,0,0,0,0,0,0,0,0,0,0,0,0,0,0,0,0,0,0,0,0,0,0,0,0,0,0,0,0,0,0,0,0,0,0,0,0,0,0,0,0,0,0,0,0,0,0,0,0,0,0,0,0,0,0,0,0,0,0,0,0,0,0,0,0,0,0,0,0,0,0,0,0,0,0,0,0,0,0,0,0,0,0,0,0,0,0],"sum_hessian":[3.4498428E7,1.3745517E7,2.0752914E7,3.697254E4,1.3708544E7,8.034694E6,1.2718219E7,1.21470625E4,2.4825477E4,6.1170275E6,7.5915165E6,2.151455E4,8.013179E6,2.7633912E5,1.244188E7,8.498307E3,3.6487566E3,2.391788E4,9.0759515E2,6.0336525E6,8.3374586E4,7.423888E6,1.676289E5,1.9578117E4,1.9364331E3,7.933526E6,7.965324E4,2.715162E5,4.822934E3,1.1247491E7,1.1943892E6,2.4046091E3,6.0936973E3,2.6856804E3,9.630761E2,9.324315E3,1.4593566E4,7.067459E2,2.0084921E2,2.7241153E5,5.761241E6,7.425412E4,9.120468E3,6.755011E6,6.688769E5,9.270128E4,7.492763E4,6.654084E3,1.2924032E4,1.2194166E3,7.170165E2,7.1942085E6,7.393177E5,3.595421E4,4.369903E4,1.6287061E5,1.08645586E5,3.5605376E3,1.2623967E3,4.5357805E6,6.711711E6,1.0493676E4,1.1838956E6,2.330251E3,7.435807E1,4.675367E3,1.4183302E3,5.126563E2,2.1730242E3,3.5009058E2,6.129855E2,7.326598E3,1.9977168E3,1.0805801E4,3.787765E3,6.18983E2,8.7762985E1,1.857823E1,1.8227098E2,2.2158056E5,5.0830965E4,5.421598E6,3.396432E5,4.706352E4,2.7190602E4,1.1198596E3,8.0006084E3,2.8300175E6,3.9249932E6,2.8858084E5,3.8029603E5,1.9695574E4,7.30057E4,5.1999785E4,2.2927846E4,7.5768994E2,5.896394E3,1.011087E4,2.8131628E3,1.1130754E3,1.0634117E2,4.7272852E2,2.4428793E2,2.8295345E6,4.364674E6,4.0043456E5,3.3888316E5,3.0803793E4,5.1504175E3,4.040681E4,3.292219E3,9.056974E4,7.230087E4,1.0439603E5,4.2495537E3,3.2430476E3,3.1748984E2,1.918985E2,1.0704982E3,4.244642E6,2.9113844E5,4.9337005E6,1.7780105E6,9.425686E3,1.06799E3,2.481881E5,9.357075E5],"tree_param":{"num_deleted":"0","num_feature":"79","num_nodes":"127","size_leaf_vector":"1"}},{"base_weights":[9.951049E-8,2.3196006E-2,-2.1118427E-2,5.3989905E-1,2.1913962E-2,3.7415177E-3,-3.624096E-2,1.5893518E0,4.446259E-2,4.4131707E-2,8.751768E-3,8.81632E-2,-1.2576826E-3,-4.0038094E-2,1.0638855E-1,9.416736E-1,2.324309E0,-2.0256577E-2,1.806429E0,2.3305316E-1,4.137243E-2,2.4073936E-2,-3.8430986E-3,1.0081212E-1,-8.62973E-1,1.3546305E-2,-2.242223E-2,-2.5088008E-2,-6.960022E-2,1.6435858E0,9.281013E-2,2.0791552E0,6.6173244E-1,2.883829E0,1.4836678E-1,2.5642657E-1,-3.5405153E-1,2.42804E0,-4.496705E-1,1.9636163E-1,8.6377317E-1,3.9948005E-2,2.8369543E-1,1.7940233E-2,7.567652E-2,-1.8200125E-1,-2.8497514E-3,4.431881E-2,2.1171229E-1,-2.1926263E-1,-1.9322416E0,3.4592304E0,1.3453398E-2,-1.5452529E-2,-5.3976297E-2,5.4324466E-1,-2.6163306E-2,-6.348744E-1,-6.755478E-2,2.828755E0,-8.885897E-2,1.1032348E-1,-2.9018813E-1,4.9157903E-2,1.1955532E-1,2.9400734E-2,9.704262E-2,1.1135032E-1,1.6772747E-1,-8.021369E-3,1.1053182E-1,7.962304E-3,4.5330524E-2,-1.119481E-2,-4.1275732E-2,7.905173E-2,1.6913508E-1,-2.0770028E-1,-3.6586903E-3,7.556092E-3,2.8174391E-2,2.5370171E-2,8.1697896E-2,3.2209584E-3,1.4690455E-3,1.3443251E-2,9.244808E-2,1.0256983E-3,-5.035761E-3,8.555728E-3,3.3733149E-3,1.3524133E-2,-1.2534173E-2,9.826882E-4,-5.867469E-4,-2.4785623E-3,5.4222806E-3,1.7287001E-1,1.0446834E-2,-1.5242601E-2,9.067967E-2,-1.6641854E-1,-8.0563106E-2,2.1443267E-1,4.3473404E-2,1.6314866E-3,8.31617E-5,-1.4670276E-3,8.600159E-5,-2.535968E-3,-1.0545894E-2,1.1763402E-1,1.919963E-2,-2.61861E-4,-2.1952188E-3,-2.059911E-2,-6.1867457E-2,-2.7621277E-3,-5.4296707E-3,7.8284316E-2,1.6933414E-1,-2.1579906E-2,9.724932E-2,3.8447417E-3,1.7143352E-2,-3.7096035E-2,-1.3027595E-3],"categories":[],"categories_nodes":[],"categories_segments":[],"categories_sizes":[],"default_left":[0,1,1,0,0,1,0,0,1,0,0,0,0,0,0,0,1,0,0,0,1,1,0,0,0,0,0,1,1,0,0,0,0,0,1,0,0,0,0,1,0,0,0,0,0,0,1,0,1,0,0,0,0,0,0,0,0,0,0,0,1,1,0,0,0,0,0,0,0,0,0,0,0,0,0,0,0,0,0,0,0,0,0,0,0,0,0,0,0,0,0,0,0,0,0,0,0,0,0,0,0,0,0,0,0,0,0,0,0,0,0,0,0,0,0,0,0,0,0,0,0,0,0,0,0,0,0],"id":3,"left_children":[1,3,5,7,9,11,13,15,17,19,21,23,25,27,29,31,33,35,37,39,41,43,45,47,49,51,53,55,57,59,61,63,65,67,69,71,73,75,77,79,81,83,85,87,89,91,93,95,97,99,101,103,105,107,109,111,113,115,117,119,121,123,125,-1,-1,-1,-1,-1,-1,-1,-1,-1,-1,-1,-1,-1,-1,-1,-1,-1,-1,-1,-1,-1,-1,-1,-1,-1,-1,-1,-1,-1,-1,-1,-1,-1,-1,-1,-1,-1,-1,-1,-1,-1,-1,-1,-1,-1,-1,-1,-1,-1,-1,-1,-1,-1,-1,-1,-1,-1,-1,-1,-1,-1,-1,-1,-1],"loss_changes":[1.6899516E4,1.0890827E4,6.788757E3,2.1156898E4,4.7958955E3,2.8825374E3,6.0808066E3,6.2095547E3,3.1522444E3,3.1804463E3,1.9874592E3,4.593953E3,2.0203345E3,4.8335293E3,6.077147E3,2.2079663E3,7.441039E3,2.4627068E3,1.374613E3,2.032333E3,2.0756182E3,1.470627E3,1.0003272E3,2.3608752E3,3.4489624E3,1.2145864E3,5.836605E2,4.4388955E3,4.24708E3,5.234587E3,1.9359197E3,4.659961E2,5.240227E2,1.4957344E3,7.9717584E2,9.211034E2,7.414186E2,6.156543E2,2.9592667E2,1.3784387E3,1.3243362E3,1.5458965E3,8.15249E2,1.2681868E3,3.8676392E2,9.7407776E2,1.123926E3,1.5031494E3,1.1449678E3,5.450333E2,8.385083E2,2.1600757E2,8.5781903E2,5.1843475E2,2.4541724E2,3.951643E3,2.6914663E3,1.7779243E3,1.8493086E3,1.061459E3,7.2338043E2,2.1454314E3,1.5058303E3,0E0,0E0,0E0,0E0,0E0,0E0,0E0,0E0,0E0,0E0,0E0,0E0,0E0,0E0,0E0,0E0,0E0,0E0,0E0,0E0,0E0,0E0,0E0,0E0,0E0,0E0,0E0,0E0,0E0,0E0,0E0,0E0,0E0,0E0,0E0,0E0,0E0,0E0,0E0,0E0,0E0,0E0,0E0,0E0,0E0,0E0,0E0,0E0,0E0,0E0,0E0,0E0,0E0,0E0,0E0,0E0,0E0,0E0,0E0,0E0,0E0,0E0,0E0,0E0],"parents":[2147483647,0,0,1,1,2,2,3,3,4,4,5,5,6,6,7,7,8,8,9,9,10,10,11,11,12,12,13,13,14,14,15,15,16,16,17,17,18,18,19,19,20,20,21,21,22,22,23,23,24,24,25,25,26,26,27,27,28,28,29,29,30,30,31,31,32,32,33,33,34,34,35,35,36,36,37,37,38,38,39,39,40,40,41,41,42,42,43,43,44,44,45,45,46,46,47,47,48,48,49,49,50,50,51,51,52,52,53,53,54,54,55,55,56,56,57,57,58,58,59,59,60,60,61,61,62,62],"right_children":[2,4,6,8,10,12,14,16,18,20,22,24,26,28,30,32,34,36,38,40,42,44,46,48,50,52,54,56,58,60,62,64,66,68,70,72,74,76,78,80,82,84,86,88,90,92,94,96,98,100,102,104,106,108,110,112,114,116,118,120,122,124,126,-1,-1,-1,-1,-1,-1,-1,-1,-1,-1,-1,-1,-1,-1,-1,-1,-1,-1,-1,-1,-1,-1,-1,-1,-1,-1,-1,-1,-1,-1,-1,-1,-1,-1,-1,-1,-1,-1,-1,-1,-1,-1,-1,-1,-1,-1,-1,-1,-1,-1,-1,-1,-1,-1,-1,-1,-1,-1,-1,-1,-1,-1,-1,-1],"split_conditions":[-4.617127E-2,-1.2559617E1,-2.7352458E-1,-2.2323174E0,-5.947429E-1,-3.377498E0,2.2376206E0,2.4858704E0,1.0005926E0,-2.7733068E0,-8.0419675E-2,1.2983052E0,1.9170585E-1,4.1922584E-1,-8.921863E-1,-1.9377362E0,-8.1971693E-1,1.5526468E0,-9.131156E-1,1.0176568E0,2.5195312E0,-3.9252976E-1,-3.719116E0,2.2594339E-1,2.708442E0,-1.6696385E0,-3.5526067E-1,-1.2559617E1,-1.2559617E1,-1.9443702E0,2.6416757E0,-2.6755923E-1,4.8338035E-1,5.269383E-2,1.6450562E0,2.4858704E0,3.0932183E0,-7.892663E-1,-1.6174544E-1,5.672386E-1,1.6618658E0,-1.0501429E0,1.8829539E0,1.6635154E0,-1.6953726E0,9E0,-6.2794864E-1,-4.3215398E-2,-1.2559617E1,5.41472E-2,-6.992977E-1,-7.581283E-1,-2.7182665E-1,-1.7221685E-1,5.34E2,-2.2236903E0,1.82128E-2,3.5963287E0,9.42351E-1,7.788952E-3,1.0005926E0,1.3708588E0,2.9565844E-1,4.9157903E-2,1.1955532E-1,2.9400734E-2,9.704262E-2,1.1135032E-1,1.6772747E-1,-8.021369E-3,1.1053182E-1,7.962304E-3,4.5330524E-2,-1.119481E-2,-4.1275732E-2,7.905173E-2,1.6913508E-1,-2.0770028E-1,-3.6586903E-3,7.556092E-3,2.8174391E-2,2.5370171E-2,8.1697896E-2,3.2209584E-3,1.4690455E-3,1.3443251E-2,9.244808E-2,1.0256983E-3,-5.035761E-3,8.555728E-3,3.3733149E-3,1.3524133E-2,-1.2534173E-2,9.826882E-4,-5.867469E-4,-2.4785623E-3,5.4222806E-3,1.7287001E-1,1.0446834E-2,-1.5242601E-2,9.067967E-2,-1.6641854E-1,-8.0563106E-2,2.1443267E-1,4.3473404E-2,1.6314866E-3,8.31617E-5,-1.4670276E-3,8.600159E-5,-2.535968E-3,-1.0545894E-2,1.1763402E-1,1.919963E-2,-2.61861E-4,-2.1952188E-3,-2.059911E-2,-6.1867457E-2,-2.7621277E-3,-5.4296707E-3,7.8284316E-2,1.6933414E-1,-2.1579906E-2,9.724932E-2,3.8447417E-3,1.7143352E-2,-3.7096035E-2,-1.3027595E-3],"split_indices":[6,75,45,36,4,15,60,50,15,4,36,38,36,36,52,7,52,36,52,49,58,15,60,5,1,37,29,75,75,36,4,35,15,17,15,50,7,27,31,58,77,6,28,72,36,9,39,69,75,30,23,19,4,13,11,33,4,7,45,17,15,76,34,0,0,0,0,0,0,0,0,0,0,0,0,0,0,0,0,0,0,0,0,0,0,0,0,0,0,0,0,0,0,0,0,0,0,0,0,0,0,0,0,0,0,0,0,0,0,0,0,0,0,0,0,0,0,0,0,0,0,0,0,0,0,0,0],"split_type":[0,0,0,0,0,0,0,0,0,0,0,0,0,0,0,0,0,0,0,0,0,0,0,0,0,0,0,0,0,0,0,0,0,0,0,0,0,0,0,0,0,0,0,0,0,0,0,0,0,0,0,0,0,0,0,0,0,0,0,0,0,0,0,0,0,0,0,0,0,0,0,0,0,0,0,0,0,0,0,0,0,0,0,0,0,0,0,0,0,0,0,0,0,0,0,0,0,0,0,0,0,0,0,0,0,0,0,0,0,0,0,0,0,0,0,0,0,0,0,0,0,0,0,0,0,0,0],"sum_hessian":[3.4498428E7,1.6440603E7,1.8057828E7,4.0690395E4,1.6399912E7,6.829995E6,1.1227832E7,1.3048451E4,2.7641943E4,6.1011645E6,1.0298748E7,3.8183956E5,6.4481555E6,1.0936673E7,2.911591E5,6.937281E3,6.1111704E3,2.6663547E4,9.7839594E2,8.782612E4,6.013338E6,4.6463155E6,5.652433E6,3.768291E5,5.0104624E3,3.7942135E6,2.653942E6,7.2634305E6,3.6732422E6,2.5483054E3,2.886108E5,1.3688444E3,5.5684365E3,4.8609136E3,1.2502566E3,1.4579122E4,1.2084425E4,7.6699396E2,2.1140198E2,8.299904E4,4.827079E3,5.9781985E6,3.5139914E4,4.152708E6,4.9360722E5,3.1340229E4,5.6210925E6,2.4965467E5,1.2717442E5,3.128362E3,1.8821003E3,1.01297714E2,3.794112E6,2.1737935E6,4.8014856E5,1.3715673E4,7.249715E6,1.3242536E4,3.6599998E6,1.512778E3,1.0355273E3,2.7599128E5,1.2619532E4,3.0420694E2,1.0646373E3,5.2663857E3,3.0205075E2,2.0317E3,2.8292136E3,1.0882323E3,1.6202435E2,1.2684469E4,1.8946536E3,9.471212E3,2.6132126E3,4.0781973E2,3.5917422E2,1.857823E1,1.9282375E2,7.389465E4,9.104391E3,3.3012341E3,1.5258448E3,1.8029474E6,4.1752508E6,3.4811258E4,3.2865448E2,4.0645455E6,8.816243E4,3.9098246E4,4.54509E5,4.129805E3,2.7210424E4,1.5911601E6,4.0299325E6,1.01315586E5,1.483391E5,1.0759887E2,1.2706682E5,3.002786E3,1.2557632E2,3.5006992E2,1.5320304E3,7.622813E1,2.5069588E1,1.444567E6,2.3495452E6,1.2018315E6,9.719619E5,4.7038812E5,9.760427E3,1.1083806E3,1.2607292E4,3.3262782E6,3.9234368E6,9.667589E3,3.5749475E3,2.8153525E6,8.4464706E5,4.646602E2,1.0481178E3,8.86863E2,1.486644E2,2.4130455E5,3.4686727E4,4.6555625E3,7.9639697E3],"tree_param":{"num_deleted":"0","num_feature":"79","num_nodes":"127","size_leaf_vector":"1"}},{"base_weights":[1.4013077E-7,2.5917076E-2,-1.7165722E-2,5.3993875E-1,2.4530698E-2,-1.7247635E-3,-3.819196E-2,1.5313358E0,5.4807737E-2,4.0669702E-2,6.6469777E-3,6.0397375E-1,-2.8612635E-3,-4.2555153E-2,1.120997E-1,9.280441E-1,2.2020445E0,3.5854328E-1,-2.837182E-1,3.8208764E-2,1.9988383E-1,8.801714E-3,-1.03669934E-1,3.966032E-1,2.7725444E0,1.8474106E-2,-1.5980233E-2,-4.095502E-2,-3.42368E-1,1.2846383E-1,-5.540894E-1,1.7776108E0,6.035297E-1,2.750308E0,1.2998179E-1,2.8232077E-1,2.6613507E0,-6.867174E-1,-4.4734113E-2,1.2647407E-1,3.5075027E-2,1.6453001E-1,5.8909756E-1,1.3152402E-2,-3.874727E-2,7.584107E-2,-1.522477E-1,1.0250025E0,9.354786E-2,3.4893584E0,1.6398013E0,1.6071979E-2,2.6478356E-1,-1.0674856E-2,-8.291623E-2,-2.8387515E-2,-7.171902E-2,-1.0228443E0,-2.3386595E-1,5.108247E-2,2.2948974E-1,-8.347738E-2,-1.7196978E0,7.630681E-2,1.3842641E-1,2.6533162E-2,9.025342E-2,1.0610318E-1,1.6020238E-1,-8.855016E-3,1.06361404E-1,6.254842E-3,4.23075E-2,1.5659653E-1,5.150301E-2,-2.585954E-2,-8.195897E-2,-3.133602E-2,7.0547797E-3,1.1989601E-2,4.224952E-3,2.216949E-3,7.698442E-4,6.35137E-3,1.9737056E-2,2.7395938E-2,1.2638062E-1,1.5737234E-3,1.9641528E-4,-4.519426E-4,-2.9902083E-3,3.5629176E-2,1.3827025E-3,-1.396311E-2,-4.3322723E-3,9.918953E-2,3.438307E-2,1.2584514E-2,-2.1698767E-2,1.8501644E-1,5.8111936E-2,1.14363745E-1,1.876609E-2,2.5954049E-3,4.4710716E-4,9.458738E-3,2.3972085E-2,1.0226228E-3,-8.9867617E-4,-8.595355E-3,-3.4742828E-3,-1.8653406E-3,-5.101447E-4,-3.3299027E-3,-1.0979572E-2,-1.1797344E-2,-6.645266E-2,-8.916463E-3,-3.1303953E-2,1.392313E-2,1.104277E-3,1.5985897E-2,6.0696574E-3,1.6130451E-2,-1.2267309E-2,-1.5292466E-1,-4.886916E-2],"categories":[],"categories_nodes":[],"categories_segments":[],"categories_sizes":[],"default_left":[0,1,0,0,0,1,0,0,0,0,0,1,0,0,0,0,1,1,0,1,0,1,0,0,1,0,0,1,0,0,1,0,0,0,1,1,0,0,0,0,0,1,0,0,0,0,0,0,0,0,0,0,0,1,0,0,0,0,0,0,1,0,0,0,0,0,0,0,0,0,0,0,0,0,0,0,0,0,0,0,0,0,0,0,0,0,0,0,0,0,0,0,0,0,0,0,0,0,0,0,0,0,0,0,0,0,0,0,0,0,0,0,0,0,0,0,0,0,0,0,0,0,0,0,0,0,0],"id":4,"left_children":[1,3,5,7,9,11,13,15,17,19,21,23,25,27,29,31,33,35,37,39,41,43,45,47,49,51,53,55,57,59,61,63,65,67,69,71,73,75,77,79,81,83,85,87,89,91,93,95,97,99,101,103,105,107,109,111,113,115,117,119,121,123,125,-1,-1,-1,-1,-1,-1,-1,-1,-1,-1,-1,-1,-1,-1,-1,-1,-1,-1,-1,-1,-1,-1,-1,-1,-1,-1,-1,-1,-1,-1,-1,-1,-1,-1,-1,-1,-1,-1,-1,-1,-1,-1,-1,-1,-1,-1,-1,-1,-1,-1,-1,-1,-1,-1,-1,-1,-1,-1,-1,-1,-1,-1,-1,-1],"loss_changes":[1.5347889E4,9.795433E3,6.7377495E3,1.7782617E4,3.9566348E3,8.236909E3,5.7622314E3,4.913463E3,2.5528186E3,2.8233271E3,1.545737E3,1.0076516E4,3.3429053E3,4.0966396E3,2.7026802E3,1.7626084E3,6.53399E3,2.296194E3,1.1307871E3,1.9627744E3,1.5091533E3,1.3194639E3,1.0863846E3,3.895353E3,1.5822744E3,2.6906455E3,2.6263726E3,3.2839941E3,3.3468447E3,1.8915657E3,3.2603135E3,4.362583E2,4.0445325E2,1.28975E3,7.391455E2,1.1228743E3,3.185359E2,7.048899E2,7.9733167E2,1.1572344E3,1.2492451E3,8.680542E2,7.276548E2,9.875821E2,3.344759E2,8.1410095E2,8.169553E2,2.151147E3,1.1514353E3,5.833154E2,6.2124646E2,1.1507094E3,7.1276074E2,1.5568245E3,6.4914624E2,9.78103E2,1.8654844E3,1.5018037E3,8.515752E2,9.0340125E2,1.0235654E3,2.7847513E2,1.6959326E3,0E0,0E0,0E0,0E0,0E0,0E0,0E0,0E0,0E0,0E0,0E0,0E0,0E0,0E0,0E0,0E0,0E0,0E0,0E0,0E0,0E0,0E0,0E0,0E0,0E0,0E0,0E0,0E0,0E0,0E0,0E0,0E0,0E0,0E0,0E0,0E0,0E0,0E0,0E0,0E0,0E0,0E0,0E0,0E0,0E0,0E0,0E0,0E0,0E0,0E0,0E0,0E0,0E0,0E0,0E0,0E0,0E0,0E0,0E0,0E0,0E0,0E0,0E0,0E0],"parents":[2147483647,0,0,1,1,2,2,3,3,4,4,5,5,6,6,7,7,8,8,9,9,10,10,11,11,12,12,13,13,14,14,15,15,16,16,17,17,18,18,19,19,20,20,21,21,22,22,23,23,24,24,25,25,26,26,27,27,28,28,29,29,30,30,31,31,32,32,33,33,34,34,35,35,36,36,37,37,38,38,39,39,40,40,41,41,42,42,43,43,44,44,45,45,46,46,47,47,48,48,49,49,50,50,51,51,52,52,53,53,54,54,55,55,56,56,57,57,58,58,59,59,60,60,61,61,62,62],"right_children":[2,4,6,8,10,12,14,16,18,20,22,24,26,28,30,32,34,36,38,40,42,44,46,48,50,52,54,56,58,60,62,64,66,68,70,72,74,76,78,80,82,84,86,88,90,92,94,96,98,100,102,104,106,108,110,112,114,116,118,120,122,124,126,-1,-1,-1,-1,-1,-1,-1,-1,-1,-1,-1,-1,-1,-1,-1,-1,-1,-1,-1,-1,-1,-1,-1,-1,-1,-1,-1,-1,-1,-1,-1,-1,-1,-1,-1,-1,-1,-1,-1,-1,-1,-1,-1,-1,-1,-1,-1,-1,-1,-1,-1,-1,-1,-1,-1,-1,-1,-1,-1,-1,-1,-1,-1,-1],"split_conditions":[-1.7654292E-1,-1.2559617E1,2.086438E-1,-2.2323174E0,-1.6148128E-1,-1.2559617E1,2.4016814E0,2.4858704E0,5.3462505E-1,2.1931014E0,2.1237574E0,1.0005926E0,-2.7182665E-1,4.053263E0,3.2047327E0,-1.5264814E0,-8.1971693E-1,1.6450562E0,9.643035E-1,-1.7917621E0,3.2503765E0,1.3073304E0,-6.4646375E-1,-2.4905603E0,-1.7564871E0,2.589204E0,1.3532537E0,5.104564E-1,-2.7673152E-1,2.1798621E-1,1.1845952E0,1.6515228E0,4.8338035E-1,5.269383E-2,1.6450562E0,2.5195312E0,1.0809865E0,2.7658246E0,-2.6632684E-1,-2.1522748E0,2.086438E-1,4.863479E-1,5.3039546E0,-3.0808923E-1,8.470213E-2,-1.0794965E0,-6.9292563E-1,-4.0179962E-1,1.8518199E0,-7.7888775E-1,-4.4541803E-1,-1.041907E0,3.394251E0,-8.3451396E-1,-1.1638622E0,-1.5108134E-1,1.983687E0,1.1906514E0,2.2800205E0,9E0,-8.7389576E-1,2.1262329E0,-4.422627E-1,7.630681E-2,1.3842641E-1,2.6533162E-2,9.025342E-2,1.0610318E-1,1.6020238E-1,-8.855016E-3,1.06361404E-1,6.254842E-3,4.23075E-2,1.5659653E-1,5.150301E-2,-2.585954E-2,-8.195897E-2,-3.133602E-2,7.0547797E-3,1.1989601E-2,4.224952E-3,2.216949E-3,7.698442E-4,6.35137E-3,1.9737056E-2,2.7395938E-2,1.2638062E-1,1.5737234E-3,1.9641528E-4,-4.519426E-4,-2.9902083E-3,3.5629176E-2,1.3827025E-3,-1.396311E-2,-4.3322723E-3,9.918953E-2,3.438307E-2,1.2584514E-2,-2.1698767E-2,1.8501644E-1,5.8111936E-2,1.14363745E-1,1.876609E-2,2.5954049E-3,4.4710716E-4,9.458738E-3,2.3972085E-2,1.0226228E-3,-8.9867617E-4,-8.595355E-3,-3.4742828E-3,-1.8653406E-3,-5.101447E-4,-3.3299027E-3,-1.0979572E-2,-1.1797344E-2,-6.645266E-2,-8.916463E-3,-3.1303953E-2,1.392313E-2,1.104277E-3,1.5985897E-2,6.0696574E-3,1.6130451E-2,-1.2267309E-2,-1.5292466E-1,-4.886916E-2],"split_indices":[6,75,36,36,4,75,52,50,7,58,14,15,4,5,1,7,52,15,60,8,60,66,25,36,42,60,19,45,72,5,8,8,15,17,15,58,23,7,61,7,36,74,24,36,22,34,7,7,7,52,29,56,59,45,8,68,36,45,36,9,33,4,23,0,0,0,0,0,0,0,0,0,0,0,0,0,0,0,0,0,0,0,0,0,0,0,0,0,0,0,0,0,0,0,0,0,0,0,0,0,0,0,0,0,0,0,0,0,0,0,0,0,0,0,0,0,0,0,0,0,0,0,0,0,0,0,0],"split_type":[0,0,0,0,0,0,0,0,0,0,0,0,0,0,0,0,0,0,0,0,0,0,0,0,0,0,0,0,0,0,0,0,0,0,0,0,0,0,0,0,0,0,0,0,0,0,0,0,0,0,0,0,0,0,0,0,0,0,0,0,0,0,0,0,0,0,0,0,0,0,0,0,0,0,0,0,0,0,0,0,0,0,0,0,0,0,0,0,0,0,0,0,0,0,0,0,0,0,0,0,0,0,0,0,0,0,0,0,0,0,0,0,0,0,0,0,0,0,0,0,0,0,0,0,0,0,0],"sum_hessian":[3.4498428E7,1.3745517E7,2.0752914E7,3.697254E4,1.3708544E7,1.1965705E7,8.787209E6,1.21470625E4,2.4825477E4,7.205764E6,6.5027795E6,2.2408758E4,1.1943296E7,8.539301E6,2.4790808E5,6.3961836E3,5.7508794E3,1.3085087E4,1.1740389E4,7.096083E6,1.09681336E5,6.3782E6,1.2457961E5,2.0454018E4,1.9547415E3,4.547576E6,7.39572E6,8.493968E6,4.5332125E4,2.419653E5,5.9427812E3,1.7666586E3,4.629525E3,4.5473364E3,1.2035431E3,1.2666937E4,4.1815063E2,4.3697686E3,7.3706206E3,2.432973E5,6.8527855E6,1.0054945E5,9.131884E3,5.843524E6,5.346762E5,2.6532527E4,9.8047086E4,6.654084E3,1.3799933E4,1.1958881E3,7.5885345E2,4.503655E6,4.392073E4,6.8525825E6,5.431375E5,6.030451E6,2.4635175E6,6.233015E3,3.909911E4,1.3701748E5,1.0494782E5,4.2342734E3,1.7085077E3,1.4110922E3,3.5556644E2,4.3661826E3,2.633424E2,1.9093464E3,2.63799E3,1.043945E3,1.5959808E2,9.905896E3,2.7610403E3,3.2381854E2,9.433209E1,3.7108293E3,6.589391E2,1.7832911E3,5.5873296E3,6.5760945E4,1.7753636E5,4.659306E6,2.1934795E6,8.6465336E4,1.4084113E4,8.94319E3,1.8869276E2,1.9567591E6,3.8867648E6,2.217784E5,3.128978E5,1.8656798E3,2.4666848E4,3.339219E4,6.465489E4,1.7305757E3,4.9235083E3,1.0617509E4,3.182424E3,1.0959426E3,9.994539E1,5.0133646E2,2.5751697E2,7.473423E5,3.7563128E6,3.248164E4,1.1439089E4,1.301586E6,5.5509965E6,7.122032E4,4.7191716E5,4.0459628E6,1.9844882E6,2.3810605E6,8.245704E4,1.7465328E3,4.486482E3,3.4250723E4,4.8483877E3,1.5496071E4,1.2152141E5,5.720057E4,4.774725E4,1.2064966E3,3.0277769E3,6.0829755E2,1.1002102E3],"tree_param":{"num_deleted":"0","num_feature":"79","num_nodes":"127","size_leaf_vector":"1"}},{"base_weights":[1.6991055E-7,2.0607773E-2,-1.9663805E-2,4.8635224E-1,1.9465245E-2,-1.3506627E-2,-7.4520834E-2,1.4342983E0,4.0183596E-2,3.6112115E-2,4.919666E-3,-1.7120719E-2,7.121899E-2,-7.109415E-2,-5.257711E-1,2.093263E0,8.281244E-1,-2.3622299E-2,1.5654371E0,2.1756758E-1,3.4041747E-2,6.622282E-3,-9.288034E-2,-2.6393314E-3,-3.9754346E-2,8.290485E-2,-4.4466448E-1,4.3425494E-1,-7.338444E-2,-1.0154531E0,-3.0984852E-1,2.4038835E0,1.8134634E-1,6.8438727E-1,2.0477283E0,2.3570153E-1,-3.355345E-1,2.001863E0,-1.6254531E-1,1.830392E-1,8.12916E-1,5.3961318E-2,2.153516E-2,2.8784519E-2,-1.1029266E-3,-1.728552E-1,1.6945487E-2,8.285677E-1,-3.55091E-3,-2.920064E-2,-6.937108E-2,2.6798993E-1,6.636616E-2,-7.131908E-2,-1.4287419E0,2.6594394E-1,1.887827E0,-4.1116398E-2,-1.0063424E-1,-7.360703E-1,-1.763964E0,-2.363607E-1,-1.0315195E0,7.338457E-2,1.4194296E-1,2.733684E-3,1.5440544E-1,8.598389E-2,2.6862158E-2,1.1248682E-1,-4.1778844E-2,3.3231623E-2,5.297921E-3,-1.0819736E-2,-3.8574845E-2,1.5254469E-1,5.9450872E-2,-1.7397487E-1,9.376485E-3,2.499937E-2,6.624855E-3,1.6554428E-2,6.6310376E-2,2.6232929E-3,1.9280443E-2,1.5248568E-3,-4.941059E-5,1.0533348E-3,4.1280147E-3,1.3237074E-4,-2.292218E-3,-4.13796E-4,-1.07046375E-2,-1.1226432E-3,8.578053E-3,1.2301518E-2,1.08410314E-1,8.392613E-4,-7.57175E-4,-1.1283465E-3,-3.166855E-3,-3.2418785E-3,-1.7683575E-2,1.0724003E-2,3.288558E-2,8.230996E-3,2.152975E-3,-5.44909E-2,-5.3021893E-5,-1.9137936E-2,-9.5999226E-2,4.0481687E-2,4.3644216E-3,7.4927546E-3,1.3326761E-1,-2.3730237E-3,1.079532E-2,-1.011712E-2,-4.3261065E-3,-1.3300464E-2,-4.8974898E-2,3.9631538E-2,-9.464948E-2,-5.5582788E-2,-9.062209E-3,-4.076052E-2,-9.116816E-2],"categories":[],"categories_nodes":[],"categories_segments":[],"categories_sizes":[],"default_left":[0,1,0,0,0,0,0,1,0,0,0,0,0,0,0,1,0,0,0,0,0,0,0,1,0,0,1,0,0,0,0,0,0,0,0,0,0,1,0,0,0,0,0,0,1,0,0,0,0,0,0,0,0,0,0,0,0,0,0,0,0,0,0,0,0,0,0,0,0,0,0,0,0,0,0,0,0,0,0,0,0,0,0,0,0,0,0,0,0,0,0,0,0,0,0,0,0,0,0,0,0,0,0,0,0,0,0,0,0,0,0,0,0,0,0,0,0,0,0,0,0,0,0,0,0,0,0],"id":5,"left_children":[1,3,5,7,9,11,13,15,17,19,21,23,25,27,29,31,33,35,37,39,41,43,45,47,49,51,53,55,57,59,61,63,65,67,69,71,73,75,77,79,81,83,85,87,89,91,93,95,97,99,101,103,105,107,109,111,113,115,117,119,121,123,125,-1,-1,-1,-1,-1,-1,-1,-1,-1,-1,-1,-1,-1,-1,-1,-1,-1,-1,-1,-1,-1,-1,-1,-1,-1,-1,-1,-1,-1,-1,-1,-1,-1,-1,-1,-1,-1,-1,-1,-1,-1,-1,-1,-1,-1,-1,-1,-1,-1,-1,-1,-1,-1,-1,-1,-1,-1,-1,-1,-1,-1,-1,-1,-1],"loss_changes":[1.3979712E4,8.963681E3,5.9626904E3,1.7434445E4,4.0688481E3,4.8600815E3,2.7546465E3,5.267963E3,2.7279514E3,2.9437832E3,1.4932998E3,4.989449E3,3.9146184E3,2.0463711E3,1.4192598E3,3.7530938E3,1.2034761E3,2.1763884E3,8.4912354E2,1.8169814E3,1.9301045E3,1.5091045E3,1.347822E3,7.0339023E3,1.8564824E3,1.9436328E3,5.284338E3,1.9510831E3,1.5476221E3,8.577822E2,4.9397644E2,2.2098633E3,3.2547726E2,9.35949E2,4.236521E2,8.1754944E2,6.3427673E2,7.6265186E2,2.652541E2,1.3383853E3,1.1979255E3,1.4820137E3,9.6069214E2,9.4557874E2,1.0967334E3,6.02625E2,3.9388638E2,7.935679E3,2.186079E3,9.9164014E2,2.0111968E3,1.086011E3,1.3347595E3,7.4623663E2,2.0319473E3,6.9446387E2,1.1180144E3,1.3139845E3,1.3696113E3,3.4223853E2,3.6958398E2,4.0788702E2,1.4597961E2,0E0,0E0,0E0,0E0,0E0,0E0,0E0,0E0,0E0,0E0,0E0,0E0,0E0,0E0,0E0,0E0,0E0,0E0,0E0,0E0,0E0,0E0,0E0,0E0,0E0,0E0,0E0,0E0,0E0,0E0,0E0,0E0,0E0,0E0,0E0,0E0,0E0,0E0,0E0,0E0,0E0,0E0,0E0,0E0,0E0,0E0,0E0,0E0,0E0,0E0,0E0,0E0,0E0,0E0,0E0,0E0,0E0,0E0,0E0,0E0,0E0,0E0,0E0,0E0],"parents":[2147483647,0,0,1,1,2,2,3,3,4,4,5,5,6,6,7,7,8,8,9,9,10,10,11,11,12,12,13,13,14,14,15,15,16,16,17,17,18,18,19,19,20,20,21,21,22,22,23,23,24,24,25,25,26,26,27,27,28,28,29,29,30,30,31,31,32,32,33,33,34,34,35,35,36,36,37,37,38,38,39,39,40,40,41,41,42,42,43,43,44,44,45,45,46,46,47,47,48,48,49,49,50,50,51,51,52,52,53,53,54,54,55,55,56,56,57,57,58,58,59,59,60,60,61,61,62,62],"right_children":[2,4,6,8,10,12,14,16,18,20,22,24,26,28,30,32,34,36,38,40,42,44,46,48,50,52,54,56,58,60,62,64,66,68,70,72,74,76,78,80,82,84,86,88,90,92,94,96,98,100,102,104,106,108,110,112,114,116,118,120,122,124,126,-1,-1,-1,-1,-1,-1,-1,-1,-1,-1,-1,-1,-1,-1,-1,-1,-1,-1,-1,-1,-1,-1,-1,-1,-1,-1,-1,-1,-1,-1,-1,-1,-1,-1,-1,-1,-1,-1,-1,-1,-1,-1,-1,-1,-1,-1,-1,-1,-1,-1,-1,-1,-1,-1,-1,-1,-1,-1,-1,-1,-1,-1,-1,-1],"split_conditions":[-2.6834404E-2,-1.2559617E1,1.2279805E0,-2.2323174E0,-2.9661697E-1,1.8549763E0,2.2800205E0,-1.7564871E0,1.5573767E0,-2.7733068E0,2.0394974E0,2.853535E-1,3.2047327E0,-2.4905603E0,-8.505039E-1,-9.026292E-1,6.8764585E-1,1.5526468E0,2.2445224E-1,1.0176568E0,-7.846323E-1,-4.921576E-1,-4.0323887E-2,-1.2559617E1,3.7806207E-1,-2.1301916E0,1.1845952E0,1.5573767E0,1.82128E-2,4.574472E0,2.6416757E0,2.4858704E0,9.050706E-1,-2.1522748E0,6.7707634E-1,-5.840867E-1,3.0932183E0,-2.3646781E0,-1.6174544E-1,-3.8433245E-1,9.066812E-1,2.589204E0,3.2023266E-1,-1.8752721E-1,1.3073304E0,-6.4646375E-1,1.620261E0,2.4858704E0,-2.7182665E-1,-4.9086702E-1,2.2800205E0,2.6459346E0,-1.3988223E0,-1.4265598E0,2.8916988E0,-1.4301673E0,8.394698E-1,1.9746397E0,-1.2773366E0,2.0193102E0,-1.8552351E-1,-1.1036055E0,-5.853293E-1,7.338457E-2,1.4194296E-1,2.733684E-3,1.5440544E-1,8.598389E-2,2.6862158E-2,1.1248682E-1,-4.1778844E-2,3.3231623E-2,5.297921E-3,-1.0819736E-2,-3.8574845E-2,1.5254469E-1,5.9450872E-2,-1.7397487E-1,9.376485E-3,2.499937E-2,6.624855E-3,1.6554428E-2,6.6310376E-2,2.6232929E-3,1.9280443E-2,1.5248568E-3,-4.941059E-5,1.0533348E-3,4.1280147E-3,1.3237074E-4,-2.292218E-3,-4.13796E-4,-1.07046375E-2,-1.1226432E-3,8.578053E-3,1.2301518E-2,1.08410314E-1,8.392613E-4,-7.57175E-4,-1.1283465E-3,-3.166855E-3,-3.2418785E-3,-1.7683575E-2,1.0724003E-2,3.288558E-2,8.230996E-3,2.152975E-3,-5.44909E-2,-5.3021893E-5,-1.9137936E-2,-9.5999226E-2,4.0481687E-2,4.3644216E-3,7.4927546E-3,1.3326761E-1,-2.3730237E-3,1.079532E-2,-1.011712E-2,-4.3261065E-3,-1.3300464E-2,-4.8974898E-2,3.9631538E-2,-9.464948E-2,-5.5582788E-2,-9.062209E-3,-4.076052E-2,-9.116816E-2],"split_indices":[6,75,19,36,4,52,36,42,17,4,72,36,1,36,52,52,15,36,52,49,6,36,7,75,56,4,8,17,4,7,4,50,46,7,69,7,7,42,31,69,75,60,36,29,66,25,7,50,4,30,36,48,56,8,4,52,53,52,8,57,21,58,30,0,0,0,0,0,0,0,0,0,0,0,0,0,0,0,0,0,0,0,0,0,0,0,0,0,0,0,0,0,0,0,0,0,0,0,0,0,0,0,0,0,0,0,0,0,0,0,0,0,0,0,0,0,0,0,0,0,0,0,0,0,0,0,0],"split_type":[0,0,0,0,0,0,0,0,0,0,0,0,0,0,0,0,0,0,0,0,0,0,0,0,0,0,0,0,0,0,0,0,0,0,0,0,0,0,0,0,0,0,0,0,0,0,0,0,0,0,0,0,0,0,0,0,0,0,0,0,0,0,0,0,0,0,0,0,0,0,0,0,0,0,0,0,0,0,0,0,0,0,0,0,0,0,0,0,0,0,0,0,0,0,0,0,0,0,0,0,0,0,0,0,0,0,0,0,0,0,0,0,0,0,0,0,0,0,0,0,0,0,0,0,0,0,0],"sum_hessian":[3.4498428E7,1.6845038E7,1.7653392E7,4.1220793E4,1.6803818E7,1.5871921E7,1.7814706E6,1.3191481E4,2.8029312E4,7.8359105E6,8.967907E6,1.5222581E7,6.4934E5,1.7680458E6,1.3424984E4,6.3193433E3,6.8721387E3,2.690479E4,1.124523E3,8.839626E4,7.747514E6,8.814455E6,1.5345136E5,9.283096E6,5.939485E6,6.349577E5,1.4382313E4,7.9759795E3,1.7600698E6,4.1070557E3,9.317929E3,5.435934E3,8.8340936E2,6.149005E3,7.2313354E2,1.4690965E4,1.2213824E4,8.976504E2,2.2687262E2,8.355182E4,4.8444404E3,2.9881718E6,4.7593425E6,2.2783308E6,6.5361245E6,8.879241E4,6.4658957E4,1.0168554E4,9.272928E6,4.379046E6,1.5604388E6,5.2082758E4,5.8287494E5,1.0427382E4,3.954932E3,7.149332E3,8.2664746E2,8.058358E5,9.5423394E5,2.9921968E3,1.1148586E3,8.4579795E3,8.5994904E2,1.7258293E3,3.7101047E3,8.474955E2,3.5913864E1,7.638627E2,5.3851426E3,6.759924E2,4.7141163E1,3.4107844E3,1.1280181E4,9.593586E3,2.6202388E3,3.906882E2,5.0696216E2,2.080514E1,2.0606747E2,1.1489923E4,7.20619E4,2.4996555E3,2.3447847E3,2.974759E6,1.3412606E4,3.4046452E6,1.3546974E6,1.9923875E6,2.8594325E5,6.030623E6,5.0550138E5,1.7790723E4,7.100169E4,5.1529363E4,1.3129596E4,7.0876826E3,3.0808713E3,3.3667878E6,5.90614E6,3.6665335E6,7.125127E5,1.5359475E6,2.4491324E4,4.5796344E4,6.2864146E3,1.1175288E5,4.7112206E5,6.7195325E2,9.755429E3,1.2644236E3,2.6905083E3,1.7673495E3,5.3819824E3,2.5588043E2,5.70767E2,7.864253E5,1.9410451E4,1.1626686E5,8.3796706E5,1.0215903E3,1.9706067E3,5.331412E1,1.0615444E3,4.9990555E2,7.9580737E3,6.770325E2,1.8291653E2],"tree_param":{"num_deleted":"0","num_feature":"79","num_nodes":"127","size_leaf_vector":"1"}},{"base_weights":[1.7760627E-7,2.8082006E-2,-1.3234027E-2,5.0817996E-1,2.6633378E-2,7.692522E-3,-2.6463995E-2,1.4114686E0,5.540682E-2,1.5804651E-1,2.4773676E-2,5.8180404E-1,6.189964E-3,-1.41504025E-2,-5.3417988E-2,1.1311707E0,2.6855857E0,5.530662E-1,-1.4329503E-1,3.4887034E-1,8.087673E-2,-1.1377596E-1,2.6214335E-2,3.9120954E-1,2.5226095E0,5.072453E-3,2.4662569E-1,9.506477E-2,-1.7445697E-2,-5.065811E-1,-5.146654E-2,1.3973169E0,-7.9316095E-2,3.0902247E0,1.5550613E0,4.0063134E-1,1.7143382E0,-2.2685343E-1,8.0511546E-1,5.166344E-1,1.4904462E-1,4.496015E-1,5.4248046E-2,-9.384262E-2,-4.6347326E-1,3.8875755E-2,1.1523802E-2,1.022545E0,1.2199026E-1,3.060174E0,1.2422136E0,3.8902927E-2,-3.0547488E-3,1.690084E-1,4.6297225E-1,1.09153636E-1,-7.358751E-1,-9.490893E-4,-2.6363777E-2,-3.2381925E-1,-9.0980834E-1,-3.1760555E-2,-7.577919E-2,4.0846284E-2,1.0263729E-1,-1.2108123E-2,4.1526657E-2,1.6653304E-1,8.648749E-2,1.0032413E-1,-2.994594E-2,2.5126034E-2,-3.0719504E-2,4.8907217E-2,1.503091E-1,-5.227472E-3,-3.1807385E-2,7.226738E-2,-3.705039E-3,3.621146E-2,1.2848518E-2,6.2612975E-3,6.1204374E-2,9.559612E-2,1.9376403E-2,2.0678977E-3,2.8039021E-2,-2.9353262E-3,-1.5139482E-2,1.3191621E-1,-2.5562495E-2,5.8228555E-3,1.7940849E-3,7.782516E-4,-1.736193E-3,7.2693445E-2,-9.132994E-3,9.326343E-3,-3.192672E-2,1.6294333E-1,6.0746994E-2,9.118976E-2,-1.0521097E-2,4.0194457E-3,1.1919191E-3,8.1237675E-5,-3.0857828E-3,-7.991369E-3,1.0962406E-2,6.71122E-2,1.6927332E-2,2.3778474E-3,1.0284515E-2,-1.7218817E-2,-9.46154E-2,-6.0335535E-4,6.414259E-4,-8.3716324E-4,-2.0172277E-3,-1.8575897E-2,9.9326424E-2,-7.2334774E-2,-2.4662131E-2,-1.8870306E-3,4.92314E-3,-1.0051892E-2,-3.3401952E-3],"categories":[],"categories_nodes":[],"categories_segments":[],"categories_sizes":[],"default_left":[0,1,0,0,0,1,1,0,0,1,0,1,0,1,1,0,0,0,0,0,0,0,0,1,1,0,0,0,0,0,0,0,1,1,0,0,0,0,0,0,1,0,0,0,0,1,0,0,0,0,0,0,1,1,1,0,0,1,0,1,0,0,0,0,0,0,0,0,0,0,0,0,0,0,0,0,0,0,0,0,0,0,0,0,0,0,0,0,0,0,0,0,0,0,0,0,0,0,0,0,0,0,0,0,0,0,0,0,0,0,0,0,0,0,0,0,0,0,0,0,0,0,0,0,0,0,0],"id":6,"left_children":[1,3,5,7,9,11,13,15,17,19,21,23,25,27,29,31,33,35,37,39,41,43,45,47,49,51,53,55,57,59,61,63,65,67,69,71,73,75,77,79,81,83,85,87,89,91,93,95,97,99,101,103,105,107,109,111,113,115,117,119,121,123,125,-1,-1,-1,-1,-1,-1,-1,-1,-1,-1,-1,-1,-1,-1,-1,-1,-1,-1,-1,-1,-1,-1,-1,-1,-1,-1,-1,-1,-1,-1,-1,-1,-1,-1,-1,-1,-1,-1,-1,-1,-1,-1,-1,-1,-1,-1,-1,-1,-1,-1,-1,-1,-1,-1,-1,-1,-1,-1,-1,-1,-1,-1,-1,-1],"loss_changes":[1.282102E4,7.6853604E3,6.4917607E3,1.3595675E4,2.6924756E3,7.834634E3,4.7680195E3,3.9608809E3,2.1898447E3,2.2638413E3,2.1683774E3,8.768685E3,2.4339226E3,3.5489214E3,3.9837266E3,2.9316855E3,9.104424E2,1.117883E3,1.2543903E3,1.4839502E3,1.0747985E3,7.792551E2,1.9998379E3,3.6693015E3,1.4552607E3,2.4790864E3,7.0364746E2,3.381246E3,1.4082349E3,1.4231797E3,2.14904E3,2.835962E3,2.4334654E2,4.7586035E2,5.1593445E2,5.7811975E2,6.9409106E2,7.2806915E2,7.215702E2,1.2969946E3,5.172158E2,6.6851086E2,6.6658356E2,7.764987E2,8.947665E2,1.3413428E3,9.3019214E2,3.3551934E3,7.4302515E2,5.4317285E2,5.313622E2,1.091513E3,1.9956649E3,5.0959985E2,1.2100596E3,1.6887566E3,2.1795051E3,5.1451416E2,8.356958E2,1.4656427E3,1.3465029E3,1.9293257E3,2.2575088E3,0E0,0E0,0E0,0E0,0E0,0E0,0E0,0E0,0E0,0E0,0E0,0E0,0E0,0E0,0E0,0E0,0E0,0E0,0E0,0E0,0E0,0E0,0E0,0E0,0E0,0E0,0E0,0E0,0E0,0E0,0E0,0E0,0E0,0E0,0E0,0E0,0E0,0E0,0E0,0E0,0E0,0E0,0E0,0E0,0E0,0E0,0E0,0E0,0E0,0E0,0E0,0E0,0E0,0E0,0E0,0E0,0E0,0E0,0E0,0E0,0E0,0E0,0E0,0E0],"parents":[2147483647,0,0,1,1,2,2,3,3,4,4,5,5,6,6,7,7,8,8,9,9,10,10,11,11,12,12,13,13,14,14,15,15,16,16,17,17,18,18,19,19,20,20,21,21,22,22,23,23,24,24,25,25,26,26,27,27,28,28,29,29,30,30,31,31,32,32,33,33,34,34,35,35,36,36,37,37,38,38,39,39,40,40,41,41,42,42,43,43,44,44,45,45,46,46,47,47,48,48,49,49,50,50,51,51,52,52,53,53,54,54,55,55,56,56,57,57,58,58,59,59,60,60,61,61,62,62],"right_children":[2,4,6,8,10,12,14,16,18,20,22,24,26,28,30,32,34,36,38,40,42,44,46,48,50,52,54,56,58,60,62,64,66,68,70,72,74,76,78,80,82,84,86,88,90,92,94,96,98,100,102,104,106,108,110,112,114,116,118,120,122,124,126,-1,-1,-1,-1,-1,-1,-1,-1,-1,-1,-1,-1,-1,-1,-1,-1,-1,-1,-1,-1,-1,-1,-1,-1,-1,-1,-1,-1,-1,-1,-1,-1,-1,-1,-1,-1,-1,-1,-1,-1,-1,-1,-1,-1,-1,-1,-1,-1,-1,-1,-1,-1,-1,-1,-1,-1,-1,-1,-1,-1,-1,-1,-1,-1],"split_conditions":[-3.272466E-1,-1.2559617E1,-1.966146E-1,-2.2323174E0,-2.5701916E0,-1.2559617E1,4.2842487E-1,1.5573767E0,-1.954611E-1,-7.474496E-1,-2.9173207E0,1.0005926E0,3.2503765E0,-3.377498E0,-1.2559617E1,-6.9830805E-1,-8.1971693E-1,1.0396179E-1,4.7654927E-1,-9.7231455E-2,-2.9367008E0,1.7962759E0,-1.4936796E-1,-1.4734813E0,-1.3823583E0,-9.5281816E-1,1.1467093E0,1.1179872E0,-1.8571237E-1,3.5963287E0,4.217107E-1,2.2397983E0,5.506951E-1,-1.1856997E0,-3.9255524E-1,-7.7888775E-1,4.8957896E-1,2.5260804E0,1.3617858E0,-7.827171E-1,2.4858704E0,-2.6101732E0,1.3640192E0,2.7325454E0,-2.6297946E0,-1.7917621E0,1.3532537E0,1.5571545E0,3.5963287E0,1.3106901E-2,-3.19125E-1,-2.0421548E-1,1.5170227E0,-2.7612596E0,-1.7868853E1,1.3702098E-1,3.2047327E0,-4.5002606E-2,4.1208664E-1,1.6450562E0,-3.310657E-3,1.8391128E0,-1.5228812E0,4.0846284E-2,1.0263729E-1,-1.2108123E-2,4.1526657E-2,1.6653304E-1,8.648749E-2,1.0032413E-1,-2.994594E-2,2.5126034E-2,-3.0719504E-2,4.8907217E-2,1.503091E-1,-5.227472E-3,-3.1807385E-2,7.226738E-2,-3.705039E-3,3.621146E-2,1.2848518E-2,6.2612975E-3,6.1204374E-2,9.559612E-2,1.9376403E-2,2.0678977E-3,2.8039021E-2,-2.9353262E-3,-1.5139482E-2,1.3191621E-1,-2.5562495E-2,5.8228555E-3,1.7940849E-3,7.782516E-4,-1.736193E-3,7.2693445E-2,-9.132994E-3,9.326343E-3,-3.192672E-2,1.6294333E-1,6.0746994E-2,9.118976E-2,-1.0521097E-2,4.0194457E-3,1.1919191E-3,8.1237675E-5,-3.0857828E-3,-7.991369E-3,1.0962406E-2,6.71122E-2,1.6927332E-2,2.3778474E-3,1.0284515E-2,-1.7218817E-2,-9.46154E-2,-6.0335535E-4,6.414259E-4,-8.3716324E-4,-2.0172277E-3,-1.8575897E-2,9.9326424E-2,-7.2334774E-2,-2.4662131E-2,-1.8870306E-3,4.92314E-3,-1.0051892E-2,-3.3401952E-3],"split_indices":[6,75,36,36,4,75,45,17,7,8,58,15,60,15,75,52,52,17,17,61,1,36,4,42,42,56,76,38,4,7,4,50,8,42,29,52,21,7,66,1,50,53,49,38,20,8,19,7,7,59,30,48,66,8,8,5,1,27,6,15,59,60,8,0,0,0,0,0,0,0,0,0,0,0,0,0,0,0,0,0,0,0,0,0,0,0,0,0,0,0,0,0,0,0,0,0,0,0,0,0,0,0,0,0,0,0,0,0,0,0,0,0,0,0,0,0,0,0,0,0,0,0,0,0,0,0,0],"split_type":[0,0,0,0,0,0,0,0,0,0,0,0,0,0,0,0,0,0,0,0,0,0,0,0,0,0,0,0,0,0,0,0,0,0,0,0,0,0,0,0,0,0,0,0,0,0,0,0,0,0,0,0,0,0,0,0,0,0,0,0,0,0,0,0,0,0,0,0,0,0,0,0,0,0,0,0,0,0,0,0,0,0,0,0,0,0,0,0,0,0,0,0,0,0,0,0,0,0,0,0,0,0,0,0,0,0,0,0,0,0,0,0,0,0,0,0,0,0,0,0,0,0,0,0,0,0,0],"sum_hessian":[3.4498428E7,1.1050414E7,2.3448016E7,3.3241684E4,1.1017172E7,9.082205E6,1.4365811E7,1.1098302E4,2.214338E4,1.5373358E5,1.0863438E7,2.3706787E4,9.058499E6,9.860958E6,4.5048525E6,9.0985625E3,1.9997391E3,6.3179517E3,1.5825429E4,4.4267156E4,1.0946642E5,1.1179638E5,1.0751642E7,2.1587969E4,2.118819E3,9.016592E6,4.1906805E4,2.8881453E5,9.572143E6,1.9314883E4,4.4855375E6,7.4585244E3,1.640038E3,1.4713704E3,5.2836865E2,5.5860425E3,7.319091E2,1.4544745E4,1.280684E3,2.4063234E4,2.0203922E4,7.3719443E3,1.0209448E5,1.0576866E5,6.027725E3,5.774627E6,4.977015E6,6.4528496E3,1.5135119E4,1.4913126E3,6.275064E2,1.746513E6,7.270079E6,3.0843176E4,1.106363E4,2.8400006E5,4.814451E3,3.3588908E6,6.2132525E6,1.3292079E4,6.0228037E3,2.477482E6,2.0080558E6,3.95689E3,3.5016348E3,1.3916857E3,2.4835239E2,1.2491593E3,2.2221115E2,4.3687823E2,9.149043E1,5.076919E3,5.0912357E2,4.6733954E2,2.6456955E2,1.1199424E4,3.3453208E3,7.406846E2,5.3999945E2,1.3371373E4,1.069186E4,1.9767078E4,4.368433E2,2.989727E2,7.0729717E3,9.956193E4,2.5325422E3,9.054421E4,1.5224446E4,9.061352E1,5.9371113E3,2.1457466E5,5.5600525E6,4.577061E6,3.9995375E5,4.7519834E3,1.7008663E3,1.395194E4,1.183179E3,1.3456488E3,1.4566385E2,4.4792026E2,1.7958617E2,4.6525403E5,1.281259E6,6.7329765E6,5.371025E5,4.0874255E3,2.675575E4,1.3703147E3,9.693315E3,1.7337622E5,1.1062386E5,3.5977625E3,1.2166888E3,1.85886E6,1.5000308E6,3.6805672E6,2.5326855E6,1.3024028E4,2.6805072E2,2.6302961E3,3.3925073E3,2.368708E6,1.0877397E5,1.3426325E5,1.8737925E6],"tree_param":{"num_deleted":"0","num_feature":"79","num_nodes":"127","size_leaf_vector":"1"}},{"base_weights":[2.089564E-7,3.3593882E-2,-1.0061566E-2,3.155005E-2,4.5181435E-1,3.3111451E-3,-2.9006727E-2,1.5929496E-1,2.928378E-2,1.2610017E0,2.3460862E-1,5.261082E-1,2.3793639E-3,9.356462E-2,-3.2546293E-2,1.3410935E-1,7.4758834E-1,3.1154295E-2,-1.0810318E-1,1.9838545E0,4.8676902E-1,1.179834E-1,5.1897603E-1,3.4600666E-1,2.395938E0,1.7122427E-2,-1.2244668E-2,1.0770948E-1,-7.13737E-1,-3.1174006E-2,-3.1119785E-1,3.1435615E-1,8.114059E-2,5.4361045E-1,1.3718723E0,6.031401E-2,2.3938831E-2,-6.292754E-2,-2.4606627E-1,1.4148589E0,2.702347E0,1.512693E0,1.8873803E-1,1.04252614E-1,1.8418205E0,4.72123E-1,1.7316163E0,8.931075E-1,9.0441205E-2,3.0477893E0,1.4928703E0,1.529426E-2,1.8897256E-1,-5.598044E-3,-5.4426767E-2,4.968942E-2,2.1247084E-1,-3.782653E-1,-1.7766488E0,-2.5707558E-2,-8.451386E-2,-7.831346E-1,-1.9413829E-1,5.4265372E-3,2.4385994E-2,1.6366668E-2,2.3420833E-3,4.4776168E-2,1.4958121E-2,-2.8311387E-3,9.046271E-2,3.7795793E-2,2.8224664E-3,1.3959684E-3,-1.2640919E-3,-5.2572507E-3,5.103936E-3,-9.831308E-3,-3.3730067E-2,1.146367E-1,4.852487E-2,1.4308932E-1,6.446822E-2,1.1367964E-1,4.3172542E-2,5.9143003E-2,-6.735202E-3,-5.369266E-3,9.329492E-3,1.4170313E-1,3.9958996E-3,1.4153637E-2,4.0074546E-2,1.371042E-1,4.949507E-2,1.0440569E-1,3.3253383E-2,1.1393495E-2,-1.9339599E-2,1.6235958E-1,4.5389377E-2,1.2411171E-1,3.7162658E-2,9.7290863E-4,-1.5433979E-3,7.6101567E-3,2.209622E-2,1.0583234E-3,-6.3163426E-4,-2.1399318E-3,-5.6344285E-3,4.4286377E-3,-4.938778E-3,9.618177E-3,4.488085E-2,-2.5748316E-2,4.5897942E-2,-1.7184271E-1,-6.487059E-2,-7.531748E-4,-2.1809994E-3,-8.027597E-3,-3.6113837E-3,-2.856316E-2,-5.902816E-2,-2.8500631E-2,-7.2107473E-3],"categories":[],"categories_nodes":[],"categories_segments":[],"categories_sizes":[],"default_left":[0,1,0,0,1,1,1,0,0,0,0,1,0,0,0,1,0,0,0,0,0,0,0,0,1,0,0,0,0,0,0,0,0,0,0,1,0,0,0,0,0,0,0,0,0,0,0,0,0,0,0,1,0,0,0,0,0,0,0,0,0,0,1,0,0,0,0,0,0,0,0,0,0,0,0,0,0,0,0,0,0,0,0,0,0,0,0,0,0,0,0,0,0,0,0,0,0,0,0,0,0,0,0,0,0,0,0,0,0,0,0,0,0,0,0,0,0,0,0,0,0,0,0,0,0,0,0],"id":7,"left_children":[1,3,5,7,9,11,13,15,17,19,21,23,25,27,29,31,33,35,37,39,41,43,45,47,49,51,53,55,57,59,61,63,65,67,69,71,73,75,77,79,81,83,85,87,89,91,93,95,97,99,101,103,105,107,109,111,113,115,117,119,121,123,125,-1,-1,-1,-1,-1,-1,-1,-1,-1,-1,-1,-1,-1,-1,-1,-1,-1,-1,-1,-1,-1,-1,-1,-1,-1,-1,-1,-1,-1,-1,-1,-1,-1,-1,-1,-1,-1,-1,-1,-1,-1,-1,-1,-1,-1,-1,-1,-1,-1,-1,-1,-1,-1,-1,-1,-1,-1,-1,-1,-1,-1,-1,-1,-1],"loss_changes":[1.1660883E4,6.79649E3,6.72568E3,2.290724E3,6.7960786E3,7.5809033E3,4.765784E3,2.0434961E3,1.9979702E3,4.5785947E3,1.01101074E3,9.323141E3,3.3493115E3,3.520764E3,4.0825967E3,1.2627732E3,7.202788E2,1.6138218E3,6.508517E2,1.7260918E3,1.2081625E3,5.1157343E2,5.029392E2,3.531212E3,1.4273008E3,2.430368E3,2.1865361E3,1.8417361E3,1.89244E3,3.0978105E3,2.890333E3,1.0718643E3,8.631988E2,3.670056E2,8.7093604E2,4.0901343E3,1.2046914E3,5.480454E2,5.4563696E2,9.1976807E2,4.1736328E2,4.374812E2,9.852845E2,3.7382486E2,2.9836664E2,5.3141113E2,2.4420691E2,2.189933E3,1.1291886E3,5.9946094E2,7.558594E2,1.4712947E3,7.572908E2,1.2684745E3,7.191907E2,1.1257463E3,1.4876787E3,7.157631E2,1.00868774E3,1.837332E3,9.2261865E2,8.7489795E2,7.866223E2,0E0,0E0,0E0,0E0,0E0,0E0,0E0,0E0,0E0,0E0,0E0,0E0,0E0,0E0,0E0,0E0,0E0,0E0,0E0,0E0,0E0,0E0,0E0,0E0,0E0,0E0,0E0,0E0,0E0,0E0,0E0,0E0,0E0,0E0,0E0,0E0,0E0,0E0,0E0,0E0,0E0,0E0,0E0,0E0,0E0,0E0,0E0,0E0,0E0,0E0,0E0,0E0,0E0,0E0,0E0,0E0,0E0,0E0,0E0,0E0,0E0,0E0,0E0,0E0],"parents":[2147483647,0,0,1,1,2,2,3,3,4,4,5,5,6,6,7,7,8,8,9,9,10,10,11,11,12,12,13,13,14,14,15,15,16,16,17,17,18,18,19,19,20,20,21,21,22,22,23,23,24,24,25,25,26,26,27,27,28,28,29,29,30,30,31,31,32,32,33,33,34,34,35,35,36,36,37,37,38,38,39,39,40,40,41,41,42,42,43,43,44,44,45,45,46,46,47,47,48,48,49,49,50,50,51,51,52,52,53,53,54,54,55,55,56,56,57,57,58,58,59,59,60,60,61,61,62,62],"right_children":[2,4,6,8,10,12,14,16,18,20,22,24,26,28,30,32,34,36,38,40,42,44,46,48,50,52,54,56,58,60,62,64,66,68,70,72,74,76,78,80,82,84,86,88,90,92,94,96,98,100,102,104,106,108,110,112,114,116,118,120,122,124,126,-1,-1,-1,-1,-1,-1,-1,-1,-1,-1,-1,-1,-1,-1,-1,-1,-1,-1,-1,-1,-1,-1,-1,-1,-1,-1,-1,-1,-1,-1,-1,-1,-1,-1,-1,-1,-1,-1,-1,-1,-1,-1,-1,-1,-1,-1,-1,-1,-1,-1,-1,-1,-1,-1,-1,-1,-1,-1,-1,-1,-1,-1,-1,-1],"split_conditions":[-5.5046463E-1,3.150423E0,2.086438E-1,-2.5701916E0,-1.0984213E0,-1.2559617E1,-3.377498E0,5.2003007E0,2.4333534E0,-1.9443702E0,6.584869E-1,1.0005926E0,6.2135956E-3,1.1179872E0,2.540347E0,-1.03451E0,1.2945968E0,-7.914592E-1,4.310212E-1,2.095362E-1,4.2300668E-1,1.9298223E0,1.5573767E0,-2.4905603E0,-1.870828E0,2.2376206E0,9.9272054E-1,2.024428E-1,3.2047327E0,1.2279805E0,-1.2773366E0,4.0981904E-1,-2.739508E0,-1.7418547E0,-2.342587E-1,-1.2559617E1,1.5051694E0,3.685995E0,-1.2569828E-1,5.19527E-1,1.3106901E-2,1.011971E-1,-1.954611E-1,-2.4329153E-1,-7.558558E-1,6.3360596E-1,6.096796E-2,-9.15859E-1,1.620261E0,-7.7888775E-1,-5.0788975E-1,1.3617858E0,1.6838353E0,-9.6712905E-1,1.9186308E0,1.5162791E0,6.917822E-1,-3.992128E-1,-6.992977E-1,4.027443E-1,-1.1638622E0,2.3652842E0,-2.4485288E0,5.4265372E-3,2.4385994E-2,1.6366668E-2,2.3420833E-3,4.4776168E-2,1.4958121E-2,-2.8311387E-3,9.046271E-2,3.7795793E-2,2.8224664E-3,1.3959684E-3,-1.2640919E-3,-5.2572507E-3,5.103936E-3,-9.831308E-3,-3.3730067E-2,1.146367E-1,4.852487E-2,1.4308932E-1,6.446822E-2,1.1367964E-1,4.3172542E-2,5.9143003E-2,-6.735202E-3,-5.369266E-3,9.329492E-3,1.4170313E-1,3.9958996E-3,1.4153637E-2,4.0074546E-2,1.371042E-1,4.949507E-2,1.0440569E-1,3.3253383E-2,1.1393495E-2,-1.9339599E-2,1.6235958E-1,4.5389377E-2,1.2411171E-1,3.7162658E-2,9.7290863E-4,-1.5433979E-3,7.6101567E-3,2.209622E-2,1.0583234E-3,-6.3163426E-4,-2.1399318E-3,-5.6344285E-3,4.4286377E-3,-4.938778E-3,9.618177E-3,4.488085E-2,-2.5748316E-2,4.5897942E-2,-1.7184271E-1,-6.487059E-2,-7.531748E-4,-2.1809994E-3,-8.027597E-3,-3.6113837E-3,-2.856316E-2,-5.902816E-2,-2.8500631E-2,-7.2107473E-3],"split_indices":[6,58,36,4,52,75,15,76,14,36,77,15,4,38,36,8,60,36,75,16,66,28,17,36,42,60,19,5,1,19,8,56,1,1,61,75,19,68,62,19,59,12,7,61,20,71,12,7,7,52,29,66,76,56,19,25,8,30,23,6,8,4,75,0,0,0,0,0,0,0,0,0,0,0,0,0,0,0,0,0,0,0,0,0,0,0,0,0,0,0,0,0,0,0,0,0,0,0,0,0,0,0,0,0,0,0,0,0,0,0,0,0,0,0,0,0,0,0,0,0,0,0,0,0,0,0,0],"split_type":[0,0,0,0,0,0,0,0,0,0,0,0,0,0,0,0,0,0,0,0,0,0,0,0,0,0,0,0,0,0,0,0,0,0,0,0,0,0,0,0,0,0,0,0,0,0,0,0,0,0,0,0,0,0,0,0,0,0,0,0,0,0,0,0,0,0,0,0,0,0,0,0,0,0,0,0,0,0,0,0,0,0,0,0,0,0,0,0,0,0,0,0,0,0,0,0,0,0,0,0,0,0,0,0,0,0,0,0,0,0,0,0,0,0,0,0,0,0,0,0,0,0,0,0,0,0,0],"sum_hessian":[3.4498428E7,7.9512505E6,2.654718E7,7.912583E6,3.8667465E4,1.5562306E7,1.0984873E7,1.3792578E5,7.7746575E6,8.1818086E3,3.0485656E4,2.7686346E4,1.553462E7,3.0831262E5,1.067656E7,1.322646E5,5.6611943E3,7.6702285E6,1.0442896E5,4.2304956E3,3.951313E3,2.1620172E4,8.865484E3,2.5254977E4,2.4313684E3,7.735827E6,7.7987925E6,3.030045E5,5.308126E3,1.062424E7,5.2320496E4,3.0039281E4,1.02225305E5,4.268409E3,1.3927849E3,1.5214829E6,6.1487455E6,7.86701E4,2.5758857E4,2.362517E3,1.8679785E3,8.8854913E2,3.062764E3,2.1450375E4,1.6979707E2,8.537027E3,3.284573E2,8.040281E3,1.7214695E4,1.4107136E3,1.02065485E3,7.6543995E6,8.142753E4,6.7372125E6,1.06158E6,1.9500577E5,1.0799873E5,4.0357388E3,1.272387E3,9.636645E6,9.8759456E5,1.039726E4,4.192324E4,1.3734581E4,1.6304701E4,1.2499214E4,8.972609E4,1.7485269E3,2.5198826E3,3.2668796E2,1.0660969E3,8.405404E3,1.5130774E6,5.6886945E6,4.600514E5,6.264301E4,1.6027093E4,2.3095756E4,2.6630999E3,7.9256885E2,1.5699484E3,1.6776492E3,1.9032936E2,4.0794424E2,4.806049E2,7.5121E2,2.311554E3,6.0077837E3,1.5442591E4,1.082346E2,6.1562477E1,5.425032E3,3.1119954E3,1.3789732E2,1.9055998E2,1.287129E3,6.753152E3,1.3366167E4,3.8485286E3,1.2899961E3,1.2071748E2,4.3897418E2,5.8168066E2,7.021086E6,6.333136E5,7.10947E4,1.0332824E4,1.4022202E6,5.3349925E6,8.8495806E5,1.7662186E5,1.5453348E5,4.0472285E4,1.0492085E5,3.077879E3,3.6512747E3,3.8446405E2,2.8363342E2,9.887536E2,6.044712E6,3.5919335E6,1.373759E5,8.502186E5,6.7834185E3,3.613841E3,4.914137E3,3.7009098E4],"tree_param":{"num_deleted":"0","num_feature":"79","num_nodes":"127","size_leaf_vector":"1"}},{"base_weights":[2.3918557E-7,2.6815718E-2,-1.1750711E-2,3.706083E-1,2.4575053E-2,2.211599E-3,-3.3475194E-2,1.4352977E-1,1.0416695E0,2.1929184E-2,1.9403873E-1,2.3337387E-2,-5.141453E-3,-1.1106309E-2,-5.411929E-2,4.155309E-1,8.396043E-2,1.6528639E0,5.271414E-1,4.7359545E-2,1.30429845E-2,1.5879919E-1,4.6254942E-1,7.393167E-1,2.115407E-2,-2.4143846E-3,-5.4844033E-2,-2.6633102E-2,2.028734E-2,-6.875504E-2,-1.2450103E-2,3.8643384E-1,3.3004472E0,1.6807061E-1,-1.0406622E-1,2.454296E0,1.1058462E0,2.644281E-1,9.9734074E-1,1.2055388E-1,4.2121436E-2,1.6729068E-2,-4.0236495E-2,1.15932554E-1,3.8202927E-1,1.2562401E0,3.6859417E-1,4.3278536E-1,2.0511215E0,1.3667369E-2,6.654533E-2,1.4670996E-2,-9.595512E-3,-5.2903205E-2,-8.7103885E-1,-3.4455135E-2,-7.3582365E-4,5.2448846E-2,-2.9760338E-3,-5.9620574E-2,-1.595257E-1,-1.912169E-2,1.20060466E-1,2.330222E-3,2.7386213E-2,1.957365E-1,-6.88804E-2,4.392292E-3,2.0008683E-2,-6.3355104E-3,7.262533E-2,1.6998926E-1,1.0569433E-1,4.1434504E-2,1.2279363E-1,7.530298E-3,6.489837E-2,1.0522299E-1,3.8389295E-2,8.241048E-3,-2.2796037E-4,3.6779882E-3,1.6936973E-3,1.8457201E-3,4.0328913E-4,2.895856E-4,-3.1677086E-3,4.7650398E-4,9.355421E-3,2.8674442E-2,7.421856E-3,9.708152E-2,2.4299381E-2,1.6747562E-2,7.902868E-2,5.1206935E-2,9.881358E-3,1.2097471E-1,2.6743839E-2,8.4152445E-4,-4.4030696E-3,-1.0377549E-2,3.4503003E-3,-4.7585317E-3,9.246037E-4,1.0099764E-3,-6.798789E-4,-5.338151E-3,-1.9660292E-3,-9.352154E-2,-2.0937921E-2,-1.156163E-3,-2.855824E-3,-1.5646387E-2,3.672615E-5,3.1635307E-3,-6.927842E-3,8.758838E-5,-8.23615E-3,2.1414025E-2,-3.0215054E-3,-7.1379277E-3,-2.72625E-2,-2.6450522E-4,-4.772769E-3,7.857374E-3,-5.3578014E-3],"categories":[],"categories_nodes":[],"categories_segments":[],"categories_sizes":[],"default_left":[0,0,0,1,0,0,0,0,0,0,1,1,1,0,0,0,0,0,0,1,0,0,1,1,0,0,0,0,0,0,0,0,0,0,0,0,0,1,1,1,0,0,0,0,0,0,0,1,0,0,0,0,0,0,0,0,1,0,0,0,0,0,0,0,0,0,0,0,0,0,0,0,0,0,0,0,0,0,0,0,0,0,0,0,0,0,0,0,0,0,0,0,0,0,0,0,0,0,0,0,0,0,0,0,0,0,0,0,0,0,0,0,0,0,0,0,0,0,0,0,0,0,0,0,0,0,0],"id":8,"left_children":[1,3,5,7,9,11,13,15,17,19,21,23,25,27,29,31,33,35,37,39,41,43,45,47,49,51,53,55,57,59,61,63,65,67,69,71,73,75,77,79,81,83,85,87,89,91,93,95,97,99,101,103,105,107,109,111,113,115,117,119,121,123,125,-1,-1,-1,-1,-1,-1,-1,-1,-1,-1,-1,-1,-1,-1,-1,-1,-1,-1,-1,-1,-1,-1,-1,-1,-1,-1,-1,-1,-1,-1,-1,-1,-1,-1,-1,-1,-1,-1,-1,-1,-1,-1,-1,-1,-1,-1,-1,-1,-1,-1,-1,-1,-1,-1,-1,-1,-1,-1,-1,-1,-1,-1,-1,-1],"loss_changes":[1.0870709E4,8.0972227E3,7.275824E3,1.037179E4,4.6825913E3,2.268287E3,4.3337646E3,8.2399585E2,5.4108867E3,2.3237085E3,1.5190625E3,5.893575E3,1.4681926E3,2.19556E3,2.976459E3,7.656752E2,6.59838E2,3.4453086E3,1.1540667E3,1.02088135E3,1.4965369E3,1.3580388E3,1.3884614E3,4.6080376E3,1.2773296E3,1.259875E3,8.924535E2,6.1048535E2,1.1151946E3,2.994787E3,1.1215525E3,4.958246E2,2.6717767E2,5.3673083E2,4.5471368E2,1.0194453E3,1.7476885E3,7.0522534E2,8.495813E2,9.8488794E2,6.4429834E2,1.246316E3,5.24667E2,9.01688E2,1.02241016E3,1.0396162E3,6.7858545E2,1.2919763E3,1.2111582E3,1.0382411E3,3.5894678E2,1.275408E3,8.620967E2,4.1118787E2,6.033208E2,5.943789E2,3.2091104E2,1.2931741E3,6.614076E2,1.2961973E3,2.1357666E3,1.275247E3,5.1246173E2,0E0,0E0,0E0,0E0,0E0,0E0,0E0,0E0,0E0,0E0,0E0,0E0,0E0,0E0,0E0,0E0,0E0,0E0,0E0,0E0,0E0,0E0,0E0,0E0,0E0,0E0,0E0,0E0,0E0,0E0,0E0,0E0,0E0,0E0,0E0,0E0,0E0,0E0,0E0,0E0,0E0,0E0,0E0,0E0,0E0,0E0,0E0,0E0,0E0,0E0,0E0,0E0,0E0,0E0,0E0,0E0,0E0,0E0,0E0,0E0,0E0,0E0,0E0,0E0],"parents":[2147483647,0,0,1,1,2,2,3,3,4,4,5,5,6,6,7,7,8,8,9,9,10,10,11,11,12,12,13,13,14,14,15,15,16,16,17,17,18,18,19,19,20,20,21,21,22,22,23,23,24,24,25,25,26,26,27,27,28,28,29,29,30,30,31,31,32,32,33,33,34,34,35,35,36,36,37,37,38,38,39,39,40,40,41,41,42,42,43,43,44,44,45,45,46,46,47,47,48,48,49,49,50,50,51,51,52,52,53,53,54,54,55,55,56,56,57,57,58,58,59,59,60,60,61,61,62,62],"right_children":[2,4,6,8,10,12,14,16,18,20,22,24,26,28,30,32,34,36,38,40,42,44,46,48,50,52,54,56,58,60,62,64,66,68,70,72,74,76,78,80,82,84,86,88,90,92,94,96,98,100,102,104,106,108,110,112,114,116,118,120,122,124,126,-1,-1,-1,-1,-1,-1,-1,-1,-1,-1,-1,-1,-1,-1,-1,-1,-1,-1,-1,-1,-1,-1,-1,-1,-1,-1,-1,-1,-1,-1,-1,-1,-1,-1,-1,-1,-1,-1,-1,-1,-1,-1,-1,-1,-1,-1,-1,-1,-1,-1,-1,-1,-1,-1,-1,-1,-1,-1,-1,-1,-1,-1,-1,-1],"split_conditions":[-5.947429E-1,-2.4905603E0,2.3736873E-1,1.2956901E0,2.5195312E0,-4.921576E-1,-9.574797E-2,-2.7709988E-1,-1.0203902E0,-7.36488E-1,5.304244E-1,-1.2559617E1,1.4834776E0,-1.0950601E-1,7.012979E-1,3.2503765E0,-6.3902175E-1,3.7437743E-1,1.1970121E0,-1.5228812E0,1.540012E0,3.10265E-2,-1.2658972E0,4.7654927E-1,-4.2731166E-1,-5.5046463E-1,2.3770204E0,5.0704396E-1,-2.2946204E-1,1.7018107E0,3.394251E0,-3.2879695E-2,-3.9255524E-1,4.8473725E-1,2.76799E0,-5.61234E-1,2.2376206E0,6.8764585E-1,-1.7868853E1,-4.7228698E-2,-3.3070853E-1,-5.5200756E-1,-1.5836635E-1,-1.6690588E-1,-4.3074116E-2,3.2613456E-1,8.2E1,-1.4734813E0,1.2723459E0,1.5301235E0,-2.6638122E0,-1.8661792E0,-1.2894243E0,-9.074526E-1,-2.2835488E0,4.3775824E-1,-3.573596E0,2.982467E0,2.768952E0,-2.4905603E0,4.053263E0,2.7466736E0,4.053263E0,2.330222E-3,2.7386213E-2,1.957365E-1,-6.88804E-2,4.392292E-3,2.0008683E-2,-6.3355104E-3,7.262533E-2,1.6998926E-1,1.0569433E-1,4.1434504E-2,1.2279363E-1,7.530298E-3,6.489837E-2,1.0522299E-1,3.8389295E-2,8.241048E-3,-2.2796037E-4,3.6779882E-3,1.6936973E-3,1.8457201E-3,4.0328913E-4,2.895856E-4,-3.1677086E-3,4.7650398E-4,9.355421E-3,2.8674442E-2,7.421856E-3,9.708152E-2,2.4299381E-2,1.6747562E-2,7.902868E-2,5.1206935E-2,9.881358E-3,1.2097471E-1,2.6743839E-2,8.4152445E-4,-4.4030696E-3,-1.0377549E-2,3.4503003E-3,-4.7585317E-3,9.246037E-4,1.0099764E-3,-6.798789E-4,-5.338151E-3,-1.9660292E-3,-9.352154E-2,-2.0937921E-2,-1.156163E-3,-2.855824E-3,-1.5646387E-2,3.672615E-5,3.1635307E-3,-6.927842E-3,8.758838E-5,-8.23615E-3,2.1414025E-2,-3.0215054E-3,-7.1379277E-3,-2.72625E-2,-2.6450522E-4,-4.772769E-3,7.857374E-3,-5.3578014E-3],"split_indices":[4,36,6,58,58,36,56,71,52,6,73,75,66,68,59,60,30,66,74,8,19,38,52,17,30,6,33,59,18,6,59,73,29,5,22,5,60,15,8,46,13,36,23,61,8,66,9,42,52,72,7,58,56,8,8,36,58,1,37,36,5,6,5,0,0,0,0,0,0,0,0,0,0,0,0,0,0,0,0,0,0,0,0,0,0,0,0,0,0,0,0,0,0,0,0,0,0,0,0,0,0,0,0,0,0,0,0,0,0,0,0,0,0,0,0,0,0,0,0,0,0,0,0,0,0,0,0],"split_type":[0,0,0,0,0,0,0,0,0,0,0,0,0,0,0,0,0,0,0,0,0,0,0,0,0,0,0,0,0,0,0,0,0,0,0,0,0,0,0,0,0,0,0,0,0,0,0,0,0,0,0,0,0,0,0,0,0,0,0,0,0,0,0,0,0,0,0,0,0,0,0,0,0,0,0,0,0,0,0,0,0,0,0,0,0,0,0,0,0,0,0,0,0,0,0,0,0,0,0,0,0,0,0,0,0,0,0,0,0,0,0,0,0,0,0,0,0,0,0,0,0,0,0,0,0,0,0],"sum_hessian":[3.4498428E7,1.0511456E7,2.3986974E7,6.806367E4,1.0443392E7,1.460217E7,9.384804E6,5.0855902E4,1.7207771E4,1.0282845E7,1.6054692E5,3.7701852E6,1.0831985E7,4.5042405E6,4.8805635E6,9.135605E3,4.1720297E4,7.864055E3,9.343717E3,2.6627195E6,7.6201255E6,1.4192248E5,1.8624428E4,1.1460873E4,3.7587242E6,1.0268573E7,5.634123E5,3.0137088E6,1.4905316E6,3.6119225E6,1.2686409E6,9.045507E3,9.009841E1,2.8825748E4,1.2894549E4,3.188751E3,4.675304E3,5.9954546E3,3.3482625E3,1.7782816E5,2.4848912E6,7.127049E6,4.9307653E5,1.19060875E5,2.2861615E4,1.9700427E3,1.6654385E4,9.291131E3,2.1697422E3,3.2265482E6,5.3217606E5,3.038753E6,7.22982E6,5.620768E5,1.335497E3,2.3146038E6,6.991049E5,6.256174E5,8.649143E5,3.281681E6,3.3024156E5,1.2078304E6,6.081048E4,2.9118018E3,6.1337056E3,7.9784904E1,1.0313507E1,2.1422566E4,7.4031807E3,1.27105625E4,1.839862E2,8.417626E2,2.3469883E3,3.880304E3,7.950001E2,5.4017173E3,5.9373737E2,5.736141E2,2.7746484E3,1.3135298E5,4.6475176E4,5.1640734E5,1.9684839E6,2.140263E6,4.986786E6,1.6485148E5,3.2822503E5,4.7721703E4,7.133917E4,1.2563068E4,1.0298546E4,1.0416423E3,9.2840045E2,1.620581E4,4.4857486E2,2.6425483E3,6.6485825E3,1.745159E3,4.245831E2,3.1292492E6,9.729895E4,4.7343047E3,5.2744175E5,1.02155086E5,2.936598E6,8.5611475E5,6.373705E6,1.131985E5,4.488783E5,4.151081E2,9.203889E2,1.543016E6,7.715878E5,3.276183E3,6.958287E5,5.920731E5,3.35443E4,8.403521E5,2.4562178E4,5.435121E3,3.2762458E6,3.1648553E5,1.3756034E4,1.022547E6,1.852834E5,5.2277832E4,8.532647E3],"tree_param":{"num_deleted":"0","num_feature":"79","num_nodes":"127","size_leaf_vector":"1"}},{"base_weights":[2.615098E-7,1.5468355E-2,-1.8667454E-2,1.4473645E-2,3.607267E-1,-2.2443935E-2,6.4282775E-2,3.2677475E-2,4.1281097E-3,1.139608E0,1.7774606E-1,-1.6285071E-2,-7.307686E-2,7.427298E-2,-4.0695354E-1,5.7290936E-1,3.1342916E-2,-1.8337598E-1,4.9349456E-3,1.8329684E0,3.8771462E-1,8.508558E-2,4.1854787E-1,-6.6653057E-3,-4.2887334E-2,-7.018206E-2,-4.8718935E-1,2.3112673E-1,5.8685854E-2,-6.6101596E-2,-1.3118724E0,3.200539E-1,1.9498656E0,2.5258858E-2,8.205963E-2,-1.4211647E-1,-5.4787296E-1,2.619544E-2,-1.8395466E-3,1.2562402E0,2.3448236E0,1.3664339E0,9.243422E-2,7.526327E-2,1.4262006E0,2.6706088E-1,6.643038E-1,7.045368E-1,-7.359548E-3,-6.4554155E-2,-2.3575287E-2,1.1164342E0,-7.0937954E-2,-9.960167E-1,-2.320378E-1,1.7690927E-1,5.54934E-1,2.1301657E-2,1.0706352E-1,-9.353433E-1,-1.0304584E-4,-3.597399E-1,-1.7559042E0,6.153785E-2,9.464479E-3,1.1444356E-1,2.9824615E-2,5.51286E-3,1.1411842E-3,7.978142E-3,3.6186452E-3,-4.423491E-3,-1.8347071E-2,1.2371719E-1,-3.0214017E-2,1.20602865E-2,1.2315735E-3,1.4734651E-3,-3.0065933E-4,1.0692201E-1,4.3493938E-2,1.3830544E-1,9.060154E-2,1.2112274E-1,4.5047205E-2,5.095395E-2,-9.465753E-3,-3.362481E-2,4.6335408E-3,1.2029403E-1,5.6106397E-3,1.1045281E-2,7.636048E-2,3.1420715E-2,2.041898E-1,8.413973E-3,9.4821066E-2,4.8495983E-4,-9.168344E-4,-2.971033E-3,-1.6516462E-2,3.3359442E-4,-1.6660063E-3,1.6778082E-2,1.4079915E-1,-2.2862998E-3,-5.2812775E-3,-4.2683646E-2,-1.0223255E-1,-4.7278892E-2,-9.466394E-3,3.7703656E-3,1.53068155E-2,2.0437842E-2,5.1897474E-2,-2.548858E-2,1.2706922E-3,6.8646795E-3,-4.0670014E-3,-7.298281E-2,3.6288198E-2,9.835315E-3,-1.2814365E-2,1.7578121E-2,-2.9114097E-2,-1.5418053E-1,-6.257132E-2],"categories":[],"categories_nodes":[],"categories_segments":[],"categories_sizes":[],"default_left":[0,1,0,0,1,0,0,1,0,0,1,0,0,0,1,0,1,0,0,0,0,0,0,1,0,0,0,0,0,0,0,0,0,1,0,0,0,0,0,0,0,0,0,0,0,0,0,0,0,0,1,0,0,0,0,0,0,0,0,0,0,0,0,0,0,0,0,0,0,0,0,0,0,0,0,0,0,0,0,0,0,0,0,0,0,0,0,0,0,0,0,0,0,0,0,0,0,0,0,0,0,0,0,0,0,0,0,0,0,0,0,0,0,0,0,0,0,0,0,0,0,0,0,0,0,0,0],"id":9,"left_children":[1,3,5,7,9,11,13,15,17,19,21,23,25,27,29,31,33,35,37,39,41,43,45,47,49,51,53,55,57,59,61,63,65,67,69,71,73,75,77,79,81,83,85,87,89,91,93,95,97,99,101,103,105,107,109,111,113,115,117,119,121,123,125,-1,-1,-1,-1,-1,-1,-1,-1,-1,-1,-1,-1,-1,-1,-1,-1,-1,-1,-1,-1,-1,-1,-1,-1,-1,-1,-1,-1,-1,-1,-1,-1,-1,-1,-1,-1,-1,-1,-1,-1,-1,-1,-1,-1,-1,-1,-1,-1,-1,-1,-1,-1,-1,-1,-1,-1,-1,-1,-1,-1,-1,-1,-1,-1],"loss_changes":[9.96156E3,6.4791924E3,4.89701E3,3.5427996E3,7.724103E3,4.662557E3,3.2046292E3,4.914776E3,1.8146525E3,5.374343E3,9.792461E2,3.4113108E3,1.9437246E3,1.6297E3,4.358699E3,5.84814E3,2.0982632E3,7.728257E2,1.7202147E3,1.5804043E3,1.4297107E3,4.1739917E2,4.5383887E2,4.8337983E3,1.4813335E3,1.444352E3,1.4610798E3,1.0576919E3,1.096574E3,5.8895355E2,1.6340127E3,1.6900416E3,1.1942686E3,1.25676E3,5.468179E2,5.5681384E2,8.923334E2,9.704962E2,1.183553E3,8.5849E2,6.325547E2,5.614739E2,9.92809E2,4.0963242E2,2.9630362E2,4.3857635E2,5.680947E2,6.1018784E3,1.8314569E3,2.2762593E3,5.51728E2,1.359533E3,1.4072896E3,5.593262E2,2.2832065E2,6.76964E2,6.0968774E2,7.469528E2,1.5053271E3,6.3202466E2,4.811857E2,1.9505438E2,1.7620747E3,0E0,0E0,0E0,0E0,0E0,0E0,0E0,0E0,0E0,0E0,0E0,0E0,0E0,0E0,0E0,0E0,0E0,0E0,0E0,0E0,0E0,0E0,0E0,0E0,0E0,0E0,0E0,0E0,0E0,0E0,0E0,0E0,0E0,0E0,0E0,0E0,0E0,0E0,0E0,0E0,0E0,0E0,0E0,0E0,0E0,0E0,0E0,0E0,0E0,0E0,0E0,0E0,0E0,0E0,0E0,0E0,0E0,0E0,0E0,0E0,0E0,0E0,0E0,0E0],"parents":[2147483647,0,0,1,1,2,2,3,3,4,4,5,5,6,6,7,7,8,8,9,9,10,10,11,11,12,12,13,13,14,14,15,15,16,16,17,17,18,18,19,19,20,20,21,21,22,22,23,23,24,24,25,25,26,26,27,27,28,28,29,29,30,30,31,31,32,32,33,33,34,34,35,35,36,36,37,37,38,38,39,39,40,40,41,41,42,42,43,43,44,44,45,45,46,46,47,47,48,48,49,49,50,50,51,51,52,52,53,53,54,54,55,55,56,56,57,57,58,58,59,59,60,60,61,61,62,62],"right_children":[2,4,6,8,10,12,14,16,18,20,22,24,26,28,30,32,34,36,38,40,42,44,46,48,50,52,54,56,58,60,62,64,66,68,70,72,74,76,78,80,82,84,86,88,90,92,94,96,98,100,102,104,106,108,110,112,114,116,118,120,122,124,126,-1,-1,-1,-1,-1,-1,-1,-1,-1,-1,-1,-1,-1,-1,-1,-1,-1,-1,-1,-1,-1,-1,-1,-1,-1,-1,-1,-1,-1,-1,-1,-1,-1,-1,-1,-1,-1,-1,-1,-1,-1,-1,-1,-1,-1,-1,-1,-1,-1,-1,-1,-1,-1,-1,-1,-1,-1,-1,-1,-1,-1,-1,-1,-1],"split_conditions":[6.685855E-2,3.150423E0,1.8549763E0,-3.435872E-1,-1.0984213E0,1.2095467E0,3.2047327E0,-1.2559617E1,-3.573596E0,-1.9443702E0,6.584869E-1,5.646314E-1,2.2800205E0,-2.0250037E0,1.1845952E0,2.4858704E0,-3.8333157E-1,1.7962759E0,-8.937041E-1,-8.429372E-2,4.2300668E-1,1.9298223E0,6.958555E-1,-1.2559617E1,-2.312544E-1,-2.3305016E0,-1.0759125E0,3.394251E0,3.4659487E-1,-1.4265598E0,2.8916988E0,-1.6375276E0,3.0509976E-1,-1.9923944E0,-1.6953726E0,2.7325454E0,-2.6297946E0,-2.7733068E0,-1.2894243E0,4.3466517E-1,-4.7423616E-1,-2.1514076E-1,-1.954611E-1,-2.5906403E0,-7.558558E-1,1.5573767E0,1.3185252E0,2.4858704E0,-1.15457594E-1,2.110562E0,-6.550365E-1,3.150423E0,5.595179E-1,2.4824455E0,-5.8719647E-1,-1.8255442E-1,2.0241735E0,-1.4466984E0,8.522101E-1,3.76E2,2.4824455E0,-1.8956782E0,-4.422627E-1,6.153785E-2,9.464479E-3,1.1444356E-1,2.9824615E-2,5.51286E-3,1.1411842E-3,7.978142E-3,3.6186452E-3,-4.423491E-3,-1.8347071E-2,1.2371719E-1,-3.0214017E-2,1.20602865E-2,1.2315735E-3,1.4734651E-3,-3.0065933E-4,1.0692201E-1,4.3493938E-2,1.3830544E-1,9.060154E-2,1.2112274E-1,4.5047205E-2,5.095395E-2,-9.465753E-3,-3.362481E-2,4.6335408E-3,1.2029403E-1,5.6106397E-3,1.1045281E-2,7.636048E-2,3.1420715E-2,2.041898E-1,8.413973E-3,9.4821066E-2,4.8495983E-4,-9.168344E-4,-2.971033E-3,-1.6516462E-2,3.3359442E-4,-1.6660063E-3,1.6778082E-2,1.4079915E-1,-2.2862998E-3,-5.2812775E-3,-4.2683646E-2,-1.0223255E-1,-4.7278892E-2,-9.466394E-3,3.7703656E-3,1.53068155E-2,2.0437842E-2,5.1897474E-2,-2.548858E-2,1.2706922E-3,6.8646795E-3,-4.0670014E-3,-7.298281E-2,3.6288198E-2,9.835315E-3,-1.2814365E-2,1.7578121E-2,-2.9114097E-2,-1.5418053E-1,-6.257132E-2],"split_indices":[6,58,52,36,52,66,1,75,58,36,77,36,36,4,8,50,15,36,6,16,66,28,13,75,13,33,52,59,68,8,4,7,19,8,36,38,20,4,56,19,46,67,7,42,20,17,20,50,47,36,39,58,7,4,72,38,78,2,38,11,4,4,23,0,0,0,0,0,0,0,0,0,0,0,0,0,0,0,0,0,0,0,0,0,0,0,0,0,0,0,0,0,0,0,0,0,0,0,0,0,0,0,0,0,0,0,0,0,0,0,0,0,0,0,0,0,0,0,0,0,0,0,0,0,0,0,0],"split_type":[0,0,0,0,0,0,0,0,0,0,0,0,0,0,0,0,0,0,0,0,0,0,0,0,0,0,0,0,0,0,0,0,0,0,0,0,0,0,0,0,0,0,0,0,0,0,0,0,0,0,0,0,0,0,0,0,0,0,0,0,0,0,0,0,0,0,0,0,0,0,0,0,0,0,0,0,0,0,0,0,0,0,0,0,0,0,0,0,0,0,0,0,0,0,0,0,0,0,0,0,0,0,0,0,0,0,0,0,0,0,0,0,0,0,0,0,0,0,0,0,0,0,0,0,0,0,0],"sum_hessian":[3.4498428E7,1.886602E7,1.5632409E7,1.8811824E7,5.4196973E4,1.4951703E7,6.8070656E5,6.816907E6,1.1994916E7,1.0309213E4,4.3887758E4,1.3330246E7,1.621457E6,6.66576E5,1.413056E4,1.6797549E4,6.8001095E6,5.1392375E4,1.1943524E7,5.3626216E3,4.946592E3,3.1693473E4,1.2194287E4,9.79003E6,3.540216E6,1.6102022E6,1.1254737E4,6.025131E4,6.063247E5,1.0265115E4,3.8654446E3,1.4192553E4,2.604997E3,6.0717355E6,7.283738E5,4.616777E4,5.224607E3,2.8860828E6,9.057441E6,2.5231458E3,2.8394758E3,1.1456522E3,3.8009395E3,3.1464086E4,2.2938647E2,7.5453354E3,4.6489517E3,9.546262E3,9.780483E6,1.6683909E6,1.8718252E6,1.024127E3,1.6091781E6,3.757856E3,7.4968813E3,5.1611207E4,8.640101E3,3.420243E5,2.6430038E5,7.234648E2,9.54165E3,1.2299299E3,2.6355146E3,1.780929E3,1.2411623E4,2.0826292E3,5.223679E2,1.6910698E5,5.9026285E6,8.091993E4,6.474539E5,3.7274824E4,8.892944E3,9.494136E1,5.1296655E3,2.0840459E4,2.8652422E6,1.065384E6,7.9920575E6,7.67085E2,1.7560607E3,1.5833287E3,1.2561471E3,3.492137E2,7.964385E2,8.856173E2,2.9153223E3,7.149514E2,3.0749135E4,1.3093402E2,9.8452446E1,7.279872E3,2.6546338E2,4.6018364E3,4.7115166E1,6.584761E3,2.9615E3,3.8294398E6,5.9510435E6,1.6367775E6,3.1613441E4,4.5610697E5,1.4157182E6,7.025375E2,3.2158948E2,9.3187006E5,6.7730806E5,3.3103203E3,4.4753564E2,4.2219943E2,7.0746816E3,2.8907371E4,2.2703836E4,6.634206E3,2.0058942E3,2.627057E3,3.3939725E5,2.2775628E5,3.65441E4,5.499876E2,1.7347713E2,5.39628E3,4.145371E3,2.929633E2,9.369667E2,7.242611E2,1.9112535E3],"tree_param":{"num_deleted":"0","num_feature":"79","num_nodes":"127","size_leaf_vector":"1"}},{"base_weights":[2.821094E-7,2.0732313E-2,-1.3508668E-2,1.7885687E-2,2.1376915E-1,-1.1621638E-3,-3.410981E-2,1.8626483E-1,1.6521111E-2,1.3227197E0,1.8511365E-1,8.823834E-3,-1.4727244E-2,-1.7091982E-2,-6.0536575E-2,1.17334634E-1,6.292319E-1,4.1065052E-2,8.90749E-3,1.9774894E0,6.4792097E-1,1.450517E-1,5.0276136E-1,6.3567406E-1,7.876474E-3,2.2269543E-2,-2.1145122E-2,-3.1118324E-2,8.770537E-3,-5.7342455E-2,-3.2013538E-1,3.7384737E-1,8.111383E-2,3.6100963E-1,1.0589111E0,6.445379E-2,3.073639E-2,1.2203815E-2,-4.2412296E-2,2.7054782E0,1.4796877E0,9.301597E-1,1.24995194E-1,1.3338989E-1,9.1154057E-1,1.4057096E0,3.3394423E-1,1.4549512E0,1.9744237E-1,5.0300006E-3,5.6091037E-2,2.055184E-3,1.0167155E-1,-1.9044355E-2,-1.2170385E-1,-3.6936987E-2,9.85745E-3,1.2088805E-2,-2.0153083E-1,-7.4607946E-2,-1.4468705E-2,-7.74626E-1,-1.4521472E-1,3.3113915E-2,9.229659E-3,8.2947983E-4,8.590939E-3,3.3451144E-2,8.336507E-3,9.675906E-2,3.6763426E-2,7.939212E-3,2.8726829E-3,1.6096724E-3,-8.465516E-3,9.2075794E-4,-5.5301696E-4,-1.0509762E-4,-3.1615912E-3,6.1504997E-2,1.4463155E-1,-2.9400581E-2,8.304679E-2,3.2011878E-2,9.407264E-2,1.9627746E-2,-4.502946E-2,7.91398E-3,-4.8710625E-3,8.567186E-2,1.8147841E-2,9.851646E-2,3.1188691E-2,-1.5438576E-2,1.9877065E-2,8.712044E-2,-1.5655858E-2,1.3426577E-2,-4.296747E-2,3.010058E-4,-7.5665615E-3,1.0554812E-2,2.5144238E-3,8.7746634E-4,-6.325179E-3,4.8204404E-3,3.2280456E-2,-7.8501547E-4,-2.6936457E-3,-1.8662436E-2,-4.142624E-3,-1.5294073E-3,-4.100302E-3,-9.648598E-3,6.326875E-4,2.5204776E-3,-4.0889144E-4,-3.1551674E-3,-5.011648E-2,2.4198126E-2,-3.796735E-3,-1.8157886E-4,-5.7955175E-3,-3.2388173E-2,-7.3371395E-2,-3.162152E-2,-3.7054538E-3],"categories":[],"categories_nodes":[],"categories_segments":[],"categories_sizes":[],"default_left":[0,0,0,0,0,0,1,0,0,1,1,1,1,0,0,0,0,0,0,0,0,1,1,1,1,0,0,0,0,0,0,0,0,0,0,0,0,0,0,0,0,0,0,1,0,0,1,1,0,0,0,0,1,0,0,0,1,1,0,0,0,0,0,0,0,0,0,0,0,0,0,0,0,0,0,0,0,0,0,0,0,0,0,0,0,0,0,0,0,0,0,0,0,0,0,0,0,0,0,0,0,0,0,0,0,0,0,0,0,0,0,0,0,0,0,0,0,0,0,0,0,0,0,0,0,0,0],"id":10,"left_children":[1,3,5,7,9,11,13,15,17,19,21,23,25,27,29,31,33,35,37,39,41,43,45,47,49,51,53,55,57,59,61,63,65,67,69,71,73,75,77,79,81,83,85,87,89,91,93,95,97,99,101,103,105,107,109,111,113,115,117,119,121,123,125,-1,-1,-1,-1,-1,-1,-1,-1,-1,-1,-1,-1,-1,-1,-1,-1,-1,-1,-1,-1,-1,-1,-1,-1,-1,-1,-1,-1,-1,-1,-1,-1,-1,-1,-1,-1,-1,-1,-1,-1,-1,-1,-1,-1,-1,-1,-1,-1,-1,-1,-1,-1,-1,-1,-1,-1,-1,-1,-1,-1,-1,-1,-1,-1],"loss_changes":[9.661907E3,7.479032E3,5.312883E3,3.0817847E3,6.285076E3,1.7691953E3,3.520162E3,3.2922393E3,2.4862644E3,2.1999824E3,2.4535513E3,4.467368E3,1.3149166E3,1.7271831E3,2.5423408E3,8.6689514E2,1.6729385E3,7.6097363E2,1.7178613E3,9.121553E2,3.6221606E2,1.5303333E3,3.2910996E3,4.0754204E3,1.030868E3,1.3139813E3,9.9693555E2,7.3602563E2,1.168344E3,2.2420352E3,2.9625625E3,6.300762E2,4.7853003E2,5.348966E2,1.5809336E3,6.371787E2,6.369209E2,1.3788276E3,5.143629E2,2.7959326E2,5.6447974E2,4.3849805E2,2.3681328E2,9.6889624E2,1.1280901E3,1.5002788E3,7.4378186E2,2.0111045E3,5.559415E2,1.0980492E3,3.7660742E2,1.2997783E3,4.75479E2,5.38391E2,9.4374817E2,7.734756E2,2.1771672E2,1.2800681E3,2.8828604E3,1.6002344E3,9.5592535E2,9.092925E2,9.322484E2,0E0,0E0,0E0,0E0,0E0,0E0,0E0,0E0,0E0,0E0,0E0,0E0,0E0,0E0,0E0,0E0,0E0,0E0,0E0,0E0,0E0,0E0,0E0,0E0,0E0,0E0,0E0,0E0,0E0,0E0,0E0,0E0,0E0,0E0,0E0,0E0,0E0,0E0,0E0,0E0,0E0,0E0,0E0,0E0,0E0,0E0,0E0,0E0,0E0,0E0,0E0,0E0,0E0,0E0,0E0,0E0,0E0,0E0,0E0,0E0,0E0,0E0,0E0,0E0],"parents":[2147483647,0,0,1,1,2,2,3,3,4,4,5,5,6,6,7,7,8,8,9,9,10,10,11,11,12,12,13,13,14,14,15,15,16,16,17,17,18,18,19,19,20,20,21,21,22,22,23,23,24,24,25,25,26,26,27,27,28,28,29,29,30,30,31,31,32,32,33,33,34,34,35,35,36,36,37,37,38,38,39,39,40,40,41,41,42,42,43,43,44,44,45,45,46,46,47,47,48,48,49,49,50,50,51,51,52,52,53,53,54,54,55,55,56,56,57,57,58,58,59,59,60,60,61,61,62,62],"right_children":[2,4,6,8,10,12,14,16,18,20,22,24,26,28,30,32,34,36,38,40,42,44,46,48,50,52,54,56,58,60,62,64,66,68,70,72,74,76,78,80,82,84,86,88,90,92,94,96,98,100,102,104,106,108,110,112,114,116,118,120,122,124,126,-1,-1,-1,-1,-1,-1,-1,-1,-1,-1,-1,-1,-1,-1,-1,-1,-1,-1,-1,-1,-1,-1,-1,-1,-1,-1,-1,-1,-1,-1,-1,-1,-1,-1,-1,-1,-1,-1,-1,-1,-1,-1,-1,-1,-1,-1,-1,-1,-1,-1,-1,-1,-1,-1,-1,-1,-1,-1,-1,-1,-1,-1,-1,-1],"split_conditions":[-2.9661697E-1,2.5195312E0,2.91244E-1,-2.2323174E0,-1.8807304E0,2.086438E-1,3.1146675E-1,1.1496639E0,-7.36488E-1,-8.094578E-1,7.144362E-1,-1.2559617E1,-1.13199E0,-1.3573575E-1,2.2800205E0,-5.222599E-1,7.5393546E-1,-2.8155178E-1,1.540012E0,-6.5437967E-1,5.1247656E-1,1.5573767E0,-1.0646693E0,-1.4734813E0,-1.7157559E-1,3.2081914E-1,1.983687E0,8.4061724E-1,3.2047327E0,7.012979E-1,-1.2170933E0,-1.5860807E0,2.4644022E-1,-1.0314606E0,-1.3584106E0,-1.2558626E0,3.2471795E0,5.5436766E-1,-1.3857031E-1,1.8330871E0,-1.5096897E0,3.5963287E0,1.0809865E0,2.324955E0,-2.6734528E-1,3.502016E-1,-2.1432093E-1,-7.183527E-1,2.3382938E0,2.7756557E0,-1.9443702E0,1.2416941E0,2.5195312E0,1.2568934E0,-1.2773366E0,1.371465E0,-2.2691844E0,-1.0464238E0,1.0244694E0,-2.4905603E0,1.8155416E0,2.6042466E0,-9.131156E-1,3.3113915E-2,9.229659E-3,8.2947983E-4,8.590939E-3,3.3451144E-2,8.336507E-3,9.675906E-2,3.6763426E-2,7.939212E-3,2.8726829E-3,1.6096724E-3,-8.465516E-3,9.2075794E-4,-5.5301696E-4,-1.0509762E-4,-3.1615912E-3,6.1504997E-2,1.4463155E-1,-2.9400581E-2,8.304679E-2,3.2011878E-2,9.407264E-2,1.9627746E-2,-4.502946E-2,7.91398E-3,-4.8710625E-3,8.567186E-2,1.8147841E-2,9.851646E-2,3.1188691E-2,-1.5438576E-2,1.9877065E-2,8.712044E-2,-1.5655858E-2,1.3426577E-2,-4.296747E-2,3.010058E-4,-7.5665615E-3,1.0554812E-2,2.5144238E-3,8.7746634E-4,-6.325179E-3,4.8204404E-3,3.2280456E-2,-7.8501547E-4,-2.6936457E-3,-1.8662436E-2,-4.142624E-3,-1.5294073E-3,-4.100302E-3,-9.648598E-3,6.326875E-4,2.5204776E-3,-4.0889144E-4,-3.1551674E-3,-5.011648E-2,2.4198126E-2,-3.796735E-3,-1.8157886E-4,-5.7955175E-3,-3.2388173E-2,-7.3371395E-2,-3.162152E-2,-3.7054538E-3],"split_indices":[4,58,6,36,33,36,45,58,6,52,74,75,39,68,36,14,74,13,19,46,8,17,52,42,15,7,36,59,1,59,8,1,78,52,52,36,37,36,23,34,61,7,23,66,14,66,76,52,7,72,36,72,58,66,8,6,44,39,61,36,66,1,52,0,0,0,0,0,0,0,0,0,0,0,0,0,0,0,0,0,0,0,0,0,0,0,0,0,0,0,0,0,0,0,0,0,0,0,0,0,0,0,0,0,0,0,0,0,0,0,0,0,0,0,0,0,0,0,0,0,0,0,0,0,0,0,0],"split_type":[0,0,0,0,0,0,0,0,0,0,0,0,0,0,0,0,0,0,0,0,0,0,0,0,0,0,0,0,0,0,0,0,0,0,0,0,0,0,0,0,0,0,0,0,0,0,0,0,0,0,0,0,0,0,0,0,0,0,0,0,0,0,0,0,0,0,0,0,0,0,0,0,0,0,0,0,0,0,0,0,0,0,0,0,0,0,0,0,0,0,0,0,0,0,0,0,0,0,0,0,0,0,0,0,0,0,0,0,0,0,0,0,0,0,0,0,0,0,0,0,0,0,0,0,0,0,0],"sum_hessian":[3.4498428E7,1.361052E7,2.088791E7,1.341273E7,1.9779038E5,1.3060562E7,7.8273475E6,1.0782422E5,1.3304906E7,4.9810645E3,1.9280931E5,7.522695E6,5.537867E6,4.7612725E6,3.066075E6,9.33061E4,1.4518115E4,3.1500675E6,1.0154838E7,2.5270706E3,2.453994E3,1.712168E5,2.1592521E4,1.1350895E4,7.511344E6,8.1864825E5,4.719219E6,3.0870398E6,1.6742329E6,3.0288095E6,3.7265445E4,1.1543893E4,8.176221E4,8.939546E3,5.5785684E3,9.649595E5,2.185108E6,9.541949E6,6.128889E5,1.0244591E3,1.5026113E3,1.5932761E3,8.607178E2,1.68652E5,2.564795E3,3.399952E3,1.819257E4,3.9548865E3,7.3960083E3,7.092614E6,4.1873012E5,6.5252725E5,1.6612098E5,4.6226485E6,9.65704E4,2.7031812E6,3.8385853E5,1.648227E6,2.6005834E4,2.1592622E6,8.6954725E5,1.0355545E4,2.6909898E4,4.5725874E3,6.9713057E3,4.777674E4,3.398547E4,3.456741E3,5.482805E3,1.5033181E3,4.0752505E3,6.6659945E4,8.9829956E5,2.1693085E6,1.5799529E4,7.5311835E6,2.0107659E6,2.0873722E5,4.0415166E5,1.1617692E2,9.0828217E2,1.209182E2,1.3816931E3,1.2224021E3,3.70874E2,6.831193E2,1.7759843E2,1.5223584E5,1.6416154E4,1.0409927E3,1.5238022E3,1.973447E3,1.4265049E3,1.6377288E3,1.6554842E4,3.4018228E3,5.5306366E2,6.9305444E3,4.6546378E2,7.0479855E6,4.462852E4,1.5108107E4,4.03622E5,5.8234306E5,7.018421E4,1.645303E5,1.5906969E3,4.2176905E6,4.0495784E5,1.2918755E4,8.365164E4,2.3694065E6,3.3377475E5,5.219159E3,3.7863938E5,5.701566E5,1.0780704E6,2.2173893E4,3.83194E3,5.115806E3,2.1541465E6,7.856196E5,8.3927625E4,8.754414E3,1.6011315E3,3.4261353E3,2.3483764E4],"tree_param":{"num_deleted":"0","num_feature":"79","num_nodes":"127","size_leaf_vector":"1"}},{"base_weights":[2.879852E-7,1.8195601E-2,-1.3928378E-2,1.5665678E-2,2.0064811E-1,-9.6083125E-3,-6.7933396E-2,1.7376356E-1,1.4462829E-2,1.0958284E0,1.6876857E-1,5.9831506E-3,-2.1194527E-2,-1.6139783E-1,-5.4029834E-2,1.09763965E-1,5.848526E-1,3.839002E-2,7.357954E-3,1.712246E0,5.6041765E-1,1.2819909E-1,4.3053553E-1,4.516932E-1,5.4248055E-3,1.170746E-2,-2.8372252E-2,-1.3629249E-1,-5.712083E-1,4.7618654E-1,-5.5541888E-2,3.878502E-1,7.975282E-2,3.3694538E-1,9.911969E-1,6.043789E-2,2.8471917E-2,1.0660653E-2,-3.8800817E-2,2.3120766E0,1.1927485E0,7.399703E-1,-9.941009E-2,1.1848035E-1,8.288022E-1,1.2120674E0,2.9878747E-1,2.2956572E-1,1.9339254E0,7.355446E-3,-7.952841E-2,6.0848884E-2,-6.3598407E-3,-3.6201645E-2,4.558649E-3,-1.0616344E-1,-3.1040785E-1,-4.7247598E-1,-1.5691075E0,1.3082556E0,5.4180674E-2,-2.075793E-2,-7.216255E-2,6.12444E-4,2.6472578E-2,1.171457E-3,8.32473E-3,3.13989E-2,7.7972426E-3,8.616594E-2,3.216212E-2,7.50053E-3,2.699807E-3,1.4927385E-3,-8.153106E-3,1.3926051E-3,1.2811075E-4,-3.25793E-3,-6.194111E-4,1.2197419E-1,-1.1764016E-1,6.53937E-2,-8.395556E-2,4.911584E-2,7.861356E-3,-1.7898306E-2,5.235981E-2,8.276185E-3,7.5936265E-4,8.1505656E-2,1.3858533E-2,9.069931E-2,2.039974E-2,-1.7950473E-2,1.7951416E-2,4.0284503E-2,-3.406283E-3,1.2408596E-1,1.9953517E-2,1.792948E-3,1.6432576E-4,-6.0537965E-3,4.8283967E-3,1.3784062E-3,5.826601E-3,-1.9782537E-4,-8.984747E-3,-1.5124766E-3,-4.737136E-3,3.590129E-4,-1.0202683E-2,3.4182604E-2,-5.5166497E-3,8.9909725E-2,-1.5941145E-2,-1.7081447E-2,-4.6234213E-2,-1.0040537E-1,-9.599091E-3,3.4892883E-2,1.1731352E-1,-5.918561E-3,4.3720927E-2,1.134059E-3,-1.759021E-3,-2.6708592E-3,-5.5845464E-3],"categories":[],"categories_nodes":[],"categories_segments":[],"categories_sizes":[],"default_left":[0,0,0,0,0,0,0,0,0,1,1,1,0,0,0,0,0,0,0,1,0,1,1,0,0,1,0,1,0,0,1,0,1,0,0,0,0,0,0,0,0,0,0,0,0,0,1,0,0,0,0,0,0,0,0,0,0,0,0,0,0,1,0,0,0,0,0,0,0,0,0,0,0,0,0,0,0,0,0,0,0,0,0,0,0,0,0,0,0,0,0,0,0,0,0,0,0,0,0,0,0,0,0,0,0,0,0,0,0,0,0,0,0,0,0,0,0,0,0,0,0,0,0,0,0,0,0],"id":11,"left_children":[1,3,5,7,9,11,13,15,17,19,21,23,25,27,29,31,33,35,37,39,41,43,45,47,49,51,53,55,57,59,61,63,65,67,69,71,73,75,77,79,81,83,85,87,89,91,93,95,97,99,101,103,105,107,109,111,113,115,117,119,121,123,125,-1,-1,-1,-1,-1,-1,-1,-1,-1,-1,-1,-1,-1,-1,-1,-1,-1,-1,-1,-1,-1,-1,-1,-1,-1,-1,-1,-1,-1,-1,-1,-1,-1,-1,-1,-1,-1,-1,-1,-1,-1,-1,-1,-1,-1,-1,-1,-1,-1,-1,-1,-1,-1,-1,-1,-1,-1,-1,-1,-1,-1,-1,-1,-1],"loss_changes":[8.743159E3,6.9045645E3,4.558835E3,2.8056665E3,5.83801E3,3.2684116E3,1.8807666E3,2.9308652E3,2.4891746E3,2.3207676E3,2.0978003E3,1.9195175E3,2.4512744E3,1.9281738E3,1.01010913E3,8.0445996E2,1.5113867E3,7.3307275E2,1.7211217E3,1.0160576E3,4.462743E2,1.1644875E3,2.7289565E3,3.1768848E3,1.2635006E3,1.6503895E3,2.1969087E3,9.264092E2,1.0651404E3,1.2579985E3,7.263174E2,4.9937927E2,4.2508154E2,4.9095654E2,1.4473267E3,6.001594E2,6.1243066E2,1.466862E3,5.2481934E2,9.069785E2,5.821599E2,4.1797498E2,2.3947769E2,8.197427E2,1.0338885E3,1.8498042E3,8.990348E2,1.4396477E3,1.0563691E3,8.7360144E2,1.2524369E3,9.2603687E2,5.6619714E2,2.398712E3,8.95117E2,4.9586963E2,4.628191E2,5.822622E2,5.8819727E2,7.622383E2,3.367024E2,2.5448978E2,6.299053E2,0E0,0E0,0E0,0E0,0E0,0E0,0E0,0E0,0E0,0E0,0E0,0E0,0E0,0E0,0E0,0E0,0E0,0E0,0E0,0E0,0E0,0E0,0E0,0E0,0E0,0E0,0E0,0E0,0E0,0E0,0E0,0E0,0E0,0E0,0E0,0E0,0E0,0E0,0E0,0E0,0E0,0E0,0E0,0E0,0E0,0E0,0E0,0E0,0E0,0E0,0E0,0E0,0E0,0E0,0E0,0E0,0E0,0E0,0E0,0E0,0E0,0E0,0E0,0E0],"parents":[2147483647,0,0,1,1,2,2,3,3,4,4,5,5,6,6,7,7,8,8,9,9,10,10,11,11,12,12,13,13,14,14,15,15,16,16,17,17,18,18,19,19,20,20,21,21,22,22,23,23,24,24,25,25,26,26,27,27,28,28,29,29,30,30,31,31,32,32,33,33,34,34,35,35,36,36,37,37,38,38,39,39,40,40,41,41,42,42,43,43,44,44,45,45,46,46,47,47,48,48,49,49,50,50,51,51,52,52,53,53,54,54,55,55,56,56,57,57,58,58,59,59,60,60,61,61,62,62],"right_children":[2,4,6,8,10,12,14,16,18,20,22,24,26,28,30,32,34,36,38,40,42,44,46,48,50,52,54,56,58,60,62,64,66,68,70,72,74,76,78,80,82,84,86,88,90,92,94,96,98,100,102,104,106,108,110,112,114,116,118,120,122,124,126,-1,-1,-1,-1,-1,-1,-1,-1,-1,-1,-1,-1,-1,-1,-1,-1,-1,-1,-1,-1,-1,-1,-1,-1,-1,-1,-1,-1,-1,-1,-1,-1,-1,-1,-1,-1,-1,-1,-1,-1,-1,-1,-1,-1,-1,-1,-1,-1,-1,-1,-1,-1,-1,-1,-1,-1,-1,-1,-1,-1,-1,-1,-1,-1],"split_conditions":[-1.7366433E-1,2.5195312E0,1.3532537E0,-2.2323174E0,-1.7022657E0,-2.6834404E-2,-1.2773366E0,1.1496639E0,-7.36488E-1,-8.094578E-1,5.577611E-1,-1.2559617E1,-9.963392E-1,1.983687E0,-2.4905603E0,-6.006033E-1,7.5393546E-1,-2.8155178E-1,1.4720384E0,-1.870828E0,1.160568E0,1.5573767E0,-1.0871258E0,1.5573767E0,1.8285067E0,-1.1726441E0,7.012979E-1,4.4370535E-1,2.3770204E0,-1.1918365E0,-4.8312534E-2,-6.9383174E-2,2.8357574E-1,-1.0314606E0,-9.7690445E-1,-1.2558626E0,3.2471795E0,-4.5370075E-1,-2.3845586E-1,2.4333534E0,4.431882E0,-2.5872436E-1,1.4528408E0,-1.1619422E-1,-2.6734528E-1,4.476148E-1,-2.7619097E-1,-1.5326995E0,-8.1971693E-1,-1.3758923E0,6.128019E-1,1.4803549E0,2.768952E0,1.371465E0,3.2047327E0,-1.8807304E0,-2.2236903E0,2.4824455E0,-1.6690588E-1,2.4858704E0,1.6441691E0,-3.6965105E-1,5.2510303E-1,6.12444E-4,2.6472578E-2,1.171457E-3,8.32473E-3,3.13989E-2,7.7972426E-3,8.616594E-2,3.216212E-2,7.50053E-3,2.699807E-3,1.4927385E-3,-8.153106E-3,1.3926051E-3,1.2811075E-4,-3.25793E-3,-6.194111E-4,1.2197419E-1,-1.1764016E-1,6.53937E-2,-8.395556E-2,4.911584E-2,7.861356E-3,-1.7898306E-2,5.235981E-2,8.276185E-3,7.5936265E-4,8.1505656E-2,1.3858533E-2,9.069931E-2,2.039974E-2,-1.7950473E-2,1.7951416E-2,4.0284503E-2,-3.406283E-3,1.2408596E-1,1.9953517E-2,1.792948E-3,1.6432576E-4,-6.0537965E-3,4.8283967E-3,1.3784062E-3,5.826601E-3,-1.9782537E-4,-8.984747E-3,-1.5124766E-3,-4.737136E-3,3.590129E-4,-1.0202683E-2,3.4182604E-2,-5.5166497E-3,8.9909725E-2,-1.5941145E-2,-1.7081447E-2,-4.6234213E-2,-1.0040537E-1,-9.599091E-3,3.4892883E-2,1.1731352E-1,-5.918561E-3,4.3720927E-2,1.134059E-3,-1.759021E-3,-2.6708592E-3,-5.5845464E-3],"split_indices":[4,58,19,36,33,6,8,58,6,52,74,75,56,36,36,72,74,13,19,42,8,17,52,17,72,39,59,31,33,52,21,73,78,52,52,36,37,36,8,14,0,62,25,8,14,66,76,36,52,56,7,35,37,6,1,33,33,4,61,50,41,27,6,0,0,0,0,0,0,0,0,0,0,0,0,0,0,0,0,0,0,0,0,0,0,0,0,0,0,0,0,0,0,0,0,0,0,0,0,0,0,0,0,0,0,0,0,0,0,0,0,0,0,0,0,0,0,0,0,0,0,0,0,0,0,0,0],"split_type":[0,0,0,0,0,0,0,0,0,0,0,0,0,0,0,0,0,0,0,0,0,0,0,0,0,0,0,0,0,0,0,0,0,0,0,0,0,0,0,0,0,0,0,0,0,0,0,0,0,0,0,0,0,0,0,0,0,0,0,0,0,0,0,0,0,0,0,0,0,0,0,0,0,0,0,0,0,0,0,0,0,0,0,0,0,0,0,0,0,0,0,0,0,0,0,0,0,0,0,0,0,0,0,0,0,0,0,0,0,0,0,0,0,0,0,0,0,0,0,0,0,0,0,0,0,0,0],"sum_hessian":[3.4498428E7,1.4958206E7,1.9540224E7,1.4753631E7,2.045756E5,1.8092904E7,1.4473185E6,1.1140081E5,1.464223E7,7.033756E3,1.9754184E5,7.713252E6,1.0379653E7,1.8741839E5,1.2599E6,9.639501E4,1.5005802E4,3.3523768E6,1.1289853E7,3.2685186E3,3.7652375E3,1.7103567E5,2.6506166E4,9.64936E3,7.7036025E6,1.8588531E6,8.5208E6,1.76601E5,1.08173955E4,3.5818342E3,1.2563182E6,9.388483E3,8.700652E4,9.320981E3,5.684821E3,1.04014256E6,2.3122342E6,1.0535995E7,7.538585E5,1.5153684E3,1.75315E3,2.9597163E3,8.05521E2,1.6869669E5,2.3389863E3,3.822547E3,2.268362E4,8.392773E3,1.256587E3,7.5324225E6,1.7118034E5,4.997032E5,1.35915E6,6.884092E6,1.6367076E6,1.5055112E5,2.604987E4,9.84482E3,9.7257513E2,1.2046082E3,2.377226E3,4.0620628E5,8.5011194E5,2.5707058E3,6.817778E3,5.275355E4,3.4252973E4,3.573172E3,5.747809E3,1.8301333E3,3.8546875E3,6.9783195E4,9.703594E5,2.2956608E6,1.6573535E4,3.3738812E6,7.1621135E6,3.7732003E5,3.7653847E5,1.4755453E3,3.982308E1,1.6861031E3,6.70469E1,2.0899001E3,8.698163E2,6.5786285E2,1.4765816E2,1.1590763E5,5.278905E4,9.528714E2,1.3861149E3,2.185359E3,1.6371884E3,1.9026593E3,2.0780959E4,2.8586672E3,5.534106E3,9.2561554E2,3.3097156E2,9.409448E5,6.5914775E6,1.3850283E5,3.2677521E4,3.127687E5,1.8693452E5,1.3405638E6,